digraph Tree {
node [shape=box, style="filled, rounded", color="black", fontname=helvetica] ;
edge [fontname=helvetica] ;
0 [label="X[0] <= 0.002\nmse = 59291.543\nsamples = 1470\nvalue = 794.387", fillcolor="#f0b58a"] ;
1 [label="X[2] <= 0.008\nmse = 57271.235\nsamples = 1089\nvalue = 835.01", fillcolor="#eeae7f"] ;
0 -> 1 [labeldistance=2.5, labelangle=45, headlabel="True"] ;
2 [label="X[3] <= 0.0\nmse = 52371.744\nsamples = 932\nvalue = 866.08", fillcolor="#eda877"] ;
1 -> 2 ;
3 [label="X[1] <= 0.018\nmse = 45594.786\nsamples = 753\nvalue = 900.345", fillcolor="#eca26d"] ;
2 -> 3 ;
4 [label="X[3] <= 0.0\nmse = 31183.658\nsamples = 403\nvalue = 971.953", fillcolor="#e9965a"] ;
3 -> 4 ;
5 [label="X[0] <= 0.002\nmse = 17481.401\nsamples = 117\nvalue = 1038.017", fillcolor="#e78b48"] ;
4 -> 5 ;
6 [label="X[1] <= 0.013\nmse = 8402.474\nsamples = 93\nvalue = 1062.387", fillcolor="#e68641"] ;
5 -> 6 ;
7 [label="X[0] <= 0.001\nmse = 5886.234\nsamples = 86\nvalue = 1070.698", fillcolor="#e6853f"] ;
6 -> 7 ;
8 [label="X[3] <= 0.0\nmse = 3.182\nsamples = 37\nvalue = 1092.703", fillcolor="#e58139"] ;
7 -> 8 ;
9 [label="mse = 0.0\nsamples = 32\nvalue = 1093.0", fillcolor="#e58139"] ;
8 -> 9 ;
10 [label="X[3] <= 0.0\nmse = 19.36\nsamples = 5\nvalue = 1090.8", fillcolor="#e5813a"] ;
8 -> 10 ;
11 [label="mse = 0.0\nsamples = 1\nvalue = 1082.0", fillcolor="#e5833c"] ;
10 -> 11 ;
12 [label="mse = 0.0\nsamples = 4\nvalue = 1093.0", fillcolor="#e58139"] ;
10 -> 12 ;
13 [label="X[0] <= 0.001\nmse = 9686.81\nsamples = 49\nvalue = 1054.082", fillcolor="#e68844"] ;
7 -> 13 ;
14 [label="mse = 0.0\nsamples = 1\nvalue = 772.0", fillcolor="#f0b990"] ;
13 -> 14 ;
15 [label="X[0] <= 0.002\nmse = 8196.373\nsamples = 48\nvalue = 1059.958", fillcolor="#e68742"] ;
13 -> 15 ;
16 [label="X[0] <= 0.002\nmse = 11764.135\nsamples = 31\nvalue = 1041.839", fillcolor="#e78a47"] ;
15 -> 16 ;
17 [label="X[0] <= 0.002\nmse = 8012.707\nsamples = 30\nvalue = 1053.4", fillcolor="#e68844"] ;
16 -> 17 ;
18 [label="X[0] <= 0.002\nmse = 6329.917\nsamples = 26\nvalue = 1064.077", fillcolor="#e68641"] ;
17 -> 18 ;
19 [label="X[3] <= 0.0\nmse = 12977.76\nsamples = 10\nvalue = 1017.8", fillcolor="#e88e4d"] ;
18 -> 19 ;
20 [label="X[3] <= 0.0\nmse = 12971.556\nsamples = 3\nvalue = 934.333", fillcolor="#eb9c64"] ;
19 -> 20 ;
21 [label="mse = 0.0\nsamples = 1\nvalue = 1093.0", fillcolor="#e58139"] ;
20 -> 21 ;
22 [label="X[0] <= 0.002\nmse = 576.0\nsamples = 2\nvalue = 855.0", fillcolor="#eeaa7a"] ;
20 -> 22 ;
23 [label="mse = 0.0\nsamples = 1\nvalue = 831.0", fillcolor="#eeae80"] ;
22 -> 23 ;
24 [label="mse = 0.0\nsamples = 1\nvalue = 879.0", fillcolor="#eda673"] ;
22 -> 24 ;
25 [label="X[0] <= 0.001\nmse = 8715.102\nsamples = 7\nvalue = 1053.571", fillcolor="#e68844"] ;
19 -> 25 ;
26 [label="X[0] <= 0.001\nmse = 17956.0\nsamples = 2\nvalue = 959.0", fillcolor="#ea985d"] ;
25 -> 26 ;
27 [label="mse = 0.0\nsamples = 1\nvalue = 1093.0", fillcolor="#e58139"] ;
26 -> 27 ;
28 [label="mse = 0.0\nsamples = 1\nvalue = 825.0", fillcolor="#efaf82"] ;
26 -> 28 ;
29 [label="X[3] <= 0.0\nmse = 10.24\nsamples = 5\nvalue = 1091.4", fillcolor="#e58139"] ;
25 -> 29 ;
30 [label="mse = 0.0\nsamples = 3\nvalue = 1093.0", fillcolor="#e58139"] ;
29 -> 30 ;
31 [label="X[3] <= 0.0\nmse = 16.0\nsamples = 2\nvalue = 1089.0", fillcolor="#e5823a"] ;
29 -> 31 ;
32 [label="mse = 0.0\nsamples = 1\nvalue = 1085.0", fillcolor="#e5823b"] ;
31 -> 32 ;
33 [label="mse = 0.0\nsamples = 1\nvalue = 1093.0", fillcolor="#e58139"] ;
31 -> 33 ;
34 [label="mse = 0.0\nsamples = 16\nvalue = 1093.0", fillcolor="#e58139"] ;
18 -> 34 ;
35 [label="X[3] <= 0.0\nmse = 13393.5\nsamples = 4\nvalue = 984.0", fillcolor="#e99457"] ;
17 -> 35 ;
36 [label="X[3] <= 0.0\nmse = 3025.0\nsamples = 2\nvalue = 875.0", fillcolor="#eda774"] ;
35 -> 36 ;
37 [label="mse = 0.0\nsamples = 1\nvalue = 930.0", fillcolor="#eb9d65"] ;
36 -> 37 ;
38 [label="mse = 0.0\nsamples = 1\nvalue = 820.0", fillcolor="#efb083"] ;
36 -> 38 ;
39 [label="mse = 0.0\nsamples = 2\nvalue = 1093.0", fillcolor="#e58139"] ;
35 -> 39 ;
40 [label="mse = 0.0\nsamples = 1\nvalue = 695.0", fillcolor="#f3c6a5"] ;
16 -> 40 ;
41 [label="mse = 0.0\nsamples = 17\nvalue = 1093.0", fillcolor="#e58139"] ;
15 -> 41 ;
42 [label="X[2] <= 0.002\nmse = 28043.061\nsamples = 7\nvalue = 960.286", fillcolor="#ea985d"] ;
6 -> 42 ;
43 [label="mse = 0.0\nsamples = 3\nvalue = 1093.0", fillcolor="#e58139"] ;
42 -> 43 ;
44 [label="X[3] <= 0.0\nmse = 25958.188\nsamples = 4\nvalue = 860.75", fillcolor="#eda978"] ;
42 -> 44 ;
45 [label="X[2] <= 0.005\nmse = 6724.0\nsamples = 2\nvalue = 1011.0", fillcolor="#e88f4f"] ;
44 -> 45 ;
46 [label="mse = 0.0\nsamples = 1\nvalue = 929.0", fillcolor="#eb9d66"] ;
45 -> 46 ;
47 [label="mse = 0.0\nsamples = 1\nvalue = 1093.0", fillcolor="#e58139"] ;
45 -> 47 ;
48 [label="X[0] <= 0.002\nmse = 42.25\nsamples = 2\nvalue = 710.5", fillcolor="#f3c3a1"] ;
44 -> 48 ;
49 [label="mse = 0.0\nsamples = 1\nvalue = 717.0", fillcolor="#f2c29f"] ;
48 -> 49 ;
50 [label="mse = 0.0\nsamples = 1\nvalue = 704.0", fillcolor="#f3c4a3"] ;
48 -> 50 ;
51 [label="X[2] <= 0.0\nmse = 41443.16\nsamples = 24\nvalue = 943.583", fillcolor="#ea9b62"] ;
5 -> 51 ;
52 [label="X[2] <= 0.0\nmse = 50075.333\nsamples = 9\nvalue = 800.333", fillcolor="#efb489"] ;
51 -> 52 ;
53 [label="mse = 0.0\nsamples = 2\nvalue = 1093.0", fillcolor="#e58139"] ;
52 -> 53 ;
54 [label="X[2] <= 0.0\nmse = 32917.918\nsamples = 7\nvalue = 716.714", fillcolor="#f2c29f"] ;
52 -> 54 ;
55 [label="X[0] <= 0.002\nmse = 3304.25\nsamples = 4\nvalue = 595.5", fillcolor="#f7d7c0"] ;
54 -> 55 ;
56 [label="X[0] <= 0.002\nmse = 266.889\nsamples = 3\nvalue = 563.333", fillcolor="#f8ddc9"] ;
55 -> 56 ;
57 [label="mse = 0.0\nsamples = 1\nvalue = 543.0", fillcolor="#f9e0cf"] ;
56 -> 57 ;
58 [label="X[3] <= 0.0\nmse = 90.25\nsamples = 2\nvalue = 573.5", fillcolor="#f8dbc6"] ;
56 -> 58 ;
59 [label="mse = 0.0\nsamples = 1\nvalue = 564.0", fillcolor="#f8ddc9"] ;
58 -> 59 ;
60 [label="mse = 0.0\nsamples = 1\nvalue = 583.0", fillcolor="#f7d9c4"] ;
58 -> 60 ;
61 [label="mse = 0.0\nsamples = 1\nvalue = 692.0", fillcolor="#f3c6a6"] ;
55 -> 61 ;
62 [label="X[3] <= 0.0\nmse = 26691.556\nsamples = 3\nvalue = 878.333", fillcolor="#eda673"] ;
54 -> 62 ;
63 [label="X[2] <= 0.0\nmse = 5476.0\nsamples = 2\nvalue = 771.0", fillcolor="#f1b991"] ;
62 -> 63 ;
64 [label="mse = 0.0\nsamples = 1\nvalue = 845.0", fillcolor="#eeac7d"] ;
63 -> 64 ;
65 [label="mse = 0.0\nsamples = 1\nvalue = 697.0", fillcolor="#f3c6a5"] ;
63 -> 65 ;
66 [label="mse = 0.0\nsamples = 1\nvalue = 1093.0", fillcolor="#e58139"] ;
62 -> 66 ;
67 [label="X[3] <= 0.0\nmse = 16564.116\nsamples = 15\nvalue = 1029.533", fillcolor="#e78c4a"] ;
51 -> 67 ;
68 [label="mse = 0.0\nsamples = 11\nvalue = 1093.0", fillcolor="#e58139"] ;
67 -> 68 ;
69 [label="X[0] <= 0.002\nmse = 20576.5\nsamples = 4\nvalue = 855.0", fillcolor="#eeaa7a"] ;
67 -> 69 ;
70 [label="X[3] <= 0.0\nmse = 2260.222\nsamples = 3\nvalue = 775.667", fillcolor="#f0b88f"] ;
69 -> 70 ;
71 [label="mse = 0.0\nsamples = 1\nvalue = 710.0", fillcolor="#f3c3a1"] ;
70 -> 71 ;
72 [label="X[3] <= 0.0\nmse = 156.25\nsamples = 2\nvalue = 808.5", fillcolor="#efb286"] ;
70 -> 72 ;
73 [label="mse = 0.0\nsamples = 1\nvalue = 796.0", fillcolor="#f0b48a"] ;
72 -> 73 ;
74 [label="mse = 0.0\nsamples = 1\nvalue = 821.0", fillcolor="#efb083"] ;
72 -> 74 ;
75 [label="mse = 0.0\nsamples = 1\nvalue = 1093.0", fillcolor="#e58139"] ;
69 -> 75 ;
76 [label="X[0] <= 0.002\nmse = 34273.236\nsamples = 286\nvalue = 944.927", fillcolor="#ea9b61"] ;
4 -> 76 ;
77 [label="X[3] <= 0.0\nmse = 32028.767\nsamples = 264\nvalue = 957.133", fillcolor="#ea995e"] ;
76 -> 77 ;
78 [label="X[2] <= 0.006\nmse = 26351.015\nsamples = 183\nvalue = 980.847", fillcolor="#e99458"] ;
77 -> 78 ;
79 [label="X[0] <= 0.002\nmse = 20784.87\nsamples = 143\nvalue = 1003.727", fillcolor="#e89051"] ;
78 -> 79 ;
80 [label="X[2] <= 0.004\nmse = 14071.18\nsamples = 100\nvalue = 1025.8", fillcolor="#e78d4b"] ;
79 -> 80 ;
81 [label="X[0] <= 0.001\nmse = 11509.668\nsamples = 62\nvalue = 1044.532", fillcolor="#e78946"] ;
80 -> 81 ;
82 [label="X[0] <= 0.001\nmse = 12997.494\nsamples = 53\nvalue = 1036.302", fillcolor="#e78b48"] ;
81 -> 82 ;
83 [label="X[1] <= 0.015\nmse = 11572.763\nsamples = 52\nvalue = 1041.923", fillcolor="#e78a47"] ;
82 -> 83 ;
84 [label="X[1] <= 0.014\nmse = 14518.206\nsamples = 38\nvalue = 1026.711", fillcolor="#e78c4b"] ;
83 -> 84 ;
85 [label="X[2] <= 0.003\nmse = 8054.533\nsamples = 34\nvalue = 1049.235", fillcolor="#e78945"] ;
84 -> 85 ;
86 [label="X[1] <= 0.007\nmse = 11707.479\nsamples = 19\nvalue = 1014.684", fillcolor="#e88f4e"] ;
85 -> 86 ;
87 [label="X[0] <= 0.001\nmse = 12966.204\nsamples = 7\nvalue = 924.714", fillcolor="#eb9e67"] ;
86 -> 87 ;
88 [label="X[3] <= 0.0\nmse = 10612.5\nsamples = 4\nvalue = 993.0", fillcolor="#e99254"] ;
87 -> 88 ;
89 [label="mse = 0.0\nsamples = 1\nvalue = 858.0", fillcolor="#edaa79"] ;
88 -> 89 ;
90 [label="X[1] <= 0.005\nmse = 6050.0\nsamples = 3\nvalue = 1038.0", fillcolor="#e78b48"] ;
88 -> 90 ;
91 [label="mse = 0.0\nsamples = 2\nvalue = 1093.0", fillcolor="#e58139"] ;
90 -> 91 ;
92 [label="mse = 0.0\nsamples = 1\nvalue = 928.0", fillcolor="#eb9e66"] ;
90 -> 92 ;
93 [label="X[0] <= 0.001\nmse = 1597.556\nsamples = 3\nvalue = 833.667", fillcolor="#eeae80"] ;
87 -> 93 ;
94 [label="X[1] <= 0.005\nmse = 342.25\nsamples = 2\nvalue = 807.5", fillcolor="#efb287"] ;
93 -> 94 ;
95 [label="mse = 0.0\nsamples = 1\nvalue = 826.0", fillcolor="#efaf82"] ;
94 -> 95 ;
96 [label="mse = 0.0\nsamples = 1\nvalue = 789.0", fillcolor="#f0b68c"] ;
94 -> 96 ;
97 [label="mse = 0.0\nsamples = 1\nvalue = 886.0", fillcolor="#eca571"] ;
93 -> 97 ;
98 [label="X[2] <= 0.003\nmse = 3496.972\nsamples = 12\nvalue = 1067.167", fillcolor="#e68540"] ;
86 -> 98 ;
99 [label="X[1] <= 0.013\nmse = 1270.744\nsamples = 11\nvalue = 1081.727", fillcolor="#e5833c"] ;
98 -> 99 ;
100 [label="mse = 0.0\nsamples = 9\nvalue = 1093.0", fillcolor="#e58139"] ;
99 -> 100 ;
101 [label="X[2] <= 0.002\nmse = 3844.0\nsamples = 2\nvalue = 1031.0", fillcolor="#e78c4a"] ;
99 -> 101 ;
102 [label="mse = 0.0\nsamples = 1\nvalue = 1093.0", fillcolor="#e58139"] ;
101 -> 102 ;
103 [label="mse = 0.0\nsamples = 1\nvalue = 969.0", fillcolor="#e9965b"] ;
101 -> 103 ;
104 [label="mse = 0.0\nsamples = 1\nvalue = 907.0", fillcolor="#eca16c"] ;
98 -> 104 ;
105 [label="mse = 0.0\nsamples = 15\nvalue = 1093.0", fillcolor="#e58139"] ;
85 -> 105 ;
106 [label="X[2] <= 0.002\nmse = 28489.688\nsamples = 4\nvalue = 835.25", fillcolor="#eeae7f"] ;
84 -> 106 ;
107 [label="mse = 0.0\nsamples = 1\nvalue = 1093.0", fillcolor="#e58139"] ;
106 -> 107 ;
108 [label="X[2] <= 0.003\nmse = 8459.556\nsamples = 3\nvalue = 749.333", fillcolor="#f1bd97"] ;
106 -> 108 ;
109 [label="mse = 0.0\nsamples = 1\nvalue = 622.0", fillcolor="#f6d3b9"] ;
108 -> 109 ;
110 [label="X[0] <= 0.001\nmse = 529.0\nsamples = 2\nvalue = 813.0", fillcolor="#efb285"] ;
108 -> 110 ;
111 [label="mse = 0.0\nsamples = 1\nvalue = 790.0", fillcolor="#f0b68c"] ;
110 -> 111 ;
112 [label="mse = 0.0\nsamples = 1\nvalue = 836.0", fillcolor="#eeae7f"] ;
110 -> 112 ;
113 [label="X[2] <= 0.001\nmse = 1244.883\nsamples = 14\nvalue = 1083.214", fillcolor="#e5833c"] ;
83 -> 113 ;
114 [label="mse = 0.0\nsamples = 1\nvalue = 956.0", fillcolor="#ea995e"] ;
113 -> 114 ;
115 [label="mse = 0.0\nsamples = 13\nvalue = 1093.0", fillcolor="#e58139"] ;
113 -> 115 ;
116 [label="mse = 0.0\nsamples = 1\nvalue = 744.0", fillcolor="#f1bd98"] ;
82 -> 116 ;
117 [label="mse = 0.0\nsamples = 9\nvalue = 1093.0", fillcolor="#e58139"] ;
81 -> 117 ;
118 [label="X[0] <= 0.0\nmse = 16743.865\nsamples = 38\nvalue = 995.237", fillcolor="#e89254"] ;
80 -> 118 ;
119 [label="X[3] <= 0.0\nmse = 1489.556\nsamples = 3\nvalue = 799.667", fillcolor="#efb489"] ;
118 -> 119 ;
120 [label="X[1] <= 0.012\nmse = 20.25\nsamples = 2\nvalue = 772.5", fillcolor="#f0b990"] ;
119 -> 120 ;
121 [label="mse = 0.0\nsamples = 1\nvalue = 768.0", fillcolor="#f1b992"] ;
120 -> 121 ;
122 [label="mse = 0.0\nsamples = 1\nvalue = 777.0", fillcolor="#f0b88f"] ;
120 -> 122 ;
123 [label="mse = 0.0\nsamples = 1\nvalue = 854.0", fillcolor="#eeaa7a"] ;
119 -> 123 ;
124 [label="X[2] <= 0.005\nmse = 14492.0\nsamples = 35\nvalue = 1012.0", fillcolor="#e88f4f"] ;
118 -> 124 ;
125 [label="X[1] <= 0.007\nmse = 16141.183\nsamples = 17\nvalue = 945.588", fillcolor="#ea9b61"] ;
124 -> 125 ;
126 [label="X[2] <= 0.005\nmse = 1764.75\nsamples = 4\nvalue = 833.5", fillcolor="#eeae80"] ;
125 -> 126 ;
127 [label="X[1] <= 0.005\nmse = 484.0\nsamples = 2\nvalue = 795.0", fillcolor="#f0b58a"] ;
126 -> 127 ;
128 [label="mse = 0.0\nsamples = 1\nvalue = 773.0", fillcolor="#f0b890"] ;
127 -> 128 ;
129 [label="mse = 0.0\nsamples = 1\nvalue = 817.0", fillcolor="#efb184"] ;
127 -> 129 ;
130 [label="X[0] <= 0.001\nmse = 81.0\nsamples = 2\nvalue = 872.0", fillcolor="#eda775"] ;
126 -> 130 ;
131 [label="mse = 0.0\nsamples = 1\nvalue = 863.0", fillcolor="#eda978"] ;
130 -> 131 ;
132 [label="mse = 0.0\nsamples = 1\nvalue = 881.0", fillcolor="#eda673"] ;
130 -> 132 ;
133 [label="X[1] <= 0.01\nmse = 15509.456\nsamples = 13\nvalue = 980.077", fillcolor="#e99558"] ;
125 -> 133 ;
134 [label="X[0] <= 0.001\nmse = 6968.889\nsamples = 6\nvalue = 1055.667", fillcolor="#e68743"] ;
133 -> 134 ;
135 [label="mse = 0.0\nsamples = 1\nvalue = 869.0", fillcolor="#eda876"] ;
134 -> 135 ;
136 [label="mse = 0.0\nsamples = 5\nvalue = 1093.0", fillcolor="#e58139"] ;
134 -> 136 ;
137 [label="X[2] <= 0.005\nmse = 13734.49\nsamples = 7\nvalue = 915.286", fillcolor="#eba069"] ;
133 -> 137 ;
138 [label="X[0] <= 0.001\nmse = 1542.16\nsamples = 5\nvalue = 844.2", fillcolor="#eeac7d"] ;
137 -> 138 ;
139 [label="X[3] <= 0.0\nmse = 343.5\nsamples = 4\nvalue = 862.0", fillcolor="#eda978"] ;
138 -> 139 ;
140 [label="mse = 0.0\nsamples = 1\nvalue = 830.0", fillcolor="#eeaf81"] ;
139 -> 140 ;
141 [label="X[3] <= 0.0\nmse = 2.889\nsamples = 3\nvalue = 872.667", fillcolor="#eda775"] ;
139 -> 141 ;
142 [label="X[2] <= 0.004\nmse = 0.25\nsamples = 2\nvalue = 871.5", fillcolor="#eda775"] ;
141 -> 142 ;
143 [label="mse = 0.0\nsamples = 1\nvalue = 872.0", fillcolor="#eda775"] ;
142 -> 143 ;
144 [label="mse = 0.0\nsamples = 1\nvalue = 871.0", fillcolor="#eda775"] ;
142 -> 144 ;
145 [label="mse = 0.0\nsamples = 1\nvalue = 875.0", fillcolor="#eda774"] ;
141 -> 145 ;
146 [label="mse = 0.0\nsamples = 1\nvalue = 773.0", fillcolor="#f0b890"] ;
138 -> 146 ;
147 [label="mse = 0.0\nsamples = 2\nvalue = 1093.0", fillcolor="#e58139"] ;
137 -> 147 ;
148 [label="X[1] <= 0.011\nmse = 4834.867\nsamples = 18\nvalue = 1074.722", fillcolor="#e6843e"] ;
124 -> 148 ;
149 [label="mse = 0.0\nsamples = 11\nvalue = 1093.0", fillcolor="#e58139"] ;
148 -> 149 ;
150 [label="X[1] <= 0.013\nmse = 11082.571\nsamples = 7\nvalue = 1046.0", fillcolor="#e78946"] ;
148 -> 150 ;
151 [label="mse = 0.0\nsamples = 1\nvalue = 789.0", fillcolor="#f0b68c"] ;
150 -> 151 ;
152 [label="X[3] <= 0.0\nmse = 86.806\nsamples = 6\nvalue = 1088.833", fillcolor="#e5823a"] ;
150 -> 152 ;
153 [label="mse = 0.0\nsamples = 5\nvalue = 1093.0", fillcolor="#e58139"] ;
152 -> 153 ;
154 [label="mse = 0.0\nsamples = 1\nvalue = 1068.0", fillcolor="#e68540"] ;
152 -> 154 ;
155 [label="X[3] <= 0.0\nmse = 32630.1\nsamples = 43\nvalue = 952.395", fillcolor="#ea995f"] ;
79 -> 155 ;
156 [label="X[2] <= 0.003\nmse = 210.25\nsamples = 2\nvalue = 631.5", fillcolor="#f6d1b7"] ;
155 -> 156 ;
157 [label="mse = 0.0\nsamples = 1\nvalue = 617.0", fillcolor="#f6d3bb"] ;
156 -> 157 ;
158 [label="mse = 0.0\nsamples = 1\nvalue = 646.0", fillcolor="#f5ceb3"] ;
156 -> 158 ;
159 [label="X[1] <= 0.013\nmse = 28943.412\nsamples = 41\nvalue = 968.049", fillcolor="#e9975b"] ;
155 -> 159 ;
160 [label="X[1] <= 0.003\nmse = 15816.933\nsamples = 27\nvalue = 1022.741", fillcolor="#e88d4c"] ;
159 -> 160 ;
161 [label="X[0] <= 0.002\nmse = 6.25\nsamples = 2\nvalue = 734.5", fillcolor="#f2bf9b"] ;
160 -> 161 ;
162 [label="mse = 0.0\nsamples = 1\nvalue = 737.0", fillcolor="#f2bf9a"] ;
161 -> 162 ;
163 [label="mse = 0.0\nsamples = 1\nvalue = 732.0", fillcolor="#f2c09b"] ;
161 -> 163 ;
164 [label="X[2] <= 0.006\nmse = 9903.44\nsamples = 25\nvalue = 1045.8", fillcolor="#e78946"] ;
160 -> 164 ;
165 [label="X[0] <= 0.002\nmse = 3278.302\nsamples = 23\nvalue = 1069.957", fillcolor="#e6853f"] ;
164 -> 165 ;
166 [label="X[1] <= 0.01\nmse = 841.0\nsamples = 2\nvalue = 899.0", fillcolor="#eca36e"] ;
165 -> 166 ;
167 [label="mse = 0.0\nsamples = 1\nvalue = 870.0", fillcolor="#eda876"] ;
166 -> 167 ;
168 [label="mse = 0.0\nsamples = 1\nvalue = 928.0", fillcolor="#eb9e66"] ;
166 -> 168 ;
169 [label="X[1] <= 0.013\nmse = 461.896\nsamples = 21\nvalue = 1086.238", fillcolor="#e5823b"] ;
165 -> 169 ;
170 [label="X[0] <= 0.002\nmse = 367.84\nsamples = 20\nvalue = 1088.6", fillcolor="#e5823a"] ;
169 -> 170 ;
171 [label="mse = 0.0\nsamples = 15\nvalue = 1093.0", fillcolor="#e58139"] ;
170 -> 171 ;
172 [label="X[0] <= 0.002\nmse = 1239.04\nsamples = 5\nvalue = 1075.4", fillcolor="#e6843e"] ;
170 -> 172 ;
173 [label="mse = 0.0\nsamples = 1\nvalue = 1005.0", fillcolor="#e89051"] ;
172 -> 173 ;
174 [label="mse = 0.0\nsamples = 4\nvalue = 1093.0", fillcolor="#e58139"] ;
172 -> 174 ;
175 [label="mse = 0.0\nsamples = 1\nvalue = 1039.0", fillcolor="#e78a48"] ;
169 -> 175 ;
176 [label="X[3] <= 0.0\nmse = 2209.0\nsamples = 2\nvalue = 768.0", fillcolor="#f1b992"] ;
164 -> 176 ;
177 [label="mse = 0.0\nsamples = 1\nvalue = 815.0", fillcolor="#efb185"] ;
176 -> 177 ;
178 [label="mse = 0.0\nsamples = 1\nvalue = 721.0", fillcolor="#f2c19e"] ;
176 -> 178 ;
179 [label="X[2] <= 0.003\nmse = 37364.531\nsamples = 14\nvalue = 862.571", fillcolor="#eda978"] ;
159 -> 179 ;
180 [label="X[3] <= 0.0\nmse = 10480.889\nsamples = 3\nvalue = 667.333", fillcolor="#f4cbad"] ;
179 -> 180 ;
181 [label="X[1] <= 0.015\nmse = 25.0\nsamples = 2\nvalue = 595.0", fillcolor="#f7d7c1"] ;
180 -> 181 ;
182 [label="mse = 0.0\nsamples = 1\nvalue = 590.0", fillcolor="#f7d8c2"] ;
181 -> 182 ;
183 [label="mse = 0.0\nsamples = 1\nvalue = 600.0", fillcolor="#f7d6bf"] ;
181 -> 183 ;
184 [label="mse = 0.0\nsamples = 1\nvalue = 812.0", fillcolor="#efb286"] ;
180 -> 184 ;
185 [label="X[1] <= 0.016\nmse = 31465.421\nsamples = 11\nvalue = 915.818", fillcolor="#eba069"] ;
179 -> 185 ;
186 [label="X[1] <= 0.016\nmse = 27077.734\nsamples = 8\nvalue = 849.375", fillcolor="#eeab7b"] ;
185 -> 186 ;
187 [label="X[3] <= 0.0\nmse = 18501.222\nsamples = 6\nvalue = 915.667", fillcolor="#eba069"] ;
186 -> 187 ;
188 [label="mse = 0.0\nsamples = 2\nvalue = 1093.0", fillcolor="#e58139"] ;
187 -> 188 ;
189 [label="X[3] <= 0.0\nmse = 4166.5\nsamples = 4\nvalue = 827.0", fillcolor="#efaf81"] ;
187 -> 189 ;
190 [label="mse = 0.0\nsamples = 1\nvalue = 723.0", fillcolor="#f2c19e"] ;
189 -> 190 ;
191 [label="X[3] <= 0.0\nmse = 748.222\nsamples = 3\nvalue = 861.667", fillcolor="#eda978"] ;
189 -> 191 ;
192 [label="X[1] <= 0.015\nmse = 132.25\nsamples = 2\nvalue = 843.5", fillcolor="#eeac7d"] ;
191 -> 192 ;
193 [label="mse = 0.0\nsamples = 1\nvalue = 855.0", fillcolor="#eeaa7a"] ;
192 -> 193 ;
194 [label="mse = 0.0\nsamples = 1\nvalue = 832.0", fillcolor="#eeae80"] ;
192 -> 194 ;
195 [label="mse = 0.0\nsamples = 1\nvalue = 898.0", fillcolor="#eca36e"] ;
191 -> 195 ;
196 [label="X[1] <= 0.016\nmse = 72.25\nsamples = 2\nvalue = 650.5", fillcolor="#f5ceb2"] ;
186 -> 196 ;
197 [label="mse = 0.0\nsamples = 1\nvalue = 642.0", fillcolor="#f5cfb4"] ;
196 -> 197 ;
198 [label="mse = 0.0\nsamples = 1\nvalue = 659.0", fillcolor="#f5ccaf"] ;
196 -> 198 ;
199 [label="mse = 0.0\nsamples = 3\nvalue = 1093.0", fillcolor="#e58139"] ;
185 -> 199 ;
200 [label="X[3] <= 0.0\nmse = 37687.698\nsamples = 40\nvalue = 899.05", fillcolor="#eca36e"] ;
78 -> 200 ;
201 [label="X[0] <= 0.002\nmse = 33123.679\nsamples = 32\nvalue = 929.406", fillcolor="#eb9d66"] ;
200 -> 201 ;
202 [label="X[2] <= 0.007\nmse = 28034.765\nsamples = 27\nvalue = 954.889", fillcolor="#ea995f"] ;
201 -> 202 ;
203 [label="X[2] <= 0.007\nmse = 29945.129\nsamples = 15\nvalue = 870.933", fillcolor="#eda775"] ;
202 -> 203 ;
204 [label="X[0] <= 0.001\nmse = 28987.702\nsamples = 11\nvalue = 917.545", fillcolor="#eb9f69"] ;
203 -> 204 ;
205 [label="X[3] <= 0.0\nmse = 19802.571\nsamples = 7\nvalue = 973.0", fillcolor="#e9965a"] ;
204 -> 205 ;
206 [label="mse = 0.0\nsamples = 3\nvalue = 1093.0", fillcolor="#e58139"] ;
205 -> 206 ;
207 [label="X[3] <= 0.0\nmse = 15754.5\nsamples = 4\nvalue = 883.0", fillcolor="#eda572"] ;
205 -> 207 ;
208 [label="X[0] <= 0.001\nmse = 1190.25\nsamples = 2\nvalue = 795.5", fillcolor="#f0b58a"] ;
207 -> 208 ;
209 [label="mse = 0.0\nsamples = 1\nvalue = 830.0", fillcolor="#eeaf81"] ;
208 -> 209 ;
210 [label="mse = 0.0\nsamples = 1\nvalue = 761.0", fillcolor="#f1bb93"] ;
208 -> 210 ;
211 [label="X[1] <= 0.013\nmse = 15006.25\nsamples = 2\nvalue = 970.5", fillcolor="#e9965a"] ;
207 -> 211 ;
212 [label="mse = 0.0\nsamples = 1\nvalue = 848.0", fillcolor="#eeab7c"] ;
211 -> 212 ;
213 [label="mse = 0.0\nsamples = 1\nvalue = 1093.0", fillcolor="#e58139"] ;
211 -> 213 ;
214 [label="X[0] <= 0.002\nmse = 30262.25\nsamples = 4\nvalue = 820.5", fillcolor="#efb083"] ;
204 -> 214 ;
215 [label="X[0] <= 0.001\nmse = 7346.889\nsamples = 3\nvalue = 729.667", fillcolor="#f2c09c"] ;
214 -> 215 ;
216 [label="mse = 0.0\nsamples = 1\nvalue = 609.0", fillcolor="#f6d5bd"] ;
215 -> 216 ;
217 [label="X[1] <= 0.008\nmse = 100.0\nsamples = 2\nvalue = 790.0", fillcolor="#f0b68c"] ;
215 -> 217 ;
218 [label="mse = 0.0\nsamples = 1\nvalue = 780.0", fillcolor="#f0b78e"] ;
217 -> 218 ;
219 [label="mse = 0.0\nsamples = 1\nvalue = 800.0", fillcolor="#efb489"] ;
217 -> 219 ;
220 [label="mse = 0.0\nsamples = 1\nvalue = 1093.0", fillcolor="#e58139"] ;
214 -> 220 ;
221 [label="X[2] <= 0.007\nmse = 10172.188\nsamples = 4\nvalue = 742.75", fillcolor="#f2be98"] ;
203 -> 221 ;
222 [label="mse = 0.0\nsamples = 1\nvalue = 571.0", fillcolor="#f8dbc7"] ;
221 -> 222 ;
223 [label="X[1] <= 0.009\nmse = 452.667\nsamples = 3\nvalue = 800.0", fillcolor="#efb489"] ;
221 -> 223 ;
224 [label="X[0] <= 0.001\nmse = 132.25\nsamples = 2\nvalue = 813.5", fillcolor="#efb185"] ;
223 -> 224 ;
225 [label="mse = 0.0\nsamples = 1\nvalue = 825.0", fillcolor="#efaf82"] ;
224 -> 225 ;
226 [label="mse = 0.0\nsamples = 1\nvalue = 802.0", fillcolor="#efb388"] ;
224 -> 226 ;
227 [label="mse = 0.0\nsamples = 1\nvalue = 773.0", fillcolor="#f0b890"] ;
223 -> 227 ;
228 [label="X[1] <= 0.017\nmse = 5822.806\nsamples = 12\nvalue = 1059.833", fillcolor="#e68742"] ;
202 -> 228 ;
229 [label="X[1] <= 0.008\nmse = 2162.25\nsamples = 10\nvalue = 1077.5", fillcolor="#e6843d"] ;
228 -> 229 ;
230 [label="X[1] <= 0.007\nmse = 5338.889\nsamples = 3\nvalue = 1041.333", fillcolor="#e78a47"] ;
229 -> 230 ;
231 [label="mse = 0.0\nsamples = 2\nvalue = 1093.0", fillcolor="#e58139"] ;
230 -> 231 ;
232 [label="mse = 0.0\nsamples = 1\nvalue = 938.0", fillcolor="#eb9c63"] ;
230 -> 232 ;
233 [label="mse = 0.0\nsamples = 7\nvalue = 1093.0", fillcolor="#e58139"] ;
229 -> 233 ;
234 [label="X[1] <= 0.017\nmse = 14762.25\nsamples = 2\nvalue = 971.5", fillcolor="#e9965a"] ;
228 -> 234 ;
235 [label="mse = 0.0\nsamples = 1\nvalue = 850.0", fillcolor="#eeab7b"] ;
234 -> 235 ;
236 [label="mse = 0.0\nsamples = 1\nvalue = 1093.0", fillcolor="#e58139"] ;
234 -> 236 ;
237 [label="X[3] <= 0.0\nmse = 38161.76\nsamples = 5\nvalue = 791.8", fillcolor="#f0b58b"] ;
201 -> 237 ;
238 [label="mse = 0.0\nsamples = 1\nvalue = 492.0", fillcolor="#fae9dd"] ;
237 -> 238 ;
239 [label="X[1] <= 0.008\nmse = 19614.688\nsamples = 4\nvalue = 866.75", fillcolor="#eda877"] ;
237 -> 239 ;
240 [label="X[3] <= 0.0\nmse = 196.0\nsamples = 2\nvalue = 750.0", fillcolor="#f1bc96"] ;
239 -> 240 ;
241 [label="mse = 0.0\nsamples = 1\nvalue = 736.0", fillcolor="#f2bf9a"] ;
240 -> 241 ;
242 [label="mse = 0.0\nsamples = 1\nvalue = 764.0", fillcolor="#f1ba93"] ;
240 -> 242 ;
243 [label="X[2] <= 0.007\nmse = 11772.25\nsamples = 2\nvalue = 983.5", fillcolor="#e99457"] ;
239 -> 243 ;
244 [label="mse = 0.0\nsamples = 1\nvalue = 1092.0", fillcolor="#e58139"] ;
243 -> 244 ;
245 [label="mse = 0.0\nsamples = 1\nvalue = 875.0", fillcolor="#eda774"] ;
243 -> 245 ;
246 [label="X[0] <= 0.002\nmse = 37513.734\nsamples = 8\nvalue = 777.625", fillcolor="#f0b88f"] ;
200 -> 246 ;
247 [label="X[2] <= 0.007\nmse = 2438.4\nsamples = 5\nvalue = 645.0", fillcolor="#f5cfb3"] ;
246 -> 247 ;
248 [label="X[2] <= 0.007\nmse = 1686.75\nsamples = 4\nvalue = 661.5", fillcolor="#f4ccaf"] ;
247 -> 248 ;
249 [label="mse = 0.0\nsamples = 1\nvalue = 594.0", fillcolor="#f7d7c1"] ;
248 -> 249 ;
250 [label="X[0] <= 0.001\nmse = 224.0\nsamples = 3\nvalue = 684.0", fillcolor="#f4c8a8"] ;
248 -> 250 ;
251 [label="mse = 0.0\nsamples = 1\nvalue = 704.0", fillcolor="#f3c4a3"] ;
250 -> 251 ;
252 [label="X[2] <= 0.007\nmse = 36.0\nsamples = 2\nvalue = 674.0", fillcolor="#f4caab"] ;
250 -> 252 ;
253 [label="mse = 0.0\nsamples = 1\nvalue = 668.0", fillcolor="#f4cbad"] ;
252 -> 253 ;
254 [label="mse = 0.0\nsamples = 1\nvalue = 680.0", fillcolor="#f4c9a9"] ;
252 -> 254 ;
255 [label="mse = 0.0\nsamples = 1\nvalue = 579.0", fillcolor="#f7dac5"] ;
247 -> 255 ;
256 [label="X[3] <= 0.0\nmse = 17797.556\nsamples = 3\nvalue = 998.667", fillcolor="#e89153"] ;
246 -> 256 ;
257 [label="mse = 0.0\nsamples = 1\nvalue = 810.0", fillcolor="#efb286"] ;
256 -> 257 ;
258 [label="mse = 0.0\nsamples = 2\nvalue = 1093.0", fillcolor="#e58139"] ;
256 -> 258 ;
259 [label="X[2] <= 0.008\nmse = 40715.235\nsamples = 81\nvalue = 903.556", fillcolor="#eca26d"] ;
77 -> 259 ;
260 [label="X[3] <= 0.0\nmse = 39585.634\nsamples = 79\nvalue = 910.316", fillcolor="#eca16b"] ;
259 -> 260 ;
261 [label="X[2] <= 0.004\nmse = 38953.438\nsamples = 56\nvalue = 884.75", fillcolor="#eca572"] ;
260 -> 261 ;
262 [label="X[2] <= 0.001\nmse = 34424.562\nsamples = 33\nvalue = 930.273", fillcolor="#eb9d65"] ;
261 -> 262 ;
263 [label="X[3] <= 0.0\nmse = 10816.0\nsamples = 2\nvalue = 686.0", fillcolor="#f4c8a8"] ;
262 -> 263 ;
264 [label="mse = 0.0\nsamples = 1\nvalue = 790.0", fillcolor="#f0b68c"] ;
263 -> 264 ;
265 [label="mse = 0.0\nsamples = 1\nvalue = 582.0", fillcolor="#f7dac4"] ;
263 -> 265 ;
266 [label="X[1] <= 0.016\nmse = 31849.709\nsamples = 31\nvalue = 946.032", fillcolor="#ea9a61"] ;
262 -> 266 ;
267 [label="X[3] <= 0.0\nmse = 26271.494\nsamples = 25\nvalue = 981.16", fillcolor="#e99457"] ;
266 -> 267 ;
268 [label="X[0] <= 0.001\nmse = 29619.0\nsamples = 6\nvalue = 861.0", fillcolor="#eda978"] ;
267 -> 268 ;
269 [label="mse = 0.0\nsamples = 2\nvalue = 1093.0", fillcolor="#e58139"] ;
268 -> 269 ;
270 [label="X[1] <= 0.007\nmse = 4060.5\nsamples = 4\nvalue = 745.0", fillcolor="#f1bd98"] ;
268 -> 270 ;
271 [label="mse = 0.0\nsamples = 1\nvalue = 639.0", fillcolor="#f5d0b5"] ;
270 -> 271 ;
272 [label="X[3] <= 0.0\nmse = 420.222\nsamples = 3\nvalue = 780.333", fillcolor="#f0b78e"] ;
270 -> 272 ;
273 [label="X[2] <= 0.002\nmse = 56.25\nsamples = 2\nvalue = 766.5", fillcolor="#f1ba92"] ;
272 -> 273 ;
274 [label="mse = 0.0\nsamples = 1\nvalue = 774.0", fillcolor="#f0b890"] ;
273 -> 274 ;
275 [label="mse = 0.0\nsamples = 1\nvalue = 759.0", fillcolor="#f1bb94"] ;
273 -> 275 ;
276 [label="mse = 0.0\nsamples = 1\nvalue = 808.0", fillcolor="#efb287"] ;
272 -> 276 ;
277 [label="X[0] <= 0.002\nmse = 19215.042\nsamples = 19\nvalue = 1019.105", fillcolor="#e88e4d"] ;
267 -> 277 ;
278 [label="X[0] <= 0.001\nmse = 22494.64\nsamples = 15\nvalue = 999.4", fillcolor="#e89152"] ;
277 -> 278 ;
279 [label="X[2] <= 0.001\nmse = 11887.56\nsamples = 10\nvalue = 1050.2", fillcolor="#e78845"] ;
278 -> 279 ;
280 [label="X[3] <= 0.0\nmse = 33306.25\nsamples = 2\nvalue = 910.5", fillcolor="#eca16b"] ;
279 -> 280 ;
281 [label="mse = 0.0\nsamples = 1\nvalue = 1093.0", fillcolor="#e58139"] ;
280 -> 281 ;
282 [label="mse = 0.0\nsamples = 1\nvalue = 728.0", fillcolor="#f2c09c"] ;
280 -> 282 ;
283 [label="X[3] <= 0.0\nmse = 434.109\nsamples = 8\nvalue = 1085.125", fillcolor="#e5823b"] ;
279 -> 283 ;
284 [label="mse = 0.0\nsamples = 7\nvalue = 1093.0", fillcolor="#e58139"] ;
283 -> 284 ;
285 [label="mse = 0.0\nsamples = 1\nvalue = 1030.0", fillcolor="#e78c4a"] ;
283 -> 285 ;
286 [label="X[0] <= 0.001\nmse = 28224.96\nsamples = 5\nvalue = 897.8", fillcolor="#eca36e"] ;
278 -> 286 ;
287 [label="mse = 0.0\nsamples = 1\nvalue = 683.0", fillcolor="#f4c8a9"] ;
286 -> 287 ;
288 [label="X[3] <= 0.0\nmse = 20862.75\nsamples = 4\nvalue = 951.5", fillcolor="#ea9a60"] ;
286 -> 288 ;
289 [label="mse = 0.0\nsamples = 2\nvalue = 1093.0", fillcolor="#e58139"] ;
288 -> 289 ;
290 [label="X[3] <= 0.0\nmse = 1681.0\nsamples = 2\nvalue = 810.0", fillcolor="#efb286"] ;
288 -> 290 ;
291 [label="mse = 0.0\nsamples = 1\nvalue = 851.0", fillcolor="#eeab7b"] ;
290 -> 291 ;
292 [label="mse = 0.0\nsamples = 1\nvalue = 769.0", fillcolor="#f1b991"] ;
290 -> 292 ;
293 [label="mse = 0.0\nsamples = 4\nvalue = 1093.0", fillcolor="#e58139"] ;
277 -> 293 ;
294 [label="X[2] <= 0.002\nmse = 28527.889\nsamples = 6\nvalue = 799.667", fillcolor="#efb489"] ;
266 -> 294 ;
295 [label="X[3] <= 0.0\nmse = 3249.0\nsamples = 2\nvalue = 614.0", fillcolor="#f6d4bb"] ;
294 -> 295 ;
296 [label="mse = 0.0\nsamples = 1\nvalue = 671.0", fillcolor="#f4caac"] ;
295 -> 296 ;
297 [label="mse = 0.0\nsamples = 1\nvalue = 557.0", fillcolor="#f8decb"] ;
295 -> 297 ;
298 [label="X[2] <= 0.002\nmse = 15313.25\nsamples = 4\nvalue = 892.5", fillcolor="#eca470"] ;
294 -> 298 ;
299 [label="mse = 0.0\nsamples = 1\nvalue = 1093.0", fillcolor="#e58139"] ;
298 -> 299 ;
300 [label="X[3] <= 0.0\nmse = 2550.889\nsamples = 3\nvalue = 825.667", fillcolor="#efaf82"] ;
298 -> 300 ;
301 [label="mse = 0.0\nsamples = 1\nvalue = 755.0", fillcolor="#f1bc95"] ;
300 -> 301 ;
302 [label="X[0] <= 0.001\nmse = 81.0\nsamples = 2\nvalue = 861.0", fillcolor="#eda978"] ;
300 -> 302 ;
303 [label="mse = 0.0\nsamples = 1\nvalue = 870.0", fillcolor="#eda876"] ;
302 -> 303 ;
304 [label="mse = 0.0\nsamples = 1\nvalue = 852.0", fillcolor="#eeab7b"] ;
302 -> 304 ;
305 [label="X[0] <= 0.002\nmse = 38211.985\nsamples = 23\nvalue = 819.435", fillcolor="#efb084"] ;
261 -> 305 ;
306 [label="X[3] <= 0.0\nmse = 41374.734\nsamples = 16\nvalue = 878.125", fillcolor="#eda674"] ;
305 -> 306 ;
307 [label="mse = 0.0\nsamples = 3\nvalue = 1093.0", fillcolor="#e58139"] ;
306 -> 307 ;
308 [label="X[1] <= 0.005\nmse = 37809.018\nsamples = 13\nvalue = 828.538", fillcolor="#eeaf81"] ;
306 -> 308 ;
309 [label="mse = 0.0\nsamples = 3\nvalue = 1093.0", fillcolor="#e58139"] ;
308 -> 309 ;
310 [label="X[0] <= 0.0\nmse = 21875.16\nsamples = 10\nvalue = 749.2", fillcolor="#f1bd97"] ;
308 -> 310 ;
311 [label="mse = 0.0\nsamples = 1\nvalue = 1093.0", fillcolor="#e58139"] ;
310 -> 311 ;
312 [label="X[1] <= 0.009\nmse = 9713.333\nsamples = 9\nvalue = 711.0", fillcolor="#f3c3a1"] ;
310 -> 312 ;
313 [label="X[3] <= 0.0\nmse = 906.188\nsamples = 4\nvalue = 802.75", fillcolor="#efb388"] ;
312 -> 313 ;
314 [label="mse = 0.0\nsamples = 1\nvalue = 755.0", fillcolor="#f1bc95"] ;
313 -> 314 ;
315 [label="X[1] <= 0.006\nmse = 194.889\nsamples = 3\nvalue = 818.667", fillcolor="#efb184"] ;
313 -> 315 ;
316 [label="X[0] <= 0.001\nmse = 2.25\nsamples = 2\nvalue = 828.5", fillcolor="#eeaf81"] ;
315 -> 316 ;
317 [label="mse = 0.0\nsamples = 1\nvalue = 827.0", fillcolor="#efaf81"] ;
316 -> 317 ;
318 [label="mse = 0.0\nsamples = 1\nvalue = 830.0", fillcolor="#eeaf81"] ;
316 -> 318 ;
319 [label="mse = 0.0\nsamples = 1\nvalue = 799.0", fillcolor="#f0b489"] ;
315 -> 319 ;
320 [label="X[2] <= 0.007\nmse = 4637.04\nsamples = 5\nvalue = 637.6", fillcolor="#f5d0b5"] ;
312 -> 320 ;
321 [label="X[3] <= 0.0\nmse = 3287.5\nsamples = 4\nvalue = 660.0", fillcolor="#f4ccaf"] ;
320 -> 321 ;
322 [label="X[0] <= 0.001\nmse = 342.25\nsamples = 2\nvalue = 604.5", fillcolor="#f6d6be"] ;
321 -> 322 ;
323 [label="mse = 0.0\nsamples = 1\nvalue = 586.0", fillcolor="#f7d9c3"] ;
322 -> 323 ;
324 [label="mse = 0.0\nsamples = 1\nvalue = 623.0", fillcolor="#f6d2b9"] ;
322 -> 324 ;
325 [label="X[3] <= 0.0\nmse = 72.25\nsamples = 2\nvalue = 715.5", fillcolor="#f3c2a0"] ;
321 -> 325 ;
326 [label="mse = 0.0\nsamples = 1\nvalue = 707.0", fillcolor="#f3c4a2"] ;
325 -> 326 ;
327 [label="mse = 0.0\nsamples = 1\nvalue = 724.0", fillcolor="#f2c19d"] ;
325 -> 327 ;
328 [label="mse = 0.0\nsamples = 1\nvalue = 548.0", fillcolor="#f8dfcd"] ;
320 -> 328 ;
329 [label="X[3] <= 0.0\nmse = 5113.633\nsamples = 7\nvalue = 685.286", fillcolor="#f4c8a8"] ;
305 -> 329 ;
330 [label="X[3] <= 0.0\nmse = 2025.0\nsamples = 2\nvalue = 785.0", fillcolor="#f0b68d"] ;
329 -> 330 ;
331 [label="mse = 0.0\nsamples = 1\nvalue = 740.0", fillcolor="#f2be99"] ;
330 -> 331 ;
332 [label="mse = 0.0\nsamples = 1\nvalue = 830.0", fillcolor="#eeaf81"] ;
330 -> 332 ;
333 [label="X[3] <= 0.0\nmse = 781.04\nsamples = 5\nvalue = 645.4", fillcolor="#f5cfb3"] ;
329 -> 333 ;
334 [label="X[2] <= 0.007\nmse = 221.556\nsamples = 3\nvalue = 625.333", fillcolor="#f6d2b8"] ;
333 -> 334 ;
335 [label="X[2] <= 0.005\nmse = 42.25\nsamples = 2\nvalue = 615.5", fillcolor="#f6d4bb"] ;
334 -> 335 ;
336 [label="mse = 0.0\nsamples = 1\nvalue = 622.0", fillcolor="#f6d3b9"] ;
335 -> 336 ;
337 [label="mse = 0.0\nsamples = 1\nvalue = 609.0", fillcolor="#f6d5bd"] ;
335 -> 337 ;
338 [label="mse = 0.0\nsamples = 1\nvalue = 645.0", fillcolor="#f5cfb3"] ;
334 -> 338 ;
339 [label="X[1] <= 0.005\nmse = 110.25\nsamples = 2\nvalue = 675.5", fillcolor="#f4c9ab"] ;
333 -> 339 ;
340 [label="mse = 0.0\nsamples = 1\nvalue = 665.0", fillcolor="#f4cbae"] ;
339 -> 340 ;
341 [label="mse = 0.0\nsamples = 1\nvalue = 686.0", fillcolor="#f4c8a8"] ;
339 -> 341 ;
342 [label="X[2] <= 0.005\nmse = 35658.507\nsamples = 23\nvalue = 972.565", fillcolor="#e9965a"] ;
260 -> 342 ;
343 [label="X[0] <= 0.001\nmse = 42814.889\nsamples = 15\nvalue = 908.333", fillcolor="#eca16b"] ;
342 -> 343 ;
344 [label="X[2] <= 0.004\nmse = 4970.25\nsamples = 2\nvalue = 596.5", fillcolor="#f7d7c0"] ;
343 -> 344 ;
345 [label="mse = 0.0\nsamples = 1\nvalue = 526.0", fillcolor="#f9e3d3"] ;
344 -> 345 ;
346 [label="mse = 0.0\nsamples = 1\nvalue = 667.0", fillcolor="#f4cbad"] ;
344 -> 346 ;
347 [label="X[3] <= 0.0\nmse = 31375.598\nsamples = 13\nvalue = 956.308", fillcolor="#ea995e"] ;
343 -> 347 ;
348 [label="X[0] <= 0.002\nmse = 19052.231\nsamples = 11\nvalue = 1008.636", fillcolor="#e89050"] ;
347 -> 348 ;
349 [label="mse = 0.0\nsamples = 5\nvalue = 1093.0", fillcolor="#e58139"] ;
348 -> 349 ;
350 [label="X[0] <= 0.002\nmse = 24055.556\nsamples = 6\nvalue = 938.333", fillcolor="#eb9c63"] ;
348 -> 350 ;
351 [label="X[3] <= 0.0\nmse = 18142.0\nsamples = 4\nvalue = 861.0", fillcolor="#eda978"] ;
350 -> 351 ;
352 [label="X[3] <= 0.0\nmse = 267.556\nsamples = 3\nvalue = 783.667", fillcolor="#f0b78d"] ;
351 -> 352 ;
353 [label="mse = 0.0\nsamples = 1\nvalue = 761.0", fillcolor="#f1bb93"] ;
352 -> 353 ;
354 [label="X[3] <= 0.0\nmse = 16.0\nsamples = 2\nvalue = 795.0", fillcolor="#f0b58a"] ;
352 -> 354 ;
355 [label="mse = 0.0\nsamples = 1\nvalue = 799.0", fillcolor="#f0b489"] ;
354 -> 355 ;
356 [label="mse = 0.0\nsamples = 1\nvalue = 791.0", fillcolor="#f0b58b"] ;
354 -> 356 ;
357 [label="mse = 0.0\nsamples = 1\nvalue = 1093.0", fillcolor="#e58139"] ;
351 -> 357 ;
358 [label="mse = 0.0\nsamples = 2\nvalue = 1093.0", fillcolor="#e58139"] ;
350 -> 358 ;
359 [label="X[2] <= 0.004\nmse = 1260.25\nsamples = 2\nvalue = 668.5", fillcolor="#f4cbad"] ;
347 -> 359 ;
360 [label="mse = 0.0\nsamples = 1\nvalue = 704.0", fillcolor="#f3c4a3"] ;
359 -> 360 ;
361 [label="mse = 0.0\nsamples = 1\nvalue = 633.0", fillcolor="#f5d1b6"] ;
359 -> 361 ;
362 [label="mse = 0.0\nsamples = 8\nvalue = 1093.0", fillcolor="#e58139"] ;
342 -> 362 ;
363 [label="X[0] <= 0.001\nmse = 12210.25\nsamples = 2\nvalue = 636.5", fillcolor="#f5d0b5"] ;
259 -> 363 ;
364 [label="mse = 0.0\nsamples = 1\nvalue = 747.0", fillcolor="#f1bd97"] ;
363 -> 364 ;
365 [label="mse = 0.0\nsamples = 1\nvalue = 526.0", fillcolor="#f9e3d3"] ;
363 -> 365 ;
366 [label="X[0] <= 0.002\nmse = 37964.975\nsamples = 22\nvalue = 798.455", fillcolor="#f0b489"] ;
76 -> 366 ;
367 [label="X[2] <= 0.004\nmse = 10481.868\nsamples = 11\nvalue = 692.636", fillcolor="#f3c6a6"] ;
366 -> 367 ;
368 [label="X[1] <= 0.007\nmse = 8600.472\nsamples = 6\nvalue = 748.167", fillcolor="#f1bd97"] ;
367 -> 368 ;
369 [label="X[1] <= 0.004\nmse = 472.667\nsamples = 3\nvalue = 658.0", fillcolor="#f5ccaf"] ;
368 -> 369 ;
370 [label="mse = 0.0\nsamples = 1\nvalue = 630.0", fillcolor="#f6d1b7"] ;
369 -> 370 ;
371 [label="X[2] <= 0.002\nmse = 121.0\nsamples = 2\nvalue = 672.0", fillcolor="#f4caac"] ;
369 -> 371 ;
372 [label="mse = 0.0\nsamples = 1\nvalue = 661.0", fillcolor="#f4ccaf"] ;
371 -> 372 ;
373 [label="mse = 0.0\nsamples = 1\nvalue = 683.0", fillcolor="#f4c8a9"] ;
371 -> 373 ;
374 [label="X[3] <= 0.0\nmse = 468.222\nsamples = 3\nvalue = 838.333", fillcolor="#eead7e"] ;
368 -> 374 ;
375 [label="X[1] <= 0.009\nmse = 12.25\nsamples = 2\nvalue = 853.5", fillcolor="#eeab7a"] ;
374 -> 375 ;
376 [label="mse = 0.0\nsamples = 1\nvalue = 850.0", fillcolor="#eeab7b"] ;
375 -> 376 ;
377 [label="mse = 0.0\nsamples = 1\nvalue = 857.0", fillcolor="#edaa79"] ;
375 -> 377 ;
378 [label="mse = 0.0\nsamples = 1\nvalue = 808.0", fillcolor="#efb287"] ;
374 -> 378 ;
379 [label="X[2] <= 0.007\nmse = 4598.8\nsamples = 5\nvalue = 626.0", fillcolor="#f6d2b8"] ;
367 -> 379 ;
380 [label="X[0] <= 0.002\nmse = 382.889\nsamples = 3\nvalue = 575.333", fillcolor="#f8dbc6"] ;
379 -> 380 ;
381 [label="mse = 0.0\nsamples = 1\nvalue = 603.0", fillcolor="#f7d6be"] ;
380 -> 381 ;
382 [label="X[1] <= 0.009\nmse = 0.25\nsamples = 2\nvalue = 561.5", fillcolor="#f8ddca"] ;
380 -> 382 ;
383 [label="mse = 0.0\nsamples = 1\nvalue = 561.0", fillcolor="#f8ddca"] ;
382 -> 383 ;
384 [label="mse = 0.0\nsamples = 1\nvalue = 562.0", fillcolor="#f8ddca"] ;
382 -> 384 ;
385 [label="X[0] <= 0.002\nmse = 1296.0\nsamples = 2\nvalue = 702.0", fillcolor="#f3c5a3"] ;
379 -> 385 ;
386 [label="mse = 0.0\nsamples = 1\nvalue = 738.0", fillcolor="#f2bf9a"] ;
385 -> 386 ;
387 [label="mse = 0.0\nsamples = 1\nvalue = 666.0", fillcolor="#f4cbad"] ;
385 -> 387 ;
388 [label="X[0] <= 0.002\nmse = 43053.107\nsamples = 11\nvalue = 904.273", fillcolor="#eca26c"] ;
366 -> 388 ;
389 [label="X[0] <= 0.002\nmse = 80.222\nsamples = 3\nvalue = 1086.667", fillcolor="#e5823b"] ;
388 -> 389 ;
390 [label="mse = 0.0\nsamples = 1\nvalue = 1074.0", fillcolor="#e6843e"] ;
389 -> 390 ;
391 [label="mse = 0.0\nsamples = 2\nvalue = 1093.0", fillcolor="#e58139"] ;
389 -> 391 ;
392 [label="X[3] <= 0.0\nmse = 42014.359\nsamples = 8\nvalue = 835.875", fillcolor="#eeae7f"] ;
388 -> 392 ;
393 [label="X[0] <= 0.002\nmse = 1225.0\nsamples = 2\nvalue = 590.0", fillcolor="#f7d8c2"] ;
392 -> 393 ;
394 [label="mse = 0.0\nsamples = 1\nvalue = 625.0", fillcolor="#f6d2b8"] ;
393 -> 394 ;
395 [label="mse = 0.0\nsamples = 1\nvalue = 555.0", fillcolor="#f8decc"] ;
393 -> 395 ;
396 [label="X[0] <= 0.002\nmse = 28742.139\nsamples = 6\nvalue = 917.833", fillcolor="#eb9f69"] ;
392 -> 396 ;
397 [label="X[3] <= 0.0\nmse = 4350.889\nsamples = 3\nvalue = 755.333", fillcolor="#f1bc95"] ;
396 -> 397 ;
398 [label="X[2] <= 0.005\nmse = 132.25\nsamples = 2\nvalue = 801.5", fillcolor="#efb488"] ;
397 -> 398 ;
399 [label="mse = 0.0\nsamples = 1\nvalue = 790.0", fillcolor="#f0b68c"] ;
398 -> 399 ;
400 [label="mse = 0.0\nsamples = 1\nvalue = 813.0", fillcolor="#efb285"] ;
398 -> 400 ;
401 [label="mse = 0.0\nsamples = 1\nvalue = 663.0", fillcolor="#f4ccae"] ;
397 -> 401 ;
402 [label="X[2] <= 0.007\nmse = 320.889\nsamples = 3\nvalue = 1080.333", fillcolor="#e5833c"] ;
396 -> 402 ;
403 [label="mse = 0.0\nsamples = 2\nvalue = 1093.0", fillcolor="#e58139"] ;
402 -> 403 ;
404 [label="mse = 0.0\nsamples = 1\nvalue = 1055.0", fillcolor="#e68843"] ;
402 -> 404 ;
405 [label="X[1] <= 0.033\nmse = 49485.889\nsamples = 350\nvalue = 817.894", fillcolor="#efb184"] ;
3 -> 405 ;
406 [label="X[1] <= 0.027\nmse = 46670.829\nsamples = 330\nvalue = 835.236", fillcolor="#eeae7f"] ;
405 -> 406 ;
407 [label="X[2] <= 0.004\nmse = 40873.623\nsamples = 203\nvalue = 864.31", fillcolor="#eda977"] ;
406 -> 407 ;
408 [label="X[2] <= 0.004\nmse = 36458.591\nsamples = 95\nvalue = 910.368", fillcolor="#eca16b"] ;
407 -> 408 ;
409 [label="X[1] <= 0.025\nmse = 37289.253\nsamples = 86\nvalue = 896.837", fillcolor="#eca36e"] ;
408 -> 409 ;
410 [label="X[2] <= 0.003\nmse = 34117.952\nsamples = 63\nvalue = 869.984", fillcolor="#eda876"] ;
409 -> 410 ;
411 [label="X[3] <= 0.0\nmse = 35494.368\nsamples = 54\nvalue = 892.759", fillcolor="#eca470"] ;
410 -> 411 ;
412 [label="X[0] <= 0.002\nmse = 34179.148\nsamples = 49\nvalue = 912.49", fillcolor="#eba06a"] ;
411 -> 412 ;
413 [label="X[2] <= 0.003\nmse = 30670.543\nsamples = 44\nvalue = 931.341", fillcolor="#eb9d65"] ;
412 -> 413 ;
414 [label="X[3] <= 0.0\nmse = 30467.338\nsamples = 31\nvalue = 893.129", fillcolor="#eca46f"] ;
413 -> 414 ;
415 [label="mse = 0.0\nsamples = 1\nvalue = 599.0", fillcolor="#f7d7c0"] ;
414 -> 415 ;
416 [label="X[0] <= 0.0\nmse = 28503.062\nsamples = 30\nvalue = 902.933", fillcolor="#eca26d"] ;
414 -> 416 ;
417 [label="X[1] <= 0.019\nmse = 22274.472\nsamples = 6\nvalue = 788.167", fillcolor="#f0b68c"] ;
416 -> 417 ;
418 [label="X[1] <= 0.018\nmse = 3053.556\nsamples = 3\nvalue = 687.333", fillcolor="#f4c7a7"] ;
417 -> 418 ;
419 [label="mse = 0.0\nsamples = 1\nvalue = 611.0", fillcolor="#f6d5bc"] ;
418 -> 419 ;
420 [label="X[3] <= 0.0\nmse = 210.25\nsamples = 2\nvalue = 725.5", fillcolor="#f2c19d"] ;
418 -> 420 ;
421 [label="mse = 0.0\nsamples = 1\nvalue = 711.0", fillcolor="#f3c3a1"] ;
420 -> 421 ;
422 [label="mse = 0.0\nsamples = 1\nvalue = 740.0", fillcolor="#f2be99"] ;
420 -> 422 ;
423 [label="X[0] <= 0.0\nmse = 21160.667\nsamples = 3\nvalue = 889.0", fillcolor="#eca471"] ;
417 -> 423 ;
424 [label="mse = 0.0\nsamples = 1\nvalue = 1093.0", fillcolor="#e58139"] ;
423 -> 424 ;
425 [label="X[0] <= 0.0\nmse = 529.0\nsamples = 2\nvalue = 787.0", fillcolor="#f0b68c"] ;
423 -> 425 ;
426 [label="mse = 0.0\nsamples = 1\nvalue = 810.0", fillcolor="#efb286"] ;
425 -> 426 ;
427 [label="mse = 0.0\nsamples = 1\nvalue = 764.0", fillcolor="#f1ba93"] ;
425 -> 427 ;
428 [label="X[3] <= 0.0\nmse = 25944.151\nsamples = 24\nvalue = 931.625", fillcolor="#eb9d65"] ;
416 -> 428 ;
429 [label="X[2] <= 0.002\nmse = 6724.0\nsamples = 5\nvalue = 1052.0", fillcolor="#e68844"] ;
428 -> 429 ;
430 [label="mse = 0.0\nsamples = 4\nvalue = 1093.0", fillcolor="#e58139"] ;
429 -> 430 ;
431 [label="mse = 0.0\nsamples = 1\nvalue = 888.0", fillcolor="#eca571"] ;
429 -> 431 ;
432 [label="X[0] <= 0.001\nmse = 26185.418\nsamples = 19\nvalue = 899.947", fillcolor="#eca26e"] ;
428 -> 432 ;
433 [label="X[2] <= 0.001\nmse = 16584.286\nsamples = 7\nvalue = 985.0", fillcolor="#e99456"] ;
432 -> 433 ;
434 [label="X[0] <= 0.001\nmse = 2352.25\nsamples = 2\nvalue = 820.5", fillcolor="#efb083"] ;
433 -> 434 ;
435 [label="mse = 0.0\nsamples = 1\nvalue = 869.0", fillcolor="#eda876"] ;
434 -> 435 ;
436 [label="mse = 0.0\nsamples = 1\nvalue = 772.0", fillcolor="#f0b990"] ;
434 -> 436 ;
437 [label="X[0] <= 0.0\nmse = 7123.36\nsamples = 5\nvalue = 1050.8", fillcolor="#e78844"] ;
433 -> 437 ;
438 [label="mse = 0.0\nsamples = 1\nvalue = 882.0", fillcolor="#eda672"] ;
437 -> 438 ;
439 [label="mse = 0.0\nsamples = 4\nvalue = 1093.0", fillcolor="#e58139"] ;
437 -> 439 ;
440 [label="X[1] <= 0.022\nmse = 25104.722\nsamples = 12\nvalue = 850.333", fillcolor="#eeab7b"] ;
432 -> 440 ;
441 [label="X[1] <= 0.02\nmse = 25299.714\nsamples = 7\nvalue = 924.0", fillcolor="#eb9e67"] ;
440 -> 441 ;
442 [label="X[3] <= 0.0\nmse = 6788.188\nsamples = 4\nvalue = 797.25", fillcolor="#f0b48a"] ;
441 -> 442 ;
443 [label="X[2] <= 0.002\nmse = 120.667\nsamples = 3\nvalue = 750.0", fillcolor="#f1bc96"] ;
442 -> 443 ;
444 [label="mse = 0.0\nsamples = 1\nvalue = 765.0", fillcolor="#f1ba92"] ;
443 -> 444 ;
445 [label="X[1] <= 0.02\nmse = 12.25\nsamples = 2\nvalue = 742.5", fillcolor="#f2be98"] ;
443 -> 445 ;
446 [label="mse = 0.0\nsamples = 1\nvalue = 739.0", fillcolor="#f2be99"] ;
445 -> 446 ;
447 [label="mse = 0.0\nsamples = 1\nvalue = 746.0", fillcolor="#f1bd98"] ;
445 -> 447 ;
448 [label="mse = 0.0\nsamples = 1\nvalue = 939.0", fillcolor="#eb9c63"] ;
442 -> 448 ;
449 [label="mse = 0.0\nsamples = 3\nvalue = 1093.0", fillcolor="#e58139"] ;
441 -> 449 ;
450 [label="X[0] <= 0.002\nmse = 6597.76\nsamples = 5\nvalue = 747.2", fillcolor="#f1bd97"] ;
440 -> 450 ;
451 [label="X[1] <= 0.025\nmse = 1010.667\nsamples = 3\nvalue = 684.0", fillcolor="#f4c8a8"] ;
450 -> 451 ;
452 [label="X[0] <= 0.002\nmse = 64.0\nsamples = 2\nvalue = 662.0", fillcolor="#f4ccae"] ;
451 -> 452 ;
453 [label="mse = 0.0\nsamples = 1\nvalue = 654.0", fillcolor="#f5cdb1"] ;
452 -> 453 ;
454 [label="mse = 0.0\nsamples = 1\nvalue = 670.0", fillcolor="#f4caac"] ;
452 -> 454 ;
455 [label="mse = 0.0\nsamples = 1\nvalue = 728.0", fillcolor="#f2c09c"] ;
451 -> 455 ;
456 [label="mse = 0.0\nsamples = 2\nvalue = 842.0", fillcolor="#eead7d"] ;
450 -> 456 ;
457 [label="X[1] <= 0.022\nmse = 19370.249\nsamples = 13\nvalue = 1022.462", fillcolor="#e88d4c"] ;
413 -> 457 ;
458 [label="X[0] <= 0.002\nmse = 29391.472\nsamples = 6\nvalue = 940.167", fillcolor="#ea9b63"] ;
457 -> 458 ;
459 [label="X[1] <= 0.021\nmse = 12066.889\nsamples = 3\nvalue = 787.333", fillcolor="#f0b68c"] ;
458 -> 459 ;
460 [label="X[2] <= 0.003\nmse = 4.0\nsamples = 2\nvalue = 865.0", fillcolor="#eda977"] ;
459 -> 460 ;
461 [label="mse = 0.0\nsamples = 1\nvalue = 863.0", fillcolor="#eda978"] ;
460 -> 461 ;
462 [label="mse = 0.0\nsamples = 1\nvalue = 867.0", fillcolor="#eda877"] ;
460 -> 462 ;
463 [label="mse = 0.0\nsamples = 1\nvalue = 632.0", fillcolor="#f5d1b7"] ;
459 -> 463 ;
464 [label="mse = 0.0\nsamples = 3\nvalue = 1093.0", fillcolor="#e58139"] ;
458 -> 464 ;
465 [label="mse = 0.0\nsamples = 7\nvalue = 1093.0", fillcolor="#e58139"] ;
457 -> 465 ;
466 [label="X[1] <= 0.02\nmse = 34408.24\nsamples = 5\nvalue = 746.6", fillcolor="#f1bd97"] ;
412 -> 466 ;
467 [label="mse = 0.0\nsamples = 1\nvalue = 1093.0", fillcolor="#e58139"] ;
466 -> 467 ;
468 [label="X[2] <= 0.003\nmse = 5512.5\nsamples = 4\nvalue = 660.0", fillcolor="#f4ccaf"] ;
466 -> 468 ;
469 [label="X[3] <= 0.0\nmse = 294.0\nsamples = 3\nvalue = 618.0", fillcolor="#f6d3ba"] ;
468 -> 469 ;
470 [label="mse = 0.0\nsamples = 1\nvalue = 642.0", fillcolor="#f5cfb4"] ;
469 -> 470 ;
471 [label="X[2] <= 0.002\nmse = 9.0\nsamples = 2\nvalue = 606.0", fillcolor="#f6d5be"] ;
469 -> 471 ;
472 [label="mse = 0.0\nsamples = 1\nvalue = 609.0", fillcolor="#f6d5bd"] ;
471 -> 472 ;
473 [label="mse = 0.0\nsamples = 1\nvalue = 603.0", fillcolor="#f7d6be"] ;
471 -> 473 ;
474 [label="mse = 0.0\nsamples = 1\nvalue = 786.0", fillcolor="#f0b68d"] ;
468 -> 474 ;
475 [label="X[3] <= 0.0\nmse = 7180.64\nsamples = 5\nvalue = 699.4", fillcolor="#f3c5a4"] ;
411 -> 475 ;
476 [label="X[1] <= 0.025\nmse = 2727.688\nsamples = 4\nvalue = 734.75", fillcolor="#f2bf9b"] ;
475 -> 476 ;
477 [label="X[3] <= 0.0\nmse = 253.556\nsamples = 3\nvalue = 705.667", fillcolor="#f3c4a2"] ;
476 -> 477 ;
478 [label="X[2] <= 0.002\nmse = 6.25\nsamples = 2\nvalue = 694.5", fillcolor="#f3c6a6"] ;
477 -> 478 ;
479 [label="mse = 0.0\nsamples = 1\nvalue = 692.0", fillcolor="#f3c6a6"] ;
478 -> 479 ;
480 [label="mse = 0.0\nsamples = 1\nvalue = 697.0", fillcolor="#f3c6a5"] ;
478 -> 480 ;
481 [label="mse = 0.0\nsamples = 1\nvalue = 728.0", fillcolor="#f2c09c"] ;
477 -> 481 ;
482 [label="mse = 0.0\nsamples = 1\nvalue = 822.0", fillcolor="#efb083"] ;
476 -> 482 ;
483 [label="mse = 0.0\nsamples = 1\nvalue = 558.0", fillcolor="#f8decb"] ;
475 -> 483 ;
484 [label="X[3] <= 0.0\nmse = 4073.778\nsamples = 9\nvalue = 733.333", fillcolor="#f2bf9b"] ;
410 -> 484 ;
485 [label="X[3] <= 0.0\nmse = 2272.667\nsamples = 3\nvalue = 791.0", fillcolor="#f0b58b"] ;
484 -> 485 ;
486 [label="X[1] <= 0.02\nmse = 42.25\nsamples = 2\nvalue = 757.5", fillcolor="#f1bb94"] ;
485 -> 486 ;
487 [label="mse = 0.0\nsamples = 1\nvalue = 764.0", fillcolor="#f1ba93"] ;
486 -> 487 ;
488 [label="mse = 0.0\nsamples = 1\nvalue = 751.0", fillcolor="#f1bc96"] ;
486 -> 488 ;
489 [label="mse = 0.0\nsamples = 1\nvalue = 858.0", fillcolor="#edaa79"] ;
485 -> 489 ;
490 [label="X[1] <= 0.024\nmse = 2480.25\nsamples = 6\nvalue = 704.5", fillcolor="#f3c4a3"] ;
484 -> 490 ;
491 [label="X[1] <= 0.019\nmse = 1982.0\nsamples = 3\nvalue = 737.0", fillcolor="#f2bf9a"] ;
490 -> 491 ;
492 [label="mse = 0.0\nsamples = 1\nvalue = 676.0", fillcolor="#f4c9ab"] ;
491 -> 492 ;
493 [label="X[1] <= 0.022\nmse = 182.25\nsamples = 2\nvalue = 767.5", fillcolor="#f1b992"] ;
491 -> 493 ;
494 [label="mse = 0.0\nsamples = 1\nvalue = 781.0", fillcolor="#f0b78e"] ;
493 -> 494 ;
495 [label="mse = 0.0\nsamples = 1\nvalue = 754.0", fillcolor="#f1bc95"] ;
493 -> 495 ;
496 [label="X[0] <= 0.001\nmse = 866.0\nsamples = 3\nvalue = 672.0", fillcolor="#f4caac"] ;
490 -> 496 ;
497 [label="mse = 0.0\nsamples = 1\nvalue = 709.0", fillcolor="#f3c4a2"] ;
496 -> 497 ;
498 [label="X[0] <= 0.002\nmse = 272.25\nsamples = 2\nvalue = 653.5", fillcolor="#f5cdb1"] ;
496 -> 498 ;
499 [label="mse = 0.0\nsamples = 1\nvalue = 637.0", fillcolor="#f5d0b5"] ;
498 -> 499 ;
500 [label="mse = 0.0\nsamples = 1\nvalue = 670.0", fillcolor="#f4caac"] ;
498 -> 500 ;
501 [label="X[0] <= 0.001\nmse = 38590.499\nsamples = 23\nvalue = 970.391", fillcolor="#e9965a"] ;
409 -> 501 ;
502 [label="X[0] <= 0.0\nmse = 70000.889\nsamples = 3\nvalue = 720.333", fillcolor="#f2c29e"] ;
501 -> 502 ;
503 [label="mse = 0.0\nsamples = 1\nvalue = 1093.0", fillcolor="#e58139"] ;
502 -> 503 ;
504 [label="X[3] <= 0.0\nmse = 841.0\nsamples = 2\nvalue = 534.0", fillcolor="#f9e2d1"] ;
502 -> 504 ;
505 [label="mse = 0.0\nsamples = 1\nvalue = 505.0", fillcolor="#fae7d9"] ;
504 -> 505 ;
506 [label="mse = 0.0\nsamples = 1\nvalue = 563.0", fillcolor="#f8ddc9"] ;
504 -> 506 ;
507 [label="X[2] <= 0.001\nmse = 23092.69\nsamples = 20\nvalue = 1007.9", fillcolor="#e89050"] ;
501 -> 507 ;
508 [label="X[2] <= 0.001\nmse = 23708.222\nsamples = 3\nvalue = 876.667", fillcolor="#eda674"] ;
507 -> 508 ;
509 [label="mse = 0.0\nsamples = 1\nvalue = 1093.0", fillcolor="#e58139"] ;
508 -> 509 ;
510 [label="X[2] <= 0.001\nmse = 462.25\nsamples = 2\nvalue = 768.5", fillcolor="#f1b991"] ;
508 -> 510 ;
511 [label="mse = 0.0\nsamples = 1\nvalue = 747.0", fillcolor="#f1bd97"] ;
510 -> 511 ;
512 [label="mse = 0.0\nsamples = 1\nvalue = 790.0", fillcolor="#f0b68c"] ;
510 -> 512 ;
513 [label="X[0] <= 0.002\nmse = 19408.526\nsamples = 17\nvalue = 1031.059", fillcolor="#e78c4a"] ;
507 -> 513 ;
514 [label="X[2] <= 0.002\nmse = 4448.264\nsamples = 11\nvalue = 1071.909", fillcolor="#e6853f"] ;
513 -> 514 ;
515 [label="X[2] <= 0.001\nmse = 13456.0\nsamples = 2\nvalue = 977.0", fillcolor="#e99559"] ;
514 -> 515 ;
516 [label="mse = 0.0\nsamples = 1\nvalue = 1093.0", fillcolor="#e58139"] ;
515 -> 516 ;
517 [label="mse = 0.0\nsamples = 1\nvalue = 861.0", fillcolor="#eda978"] ;
515 -> 517 ;
518 [label="mse = 0.0\nsamples = 9\nvalue = 1093.0", fillcolor="#e58139"] ;
514 -> 518 ;
519 [label="X[0] <= 0.002\nmse = 38167.472\nsamples = 6\nvalue = 956.167", fillcolor="#ea995e"] ;
513 -> 519 ;
520 [label="X[1] <= 0.027\nmse = 2162.25\nsamples = 2\nvalue = 682.5", fillcolor="#f4c8a9"] ;
519 -> 520 ;
521 [label="mse = 0.0\nsamples = 1\nvalue = 636.0", fillcolor="#f5d0b5"] ;
520 -> 521 ;
522 [label="mse = 0.0\nsamples = 1\nvalue = 729.0", fillcolor="#f2c09c"] ;
520 -> 522 ;
523 [label="mse = 0.0\nsamples = 4\nvalue = 1093.0", fillcolor="#e58139"] ;
519 -> 523 ;
524 [label="X[0] <= 0.002\nmse = 10053.556\nsamples = 9\nvalue = 1039.667", fillcolor="#e78a48"] ;
408 -> 524 ;
525 [label="X[2] <= 0.004\nmse = 5245.734\nsamples = 8\nvalue = 1065.625", fillcolor="#e68640"] ;
524 -> 525 ;
526 [label="mse = 0.0\nsamples = 5\nvalue = 1093.0", fillcolor="#e58139"] ;
525 -> 526 ;
527 [label="X[3] <= 0.0\nmse = 10658.0\nsamples = 3\nvalue = 1020.0", fillcolor="#e88e4d"] ;
525 -> 527 ;
528 [label="mse = 0.0\nsamples = 1\nvalue = 874.0", fillcolor="#eda775"] ;
527 -> 528 ;
529 [label="mse = 0.0\nsamples = 2\nvalue = 1093.0", fillcolor="#e58139"] ;
527 -> 529 ;
530 [label="mse = 0.0\nsamples = 1\nvalue = 832.0", fillcolor="#eeae80"] ;
524 -> 530 ;
531 [label="X[3] <= 0.0\nmse = 41249.829\nsamples = 108\nvalue = 823.796", fillcolor="#efb082"] ;
407 -> 531 ;
532 [label="X[0] <= 0.002\nmse = 40264.862\nsamples = 88\nvalue = 853.716", fillcolor="#eeaa7a"] ;
531 -> 532 ;
533 [label="X[1] <= 0.026\nmse = 40397.454\nsamples = 79\nvalue = 867.835", fillcolor="#eda876"] ;
532 -> 533 ;
534 [label="X[1] <= 0.026\nmse = 39166.293\nsamples = 71\nvalue = 853.296", fillcolor="#eeab7a"] ;
533 -> 534 ;
535 [label="X[2] <= 0.007\nmse = 36160.837\nsamples = 66\nvalue = 872.636", fillcolor="#eda775"] ;
534 -> 535 ;
536 [label="X[1] <= 0.022\nmse = 30492.961\nsamples = 45\nvalue = 909.711", fillcolor="#eca16b"] ;
535 -> 536 ;
537 [label="X[3] <= 0.0\nmse = 18917.527\nsamples = 20\nvalue = 978.65", fillcolor="#e99558"] ;
536 -> 537 ;
538 [label="X[1] <= 0.019\nmse = 13157.787\nsamples = 13\nvalue = 1022.462", fillcolor="#e88d4c"] ;
537 -> 538 ;
539 [label="X[0] <= 0.002\nmse = 19205.556\nsamples = 3\nvalue = 909.667", fillcolor="#eca16b"] ;
538 -> 539 ;
540 [label="X[2] <= 0.005\nmse = 3600.0\nsamples = 2\nvalue = 818.0", fillcolor="#efb184"] ;
539 -> 540 ;
541 [label="mse = 0.0\nsamples = 1\nvalue = 878.0", fillcolor="#eda674"] ;
540 -> 541 ;
542 [label="mse = 0.0\nsamples = 1\nvalue = 758.0", fillcolor="#f1bb94"] ;
540 -> 542 ;
543 [label="mse = 0.0\nsamples = 1\nvalue = 1093.0", fillcolor="#e58139"] ;
539 -> 543 ;
544 [label="X[1] <= 0.022\nmse = 6381.61\nsamples = 10\nvalue = 1056.3", fillcolor="#e68743"] ;
538 -> 544 ;
545 [label="X[1] <= 0.02\nmse = 1261.136\nsamples = 9\nvalue = 1080.444", fillcolor="#e5833c"] ;
544 -> 545 ;
546 [label="X[1] <= 0.019\nmse = 2837.556\nsamples = 3\nvalue = 1055.333", fillcolor="#e68843"] ;
545 -> 546 ;
547 [label="mse = 0.0\nsamples = 2\nvalue = 1093.0", fillcolor="#e58139"] ;
546 -> 547 ;
548 [label="mse = 0.0\nsamples = 1\nvalue = 980.0", fillcolor="#e99558"] ;
546 -> 548 ;
549 [label="mse = 0.0\nsamples = 6\nvalue = 1093.0", fillcolor="#e58139"] ;
545 -> 549 ;
550 [label="mse = 0.0\nsamples = 1\nvalue = 839.0", fillcolor="#eead7e"] ;
544 -> 550 ;
551 [label="X[3] <= 0.0\nmse = 19429.347\nsamples = 7\nvalue = 897.286", fillcolor="#eca36e"] ;
537 -> 551 ;
552 [label="X[3] <= 0.0\nmse = 6527.25\nsamples = 4\nvalue = 807.5", fillcolor="#efb287"] ;
551 -> 552 ;
553 [label="X[2] <= 0.005\nmse = 662.889\nsamples = 3\nvalue = 852.333", fillcolor="#eeab7b"] ;
552 -> 553 ;
554 [label="mse = 0.0\nsamples = 1\nvalue = 818.0", fillcolor="#efb184"] ;
553 -> 554 ;
555 [label="X[2] <= 0.005\nmse = 110.25\nsamples = 2\nvalue = 869.5", fillcolor="#eda876"] ;
553 -> 555 ;
556 [label="mse = 0.0\nsamples = 1\nvalue = 859.0", fillcolor="#edaa79"] ;
555 -> 556 ;
557 [label="mse = 0.0\nsamples = 1\nvalue = 880.0", fillcolor="#eda673"] ;
555 -> 557 ;
558 [label="mse = 0.0\nsamples = 1\nvalue = 673.0", fillcolor="#f4caab"] ;
552 -> 558 ;
559 [label="X[0] <= 0.002\nmse = 11552.0\nsamples = 3\nvalue = 1017.0", fillcolor="#e88e4e"] ;
551 -> 559 ;
560 [label="mse = 0.0\nsamples = 2\nvalue = 1093.0", fillcolor="#e58139"] ;
559 -> 560 ;
561 [label="mse = 0.0\nsamples = 1\nvalue = 865.0", fillcolor="#eda977"] ;
559 -> 561 ;
562 [label="X[1] <= 0.023\nmse = 32909.606\nsamples = 25\nvalue = 854.56", fillcolor="#eeaa7a"] ;
536 -> 562 ;
563 [label="X[3] <= 0.0\nmse = 12613.5\nsamples = 4\nvalue = 726.0", fillcolor="#f2c19d"] ;
562 -> 563 ;
564 [label="mse = 0.0\nsamples = 1\nvalue = 884.0", fillcolor="#eca572"] ;
563 -> 564 ;
565 [label="X[0] <= 0.001\nmse = 5722.889\nsamples = 3\nvalue = 673.333", fillcolor="#f4caab"] ;
563 -> 565 ;
566 [label="X[2] <= 0.006\nmse = 576.0\nsamples = 2\nvalue = 725.0", fillcolor="#f2c19d"] ;
565 -> 566 ;
567 [label="mse = 0.0\nsamples = 1\nvalue = 749.0", fillcolor="#f1bd97"] ;
566 -> 567 ;
568 [label="mse = 0.0\nsamples = 1\nvalue = 701.0", fillcolor="#f3c5a4"] ;
566 -> 568 ;
569 [label="mse = 0.0\nsamples = 1\nvalue = 570.0", fillcolor="#f8dcc7"] ;
565 -> 569 ;
570 [label="X[1] <= 0.026\nmse = 33027.76\nsamples = 21\nvalue = 879.048", fillcolor="#eda673"] ;
562 -> 570 ;
571 [label="X[2] <= 0.006\nmse = 26246.298\nsamples = 17\nvalue = 906.235", fillcolor="#eca16c"] ;
570 -> 571 ;
572 [label="X[2] <= 0.004\nmse = 16230.556\nsamples = 6\nvalue = 1004.333", fillcolor="#e89051"] ;
571 -> 572 ;
573 [label="mse = 0.0\nsamples = 1\nvalue = 788.0", fillcolor="#f0b68c"] ;
572 -> 573 ;
574 [label="X[0] <= 0.001\nmse = 8244.64\nsamples = 5\nvalue = 1047.6", fillcolor="#e78945"] ;
572 -> 574 ;
575 [label="mse = 0.0\nsamples = 3\nvalue = 1093.0", fillcolor="#e58139"] ;
574 -> 575 ;
576 [label="X[3] <= 0.0\nmse = 12882.25\nsamples = 2\nvalue = 979.5", fillcolor="#e99558"] ;
574 -> 576 ;
577 [label="mse = 0.0\nsamples = 1\nvalue = 1093.0", fillcolor="#e58139"] ;
576 -> 577 ;
578 [label="mse = 0.0\nsamples = 1\nvalue = 866.0", fillcolor="#eda877"] ;
576 -> 578 ;
579 [label="X[3] <= 0.0\nmse = 23597.289\nsamples = 11\nvalue = 852.727", fillcolor="#eeab7a"] ;
571 -> 579 ;
580 [label="X[1] <= 0.025\nmse = 2540.24\nsamples = 5\nvalue = 767.4", fillcolor="#f1b992"] ;
579 -> 580 ;
581 [label="X[0] <= 0.001\nmse = 722.188\nsamples = 4\nvalue = 745.25", fillcolor="#f1bd98"] ;
580 -> 581 ;
582 [label="X[3] <= 0.0\nmse = 441.556\nsamples = 3\nvalue = 756.667", fillcolor="#f1bb95"] ;
581 -> 582 ;
583 [label="mse = 0.0\nsamples = 1\nvalue = 727.0", fillcolor="#f2c09d"] ;
582 -> 583 ;
584 [label="X[3] <= 0.0\nmse = 2.25\nsamples = 2\nvalue = 771.5", fillcolor="#f0b991"] ;
582 -> 584 ;
585 [label="mse = 0.0\nsamples = 1\nvalue = 770.0", fillcolor="#f1b991"] ;
584 -> 585 ;
586 [label="mse = 0.0\nsamples = 1\nvalue = 773.0", fillcolor="#f0b890"] ;
584 -> 586 ;
587 [label="mse = 0.0\nsamples = 1\nvalue = 711.0", fillcolor="#f3c3a1"] ;
581 -> 587 ;
588 [label="mse = 0.0\nsamples = 1\nvalue = 856.0", fillcolor="#edaa7a"] ;
580 -> 588 ;
589 [label="X[3] <= 0.0\nmse = 30021.472\nsamples = 6\nvalue = 923.833", fillcolor="#eb9e67"] ;
579 -> 589 ;
590 [label="X[0] <= 0.001\nmse = 14490.75\nsamples = 4\nvalue = 1023.5", fillcolor="#e78d4c"] ;
589 -> 590 ;
591 [label="mse = 0.0\nsamples = 1\nvalue = 815.0", fillcolor="#efb185"] ;
590 -> 591 ;
592 [label="mse = 0.0\nsamples = 3\nvalue = 1093.0", fillcolor="#e58139"] ;
590 -> 592 ;
593 [label="X[1] <= 0.024\nmse = 1482.25\nsamples = 2\nvalue = 724.5", fillcolor="#f2c19d"] ;
589 -> 593 ;
594 [label="mse = 0.0\nsamples = 1\nvalue = 686.0", fillcolor="#f4c8a8"] ;
593 -> 594 ;
595 [label="mse = 0.0\nsamples = 1\nvalue = 763.0", fillcolor="#f1ba93"] ;
593 -> 595 ;
596 [label="X[1] <= 0.026\nmse = 45356.25\nsamples = 4\nvalue = 763.5", fillcolor="#f1ba93"] ;
570 -> 596 ;
597 [label="X[0] <= 0.002\nmse = 1156.0\nsamples = 2\nvalue = 578.0", fillcolor="#f7dac5"] ;
596 -> 597 ;
598 [label="mse = 0.0\nsamples = 1\nvalue = 544.0", fillcolor="#f9e0cf"] ;
597 -> 598 ;
599 [label="mse = 0.0\nsamples = 1\nvalue = 612.0", fillcolor="#f6d4bc"] ;
597 -> 599 ;
600 [label="X[3] <= 0.0\nmse = 20736.0\nsamples = 2\nvalue = 949.0", fillcolor="#ea9a60"] ;
596 -> 600 ;
601 [label="mse = 0.0\nsamples = 1\nvalue = 1093.0", fillcolor="#e58139"] ;
600 -> 601 ;
602 [label="mse = 0.0\nsamples = 1\nvalue = 805.0", fillcolor="#efb387"] ;
600 -> 602 ;
603 [label="X[2] <= 0.008\nmse = 39049.202\nsamples = 21\nvalue = 793.19", fillcolor="#f0b58b"] ;
535 -> 603 ;
604 [label="X[3] <= 0.0\nmse = 7780.91\nsamples = 12\nvalue = 681.417", fillcolor="#f4c8a9"] ;
603 -> 604 ;
605 [label="X[0] <= 0.001\nmse = 2004.694\nsamples = 7\nvalue = 732.857", fillcolor="#f2bf9b"] ;
604 -> 605 ;
606 [label="X[1] <= 0.022\nmse = 94.889\nsamples = 3\nvalue = 764.333", fillcolor="#f1ba93"] ;
605 -> 606 ;
607 [label="mse = 0.0\nsamples = 1\nvalue = 751.0", fillcolor="#f1bc96"] ;
606 -> 607 ;
608 [label="X[2] <= 0.007\nmse = 9.0\nsamples = 2\nvalue = 771.0", fillcolor="#f1b991"] ;
606 -> 608 ;
609 [label="mse = 0.0\nsamples = 1\nvalue = 774.0", fillcolor="#f0b890"] ;
608 -> 609 ;
610 [label="mse = 0.0\nsamples = 1\nvalue = 768.0", fillcolor="#f1b992"] ;
608 -> 610 ;
611 [label="X[2] <= 0.007\nmse = 2136.688\nsamples = 4\nvalue = 709.25", fillcolor="#f3c4a2"] ;
605 -> 611 ;
612 [label="mse = 0.0\nsamples = 1\nvalue = 636.0", fillcolor="#f5d0b5"] ;
611 -> 612 ;
613 [label="X[2] <= 0.007\nmse = 464.222\nsamples = 3\nvalue = 733.667", fillcolor="#f2bf9b"] ;
611 -> 613 ;
614 [label="X[0] <= 0.002\nmse = 6.25\nsamples = 2\nvalue = 718.5", fillcolor="#f2c29f"] ;
613 -> 614 ;
615 [label="mse = 0.0\nsamples = 1\nvalue = 721.0", fillcolor="#f2c19e"] ;
614 -> 615 ;
616 [label="mse = 0.0\nsamples = 1\nvalue = 716.0", fillcolor="#f2c2a0"] ;
614 -> 616 ;
617 [label="mse = 0.0\nsamples = 1\nvalue = 764.0", fillcolor="#f1ba93"] ;
613 -> 617 ;
618 [label="X[1] <= 0.019\nmse = 6976.64\nsamples = 5\nvalue = 609.4", fillcolor="#f6d5bd"] ;
604 -> 618 ;
619 [label="mse = 0.0\nsamples = 1\nvalue = 762.0", fillcolor="#f1ba93"] ;
618 -> 619 ;
620 [label="X[0] <= 0.001\nmse = 1443.688\nsamples = 4\nvalue = 571.25", fillcolor="#f8dbc7"] ;
618 -> 620 ;
621 [label="X[1] <= 0.02\nmse = 400.0\nsamples = 2\nvalue = 604.0", fillcolor="#f6d6be"] ;
620 -> 621 ;
622 [label="mse = 0.0\nsamples = 1\nvalue = 624.0", fillcolor="#f6d2b9"] ;
621 -> 622 ;
623 [label="mse = 0.0\nsamples = 1\nvalue = 584.0", fillcolor="#f7d9c4"] ;
621 -> 623 ;
624 [label="X[0] <= 0.001\nmse = 342.25\nsamples = 2\nvalue = 538.5", fillcolor="#f9e1d0"] ;
620 -> 624 ;
625 [label="mse = 0.0\nsamples = 1\nvalue = 557.0", fillcolor="#f8decb"] ;
624 -> 625 ;
626 [label="mse = 0.0\nsamples = 1\nvalue = 520.0", fillcolor="#f9e4d5"] ;
624 -> 626 ;
627 [label="X[0] <= 0.001\nmse = 41871.951\nsamples = 9\nvalue = 942.222", fillcolor="#ea9b62"] ;
603 -> 627 ;
628 [label="X[0] <= 0.0\nmse = 26192.806\nsamples = 6\nvalue = 1015.167", fillcolor="#e88e4e"] ;
627 -> 628 ;
629 [label="mse = 0.0\nsamples = 1\nvalue = 654.0", fillcolor="#f5cdb1"] ;
628 -> 629 ;
630 [label="X[1] <= 0.024\nmse = 125.44\nsamples = 5\nvalue = 1087.4", fillcolor="#e5823b"] ;
628 -> 630 ;
631 [label="mse = 0.0\nsamples = 4\nvalue = 1093.0", fillcolor="#e58139"] ;
630 -> 631 ;
632 [label="mse = 0.0\nsamples = 1\nvalue = 1065.0", fillcolor="#e68641"] ;
630 -> 632 ;
633 [label="X[1] <= 0.021\nmse = 41304.889\nsamples = 3\nvalue = 796.333", fillcolor="#f0b48a"] ;
627 -> 633 ;
634 [label="mse = 0.0\nsamples = 1\nvalue = 1083.0", fillcolor="#e5833c"] ;
633 -> 634 ;
635 [label="X[2] <= 0.008\nmse = 324.0\nsamples = 2\nvalue = 653.0", fillcolor="#f5cdb1"] ;
633 -> 635 ;
636 [label="mse = 0.0\nsamples = 1\nvalue = 671.0", fillcolor="#f4caac"] ;
635 -> 636 ;
637 [label="mse = 0.0\nsamples = 1\nvalue = 635.0", fillcolor="#f5d0b6"] ;
635 -> 637 ;
638 [label="X[3] <= 0.0\nmse = 8724.8\nsamples = 5\nvalue = 598.0", fillcolor="#f7d7c0"] ;
534 -> 638 ;
639 [label="X[0] <= 0.001\nmse = 440.688\nsamples = 4\nvalue = 552.25", fillcolor="#f8dfcc"] ;
638 -> 639 ;
640 [label="mse = 0.0\nsamples = 1\nvalue = 584.0", fillcolor="#f7d9c4"] ;
639 -> 640 ;
641 [label="X[0] <= 0.001\nmse = 139.556\nsamples = 3\nvalue = 541.667", fillcolor="#f9e1cf"] ;
639 -> 641 ;
642 [label="mse = 0.0\nsamples = 1\nvalue = 525.0", fillcolor="#f9e3d4"] ;
641 -> 642 ;
643 [label="X[3] <= 0.0\nmse = 1.0\nsamples = 2\nvalue = 550.0", fillcolor="#f8dfcd"] ;
641 -> 643 ;
644 [label="mse = 0.0\nsamples = 1\nvalue = 549.0", fillcolor="#f8dfcd"] ;
643 -> 644 ;
645 [label="mse = 0.0\nsamples = 1\nvalue = 551.0", fillcolor="#f8dfcd"] ;
643 -> 645 ;
646 [label="mse = 0.0\nsamples = 1\nvalue = 781.0", fillcolor="#f0b78e"] ;
638 -> 646 ;
647 [label="X[3] <= 0.0\nmse = 32796.609\nsamples = 8\nvalue = 996.875", fillcolor="#e89253"] ;
533 -> 647 ;
648 [label="X[1] <= 0.027\nmse = 69432.25\nsamples = 2\nvalue = 829.5", fillcolor="#eeaf81"] ;
647 -> 648 ;
649 [label="mse = 0.0\nsamples = 1\nvalue = 1093.0", fillcolor="#e58139"] ;
648 -> 649 ;
650 [label="mse = 0.0\nsamples = 1\nvalue = 566.0", fillcolor="#f8dcc9"] ;
648 -> 650 ;
651 [label="X[2] <= 0.008\nmse = 8133.889\nsamples = 6\nvalue = 1052.667", fillcolor="#e68844"] ;
647 -> 651 ;
652 [label="mse = 0.0\nsamples = 5\nvalue = 1093.0", fillcolor="#e58139"] ;
651 -> 652 ;
653 [label="mse = 0.0\nsamples = 1\nvalue = 851.0", fillcolor="#eeab7b"] ;
651 -> 653 ;
654 [label="X[2] <= 0.008\nmse = 21990.395\nsamples = 9\nvalue = 729.778", fillcolor="#f2c09c"] ;
532 -> 654 ;
655 [label="X[1] <= 0.022\nmse = 6186.484\nsamples = 8\nvalue = 684.375", fillcolor="#f4c8a8"] ;
654 -> 655 ;
656 [label="X[0] <= 0.002\nmse = 3394.25\nsamples = 4\nvalue = 744.5", fillcolor="#f1bd98"] ;
655 -> 656 ;
657 [label="mse = 0.0\nsamples = 1\nvalue = 652.0", fillcolor="#f5cdb1"] ;
656 -> 657 ;
658 [label="X[3] <= 0.0\nmse = 722.889\nsamples = 3\nvalue = 775.333", fillcolor="#f0b890"] ;
656 -> 658 ;
659 [label="X[3] <= 0.0\nmse = 20.25\nsamples = 2\nvalue = 756.5", fillcolor="#f1bb95"] ;
658 -> 659 ;
660 [label="mse = 0.0\nsamples = 1\nvalue = 761.0", fillcolor="#f1bb93"] ;
659 -> 660 ;
661 [label="mse = 0.0\nsamples = 1\nvalue = 752.0", fillcolor="#f1bc96"] ;
659 -> 661 ;
662 [label="mse = 0.0\nsamples = 1\nvalue = 813.0", fillcolor="#efb285"] ;
658 -> 662 ;
663 [label="X[1] <= 0.025\nmse = 1748.688\nsamples = 4\nvalue = 624.25", fillcolor="#f6d2b9"] ;
655 -> 663 ;
664 [label="X[0] <= 0.002\nmse = 600.25\nsamples = 2\nvalue = 587.5", fillcolor="#f7d9c3"] ;
663 -> 664 ;
665 [label="mse = 0.0\nsamples = 1\nvalue = 563.0", fillcolor="#f8ddc9"] ;
664 -> 665 ;
666 [label="mse = 0.0\nsamples = 1\nvalue = 612.0", fillcolor="#f6d4bc"] ;
664 -> 666 ;
667 [label="X[3] <= 0.0\nmse = 196.0\nsamples = 2\nvalue = 661.0", fillcolor="#f4ccaf"] ;
663 -> 667 ;
668 [label="mse = 0.0\nsamples = 1\nvalue = 647.0", fillcolor="#f5ceb2"] ;
667 -> 668 ;
669 [label="mse = 0.0\nsamples = 1\nvalue = 675.0", fillcolor="#f4c9ab"] ;
667 -> 669 ;
670 [label="mse = 0.0\nsamples = 1\nvalue = 1093.0", fillcolor="#e58139"] ;
654 -> 670 ;
671 [label="X[0] <= 0.001\nmse = 24314.128\nsamples = 20\nvalue = 692.15", fillcolor="#f3c6a6"] ;
531 -> 671 ;
672 [label="X[0] <= 0.001\nmse = 41372.806\nsamples = 6\nvalue = 833.167", fillcolor="#eeae80"] ;
671 -> 672 ;
673 [label="X[1] <= 0.023\nmse = 11424.188\nsamples = 4\nvalue = 703.25", fillcolor="#f3c5a3"] ;
672 -> 673 ;
674 [label="X[3] <= 0.0\nmse = 3242.0\nsamples = 3\nvalue = 758.0", fillcolor="#f1bb94"] ;
673 -> 674 ;
675 [label="X[3] <= 0.0\nmse = 182.25\nsamples = 2\nvalue = 718.5", fillcolor="#f2c29f"] ;
674 -> 675 ;
676 [label="mse = 0.0\nsamples = 1\nvalue = 732.0", fillcolor="#f2c09b"] ;
675 -> 676 ;
677 [label="mse = 0.0\nsamples = 1\nvalue = 705.0", fillcolor="#f3c4a3"] ;
675 -> 677 ;
678 [label="mse = 0.0\nsamples = 1\nvalue = 837.0", fillcolor="#eead7f"] ;
674 -> 678 ;
679 [label="mse = 0.0\nsamples = 1\nvalue = 539.0", fillcolor="#f9e1d0"] ;
673 -> 679 ;
680 [label="mse = 0.0\nsamples = 2\nvalue = 1093.0", fillcolor="#e58139"] ;
672 -> 680 ;
681 [label="X[3] <= 0.0\nmse = 4828.347\nsamples = 14\nvalue = 631.714", fillcolor="#f5d1b7"] ;
671 -> 681 ;
682 [label="X[2] <= 0.007\nmse = 3574.562\nsamples = 11\nvalue = 653.727", fillcolor="#f5cdb1"] ;
681 -> 682 ;
683 [label="X[1] <= 0.02\nmse = 2230.691\nsamples = 9\nvalue = 673.444", fillcolor="#f4caab"] ;
682 -> 683 ;
684 [label="X[1] <= 0.02\nmse = 144.0\nsamples = 2\nvalue = 726.0", fillcolor="#f2c19d"] ;
683 -> 684 ;
685 [label="mse = 0.0\nsamples = 1\nvalue = 738.0", fillcolor="#f2bf9a"] ;
684 -> 685 ;
686 [label="mse = 0.0\nsamples = 1\nvalue = 714.0", fillcolor="#f3c3a0"] ;
684 -> 686 ;
687 [label="X[0] <= 0.001\nmse = 1812.245\nsamples = 7\nvalue = 658.429", fillcolor="#f5ccaf"] ;
683 -> 687 ;
688 [label="X[3] <= 0.0\nmse = 488.0\nsamples = 3\nvalue = 699.0", fillcolor="#f3c5a4"] ;
687 -> 688 ;
689 [label="mse = 0.0\nsamples = 1\nvalue = 727.0", fillcolor="#f2c09d"] ;
688 -> 689 ;
690 [label="X[2] <= 0.006\nmse = 144.0\nsamples = 2\nvalue = 685.0", fillcolor="#f4c8a8"] ;
688 -> 690 ;
691 [label="mse = 0.0\nsamples = 1\nvalue = 697.0", fillcolor="#f3c6a5"] ;
690 -> 691 ;
692 [label="mse = 0.0\nsamples = 1\nvalue = 673.0", fillcolor="#f4caab"] ;
690 -> 692 ;
693 [label="X[3] <= 0.0\nmse = 645.0\nsamples = 4\nvalue = 628.0", fillcolor="#f6d2b8"] ;
687 -> 693 ;
694 [label="X[2] <= 0.006\nmse = 36.0\nsamples = 2\nvalue = 603.0", fillcolor="#f7d6be"] ;
693 -> 694 ;
695 [label="mse = 0.0\nsamples = 1\nvalue = 609.0", fillcolor="#f6d5bd"] ;
694 -> 695 ;
696 [label="mse = 0.0\nsamples = 1\nvalue = 597.0", fillcolor="#f7d7c0"] ;
694 -> 696 ;
697 [label="X[2] <= 0.005\nmse = 4.0\nsamples = 2\nvalue = 653.0", fillcolor="#f5cdb1"] ;
693 -> 697 ;
698 [label="mse = 0.0\nsamples = 1\nvalue = 655.0", fillcolor="#f5cdb0"] ;
697 -> 698 ;
699 [label="mse = 0.0\nsamples = 1\nvalue = 651.0", fillcolor="#f5ceb1"] ;
697 -> 699 ;
700 [label="mse = 0.0\nsamples = 2\nvalue = 565.0", fillcolor="#f8ddc9"] ;
682 -> 700 ;
701 [label="X[2] <= 0.006\nmse = 1134.0\nsamples = 3\nvalue = 551.0", fillcolor="#f8dfcd"] ;
681 -> 701 ;
702 [label="X[2] <= 0.006\nmse = 182.25\nsamples = 2\nvalue = 528.5", fillcolor="#f9e3d3"] ;
701 -> 702 ;
703 [label="mse = 0.0\nsamples = 1\nvalue = 542.0", fillcolor="#f9e0cf"] ;
702 -> 703 ;
704 [label="mse = 0.0\nsamples = 1\nvalue = 515.0", fillcolor="#fae5d6"] ;
702 -> 704 ;
705 [label="mse = 0.0\nsamples = 1\nvalue = 596.0", fillcolor="#f7d7c0"] ;
701 -> 705 ;
706 [label="X[3] <= 0.0\nmse = 52426.385\nsamples = 127\nvalue = 788.764", fillcolor="#f0b68c"] ;
406 -> 706 ;
707 [label="X[2] <= 0.006\nmse = 57727.134\nsamples = 42\nvalue = 849.095", fillcolor="#eeab7b"] ;
706 -> 707 ;
708 [label="X[3] <= 0.0\nmse = 53558.531\nsamples = 35\nvalue = 894.571", fillcolor="#eca36f"] ;
707 -> 708 ;
709 [label="X[1] <= 0.032\nmse = 61553.772\nsamples = 17\nvalue = 802.412", fillcolor="#efb388"] ;
708 -> 709 ;
710 [label="X[1] <= 0.028\nmse = 55726.781\nsamples = 14\nvalue = 857.929", fillcolor="#edaa79"] ;
709 -> 710 ;
711 [label="X[0] <= 0.002\nmse = 12368.222\nsamples = 3\nvalue = 601.333", fillcolor="#f7d6bf"] ;
710 -> 711 ;
712 [label="X[0] <= 0.001\nmse = 144.0\nsamples = 2\nvalue = 523.0", fillcolor="#f9e4d4"] ;
711 -> 712 ;
713 [label="mse = 0.0\nsamples = 1\nvalue = 535.0", fillcolor="#f9e2d1"] ;
712 -> 713 ;
714 [label="mse = 0.0\nsamples = 1\nvalue = 511.0", fillcolor="#fae6d8"] ;
712 -> 714 ;
715 [label="mse = 0.0\nsamples = 1\nvalue = 758.0", fillcolor="#f1bb94"] ;
711 -> 715 ;
716 [label="X[3] <= 0.0\nmse = 44697.901\nsamples = 11\nvalue = 927.909", fillcolor="#eb9e66"] ;
710 -> 716 ;
717 [label="X[3] <= 0.0\nmse = 30139.85\nsamples = 10\nvalue = 969.5", fillcolor="#e9965b"] ;
716 -> 717 ;
718 [label="X[3] <= 0.0\nmse = 36056.188\nsamples = 4\nvalue = 861.25", fillcolor="#eda978"] ;
717 -> 718 ;
719 [label="X[3] <= 0.0\nmse = 13664.667\nsamples = 3\nvalue = 954.0", fillcolor="#ea995f"] ;
718 -> 719 ;
720 [label="mse = 0.0\nsamples = 1\nvalue = 807.0", fillcolor="#efb387"] ;
719 -> 720 ;
721 [label="X[1] <= 0.031\nmse = 4290.25\nsamples = 2\nvalue = 1027.5", fillcolor="#e78c4b"] ;
719 -> 721 ;
722 [label="mse = 0.0\nsamples = 1\nvalue = 962.0", fillcolor="#ea985d"] ;
721 -> 722 ;
723 [label="mse = 0.0\nsamples = 1\nvalue = 1093.0", fillcolor="#e58139"] ;
721 -> 723 ;
724 [label="mse = 0.0\nsamples = 1\nvalue = 583.0", fillcolor="#f7d9c4"] ;
718 -> 724 ;
725 [label="X[3] <= 0.0\nmse = 13175.556\nsamples = 6\nvalue = 1041.667", fillcolor="#e78a47"] ;
717 -> 725 ;
726 [label="mse = 0.0\nsamples = 3\nvalue = 1093.0", fillcolor="#e58139"] ;
725 -> 726 ;
727 [label="X[0] <= 0.002\nmse = 21080.889\nsamples = 3\nvalue = 990.333", fillcolor="#e99355"] ;
725 -> 727 ;
728 [label="mse = 0.0\nsamples = 1\nvalue = 785.0", fillcolor="#f0b68d"] ;
727 -> 728 ;
729 [label="mse = 0.0\nsamples = 2\nvalue = 1093.0", fillcolor="#e58139"] ;
727 -> 729 ;
730 [label="mse = 0.0\nsamples = 1\nvalue = 512.0", fillcolor="#fae6d7"] ;
716 -> 730 ;
731 [label="X[1] <= 0.033\nmse = 7241.556\nsamples = 3\nvalue = 543.333", fillcolor="#f9e0cf"] ;
709 -> 731 ;
732 [label="mse = 0.0\nsamples = 1\nvalue = 423.0", fillcolor="#fdf5ef"] ;
731 -> 732 ;
733 [label="X[0] <= 0.002\nmse = 2.25\nsamples = 2\nvalue = 603.5", fillcolor="#f7d6be"] ;
731 -> 733 ;
734 [label="mse = 0.0\nsamples = 1\nvalue = 605.0", fillcolor="#f6d6be"] ;
733 -> 734 ;
735 [label="mse = 0.0\nsamples = 1\nvalue = 602.0", fillcolor="#f7d6bf"] ;
733 -> 735 ;
736 [label="X[1] <= 0.03\nmse = 30410.015\nsamples = 18\nvalue = 981.611", fillcolor="#e99457"] ;
708 -> 736 ;
737 [label="X[2] <= 0.004\nmse = 43620.8\nsamples = 5\nvalue = 866.0", fillcolor="#eda877"] ;
736 -> 737 ;
738 [label="X[2] <= 0.002\nmse = 15446.889\nsamples = 3\nvalue = 714.667", fillcolor="#f3c3a0"] ;
737 -> 738 ;
739 [label="X[1] <= 0.029\nmse = 289.0\nsamples = 2\nvalue = 802.0", fillcolor="#efb388"] ;
738 -> 739 ;
740 [label="mse = 0.0\nsamples = 1\nvalue = 785.0", fillcolor="#f0b68d"] ;
739 -> 740 ;
741 [label="mse = 0.0\nsamples = 1\nvalue = 819.0", fillcolor="#efb084"] ;
739 -> 741 ;
742 [label="mse = 0.0\nsamples = 1\nvalue = 540.0", fillcolor="#f9e1d0"] ;
738 -> 742 ;
743 [label="mse = 0.0\nsamples = 2\nvalue = 1093.0", fillcolor="#e58139"] ;
737 -> 743 ;
744 [label="X[2] <= 0.005\nmse = 18210.994\nsamples = 13\nvalue = 1026.077", fillcolor="#e78d4b"] ;
736 -> 744 ;
745 [label="X[3] <= 0.0\nmse = 6873.174\nsamples = 11\nvalue = 1054.909", fillcolor="#e68843"] ;
744 -> 745 ;
746 [label="mse = 0.0\nsamples = 9\nvalue = 1093.0", fillcolor="#e58139"] ;
745 -> 746 ;
747 [label="X[2] <= 0.003\nmse = 1892.25\nsamples = 2\nvalue = 883.5", fillcolor="#eca572"] ;
745 -> 747 ;
748 [label="mse = 0.0\nsamples = 1\nvalue = 840.0", fillcolor="#eead7e"] ;
747 -> 748 ;
749 [label="mse = 0.0\nsamples = 1\nvalue = 927.0", fillcolor="#eb9e66"] ;
747 -> 749 ;
750 [label="X[2] <= 0.006\nmse = 50850.25\nsamples = 2\nvalue = 867.5", fillcolor="#eda876"] ;
744 -> 750 ;
751 [label="mse = 0.0\nsamples = 1\nvalue = 642.0", fillcolor="#f5cfb4"] ;
750 -> 751 ;
752 [label="mse = 0.0\nsamples = 1\nvalue = 1093.0", fillcolor="#e58139"] ;
750 -> 752 ;
753 [label="X[1] <= 0.031\nmse = 16527.633\nsamples = 7\nvalue = 621.714", fillcolor="#f6d3b9"] ;
707 -> 753 ;
754 [label="X[3] <= 0.0\nmse = 5597.917\nsamples = 6\nvalue = 577.5", fillcolor="#f7dac5"] ;
753 -> 754 ;
755 [label="mse = 0.0\nsamples = 1\nvalue = 734.0", fillcolor="#f2bf9b"] ;
754 -> 755 ;
756 [label="X[3] <= 0.0\nmse = 839.36\nsamples = 5\nvalue = 546.2", fillcolor="#f9e0ce"] ;
754 -> 756 ;
757 [label="X[3] <= 0.0\nmse = 639.688\nsamples = 4\nvalue = 555.25", fillcolor="#f8decb"] ;
756 -> 757 ;
758 [label="X[3] <= 0.0\nmse = 196.0\nsamples = 2\nvalue = 532.0", fillcolor="#f9e2d2"] ;
757 -> 758 ;
759 [label="mse = 0.0\nsamples = 1\nvalue = 518.0", fillcolor="#fae5d6"] ;
758 -> 759 ;
760 [label="mse = 0.0\nsamples = 1\nvalue = 546.0", fillcolor="#f9e0ce"] ;
758 -> 760 ;
761 [label="X[2] <= 0.007\nmse = 2.25\nsamples = 2\nvalue = 578.5", fillcolor="#f7dac5"] ;
757 -> 761 ;
762 [label="mse = 0.0\nsamples = 1\nvalue = 580.0", fillcolor="#f7dac5"] ;
761 -> 762 ;
763 [label="mse = 0.0\nsamples = 1\nvalue = 577.0", fillcolor="#f7dac6"] ;
761 -> 763 ;
764 [label="mse = 0.0\nsamples = 1\nvalue = 510.0", fillcolor="#fae6d8"] ;
756 -> 764 ;
765 [label="mse = 0.0\nsamples = 1\nvalue = 887.0", fillcolor="#eca571"] ;
753 -> 765 ;
766 [label="X[2] <= 0.001\nmse = 47119.974\nsamples = 85\nvalue = 758.953", fillcolor="#f1bb94"] ;
706 -> 766 ;
767 [label="mse = 0.0\nsamples = 2\nvalue = 1093.0", fillcolor="#e58139"] ;
766 -> 767 ;
768 [label="X[2] <= 0.008\nmse = 45501.75\nsamples = 83\nvalue = 750.904", fillcolor="#f1bc96"] ;
766 -> 768 ;
769 [label="X[1] <= 0.03\nmse = 43664.273\nsamples = 81\nvalue = 742.457", fillcolor="#f2be98"] ;
768 -> 769 ;
770 [label="X[2] <= 0.003\nmse = 46290.472\nsamples = 30\nvalue = 805.167", fillcolor="#efb387"] ;
769 -> 770 ;
771 [label="X[3] <= 0.0\nmse = 28725.44\nsamples = 10\nvalue = 685.4", fillcolor="#f4c8a8"] ;
770 -> 771 ;
772 [label="X[1] <= 0.028\nmse = 3887.76\nsamples = 5\nvalue = 558.2", fillcolor="#f8decb"] ;
771 -> 772 ;
773 [label="X[3] <= 0.0\nmse = 56.25\nsamples = 2\nvalue = 510.5", fillcolor="#fae6d8"] ;
772 -> 773 ;
774 [label="mse = 0.0\nsamples = 1\nvalue = 518.0", fillcolor="#fae5d6"] ;
773 -> 774 ;
775 [label="mse = 0.0\nsamples = 1\nvalue = 503.0", fillcolor="#fae7da"] ;
773 -> 775 ;
776 [label="X[3] <= 0.0\nmse = 3914.0\nsamples = 3\nvalue = 590.0", fillcolor="#f7d8c2"] ;
772 -> 776 ;
777 [label="mse = 0.0\nsamples = 1\nvalue = 504.0", fillcolor="#fae7d9"] ;
776 -> 777 ;
778 [label="X[0] <= 0.002\nmse = 324.0\nsamples = 2\nvalue = 633.0", fillcolor="#f5d1b6"] ;
776 -> 778 ;
779 [label="mse = 0.0\nsamples = 1\nvalue = 651.0", fillcolor="#f5ceb1"] ;
778 -> 779 ;
780 [label="mse = 0.0\nsamples = 1\nvalue = 615.0", fillcolor="#f6d4bb"] ;
778 -> 780 ;
781 [label="X[3] <= 0.0\nmse = 21203.44\nsamples = 5\nvalue = 812.6", fillcolor="#efb285"] ;
771 -> 781 ;
782 [label="mse = 0.0\nsamples = 1\nvalue = 1093.0", fillcolor="#e58139"] ;
781 -> 782 ;
783 [label="X[1] <= 0.027\nmse = 1934.25\nsamples = 4\nvalue = 742.5", fillcolor="#f2be98"] ;
781 -> 783 ;
784 [label="mse = 0.0\nsamples = 1\nvalue = 674.0", fillcolor="#f4caab"] ;
783 -> 784 ;
785 [label="X[2] <= 0.002\nmse = 493.556\nsamples = 3\nvalue = 765.333", fillcolor="#f1ba92"] ;
783 -> 785 ;
786 [label="X[1] <= 0.029\nmse = 4.0\nsamples = 2\nvalue = 781.0", fillcolor="#f0b78e"] ;
785 -> 786 ;
787 [label="mse = 0.0\nsamples = 1\nvalue = 783.0", fillcolor="#f0b78d"] ;
786 -> 787 ;
788 [label="mse = 0.0\nsamples = 1\nvalue = 779.0", fillcolor="#f0b78f"] ;
786 -> 788 ;
789 [label="mse = 0.0\nsamples = 1\nvalue = 734.0", fillcolor="#f2bf9b"] ;
785 -> 789 ;
790 [label="X[2] <= 0.008\nmse = 44314.948\nsamples = 20\nvalue = 865.05", fillcolor="#eda977"] ;
770 -> 790 ;
791 [label="X[0] <= 0.0\nmse = 33475.087\nsamples = 17\nvalue = 916.176", fillcolor="#eba069"] ;
790 -> 791 ;
792 [label="mse = 0.0\nsamples = 1\nvalue = 581.0", fillcolor="#f7dac4"] ;
791 -> 792 ;
793 [label="X[0] <= 0.002\nmse = 28106.984\nsamples = 16\nvalue = 937.125", fillcolor="#eb9c63"] ;
791 -> 793 ;
794 [label="X[3] <= 0.0\nmse = 25244.167\nsamples = 12\nvalue = 990.0", fillcolor="#e99355"] ;
793 -> 794 ;
795 [label="X[3] <= 0.0\nmse = 3783.938\nsamples = 8\nvalue = 1069.75", fillcolor="#e6853f"] ;
794 -> 795 ;
796 [label="mse = 0.0\nsamples = 1\nvalue = 907.0", fillcolor="#eca16c"] ;
795 -> 796 ;
797 [label="mse = 0.0\nsamples = 7\nvalue = 1093.0", fillcolor="#e58139"] ;
795 -> 797 ;
798 [label="X[1] <= 0.03\nmse = 30004.25\nsamples = 4\nvalue = 830.5", fillcolor="#eeae80"] ;
794 -> 798 ;
799 [label="X[2] <= 0.005\nmse = 9380.667\nsamples = 3\nvalue = 743.0", fillcolor="#f2be98"] ;
798 -> 799 ;
800 [label="mse = 0.0\nsamples = 1\nvalue = 618.0", fillcolor="#f6d3ba"] ;
799 -> 800 ;
801 [label="X[2] <= 0.007\nmse = 2352.25\nsamples = 2\nvalue = 805.5", fillcolor="#efb387"] ;
799 -> 801 ;
802 [label="mse = 0.0\nsamples = 1\nvalue = 854.0", fillcolor="#eeaa7a"] ;
801 -> 802 ;
803 [label="mse = 0.0\nsamples = 1\nvalue = 757.0", fillcolor="#f1bb95"] ;
801 -> 803 ;
804 [label="mse = 0.0\nsamples = 1\nvalue = 1093.0", fillcolor="#e58139"] ;
798 -> 804 ;
805 [label="X[2] <= 0.007\nmse = 3146.25\nsamples = 4\nvalue = 778.5", fillcolor="#f0b88f"] ;
793 -> 805 ;
806 [label="X[3] <= 0.0\nmse = 36.0\nsamples = 2\nvalue = 829.0", fillcolor="#eeaf81"] ;
805 -> 806 ;
807 [label="mse = 0.0\nsamples = 1\nvalue = 835.0", fillcolor="#eeae7f"] ;
806 -> 807 ;
808 [label="mse = 0.0\nsamples = 1\nvalue = 823.0", fillcolor="#efb083"] ;
806 -> 808 ;
809 [label="X[0] <= 0.002\nmse = 1156.0\nsamples = 2\nvalue = 728.0", fillcolor="#f2c09c"] ;
805 -> 809 ;
810 [label="mse = 0.0\nsamples = 1\nvalue = 694.0", fillcolor="#f3c6a6"] ;
809 -> 810 ;
811 [label="mse = 0.0\nsamples = 1\nvalue = 762.0", fillcolor="#f1ba93"] ;
809 -> 811 ;
812 [label="X[0] <= 0.001\nmse = 6992.889\nsamples = 3\nvalue = 575.333", fillcolor="#f8dbc6"] ;
790 -> 812 ;
813 [label="X[0] <= 0.0\nmse = 1849.0\nsamples = 2\nvalue = 629.0", fillcolor="#f6d1b7"] ;
812 -> 813 ;
814 [label="mse = 0.0\nsamples = 1\nvalue = 672.0", fillcolor="#f4caac"] ;
813 -> 814 ;
815 [label="mse = 0.0\nsamples = 1\nvalue = 586.0", fillcolor="#f7d9c3"] ;
813 -> 815 ;
816 [label="mse = 0.0\nsamples = 1\nvalue = 468.0", fillcolor="#fbede3"] ;
812 -> 816 ;
817 [label="X[1] <= 0.031\nmse = 38445.461\nsamples = 51\nvalue = 705.569", fillcolor="#f3c4a3"] ;
769 -> 817 ;
818 [label="X[3] <= 0.0\nmse = 8133.121\nsamples = 16\nvalue = 607.562", fillcolor="#f6d5bd"] ;
817 -> 818 ;
819 [label="X[0] <= 0.002\nmse = 1197.25\nsamples = 4\nvalue = 534.5", fillcolor="#f9e2d1"] ;
818 -> 819 ;
820 [label="X[3] <= 0.0\nmse = 49.0\nsamples = 2\nvalue = 503.0", fillcolor="#fae7da"] ;
819 -> 820 ;
821 [label="mse = 0.0\nsamples = 1\nvalue = 496.0", fillcolor="#fae8dc"] ;
820 -> 821 ;
822 [label="mse = 0.0\nsamples = 1\nvalue = 510.0", fillcolor="#fae6d8"] ;
820 -> 822 ;
823 [label="X[1] <= 0.03\nmse = 361.0\nsamples = 2\nvalue = 566.0", fillcolor="#f8dcc9"] ;
819 -> 823 ;
824 [label="mse = 0.0\nsamples = 1\nvalue = 547.0", fillcolor="#f9e0ce"] ;
823 -> 824 ;
825 [label="mse = 0.0\nsamples = 1\nvalue = 585.0", fillcolor="#f7d9c3"] ;
823 -> 825 ;
826 [label="X[3] <= 0.0\nmse = 8072.576\nsamples = 12\nvalue = 631.917", fillcolor="#f5d1b7"] ;
818 -> 826 ;
827 [label="X[1] <= 0.03\nmse = 2.25\nsamples = 2\nvalue = 769.5", fillcolor="#f1b991"] ;
826 -> 827 ;
828 [label="mse = 0.0\nsamples = 1\nvalue = 768.0", fillcolor="#f1b992"] ;
827 -> 828 ;
829 [label="mse = 0.0\nsamples = 1\nvalue = 771.0", fillcolor="#f1b991"] ;
827 -> 829 ;
830 [label="X[3] <= 0.0\nmse = 5143.64\nsamples = 10\nvalue = 604.4", fillcolor="#f6d6be"] ;
826 -> 830 ;
831 [label="X[0] <= 0.002\nmse = 2648.765\nsamples = 9\nvalue = 586.889", fillcolor="#f7d9c3"] ;
830 -> 831 ;
832 [label="X[0] <= 0.001\nmse = 645.806\nsamples = 6\nvalue = 554.167", fillcolor="#f8decc"] ;
831 -> 832 ;
833 [label="X[0] <= 0.0\nmse = 169.0\nsamples = 2\nvalue = 580.0", fillcolor="#f7dac5"] ;
832 -> 833 ;
834 [label="mse = 0.0\nsamples = 1\nvalue = 567.0", fillcolor="#f8dcc8"] ;
833 -> 834 ;
835 [label="mse = 0.0\nsamples = 1\nvalue = 593.0", fillcolor="#f7d8c1"] ;
833 -> 835 ;
836 [label="X[2] <= 0.005\nmse = 383.688\nsamples = 4\nvalue = 541.25", fillcolor="#f9e1cf"] ;
832 -> 836 ;
837 [label="X[3] <= 0.0\nmse = 181.556\nsamples = 3\nvalue = 550.333", fillcolor="#f8dfcd"] ;
836 -> 837 ;
838 [label="mse = 0.0\nsamples = 1\nvalue = 567.0", fillcolor="#f8dcc8"] ;
837 -> 838 ;
839 [label="X[0] <= 0.001\nmse = 64.0\nsamples = 2\nvalue = 542.0", fillcolor="#f9e0cf"] ;
837 -> 839 ;
840 [label="mse = 0.0\nsamples = 1\nvalue = 534.0", fillcolor="#f9e2d1"] ;
839 -> 840 ;
841 [label="mse = 0.0\nsamples = 1\nvalue = 550.0", fillcolor="#f8dfcd"] ;
839 -> 841 ;
842 [label="mse = 0.0\nsamples = 1\nvalue = 514.0", fillcolor="#fae5d7"] ;
836 -> 842 ;
843 [label="X[3] <= 0.0\nmse = 230.222\nsamples = 3\nvalue = 652.333", fillcolor="#f5cdb1"] ;
831 -> 843 ;
844 [label="mse = 0.0\nsamples = 1\nvalue = 631.0", fillcolor="#f6d1b7"] ;
843 -> 844 ;
845 [label="X[0] <= 0.002\nmse = 4.0\nsamples = 2\nvalue = 663.0", fillcolor="#f4ccae"] ;
843 -> 845 ;
846 [label="mse = 0.0\nsamples = 1\nvalue = 661.0", fillcolor="#f4ccaf"] ;
845 -> 846 ;
847 [label="mse = 0.0\nsamples = 1\nvalue = 665.0", fillcolor="#f4cbae"] ;
845 -> 847 ;
848 [label="mse = 0.0\nsamples = 1\nvalue = 762.0", fillcolor="#f1ba93"] ;
830 -> 848 ;
849 [label="X[1] <= 0.032\nmse = 45904.291\nsamples = 35\nvalue = 750.371", fillcolor="#f1bc96"] ;
817 -> 849 ;
850 [label="X[1] <= 0.031\nmse = 35991.87\nsamples = 13\nvalue = 832.769", fillcolor="#eeae80"] ;
849 -> 850 ;
851 [label="mse = 0.0\nsamples = 1\nvalue = 1093.0", fillcolor="#e58139"] ;
850 -> 851 ;
852 [label="X[1] <= 0.031\nmse = 32877.576\nsamples = 12\nvalue = 811.083", fillcolor="#efb286"] ;
850 -> 852 ;
853 [label="X[2] <= 0.006\nmse = 1100.667\nsamples = 3\nvalue = 623.0", fillcolor="#f6d2b9"] ;
852 -> 853 ;
854 [label="X[2] <= 0.005\nmse = 132.25\nsamples = 2\nvalue = 600.5", fillcolor="#f7d6bf"] ;
853 -> 854 ;
855 [label="mse = 0.0\nsamples = 1\nvalue = 612.0", fillcolor="#f6d4bc"] ;
854 -> 855 ;
856 [label="mse = 0.0\nsamples = 1\nvalue = 589.0", fillcolor="#f7d8c2"] ;
854 -> 856 ;
857 [label="mse = 0.0\nsamples = 1\nvalue = 668.0", fillcolor="#f4cbad"] ;
853 -> 857 ;
858 [label="X[1] <= 0.031\nmse = 27747.506\nsamples = 9\nvalue = 873.778", fillcolor="#eda775"] ;
852 -> 858 ;
859 [label="mse = 0.0\nsamples = 2\nvalue = 1093.0", fillcolor="#e58139"] ;
858 -> 859 ;
860 [label="X[1] <= 0.031\nmse = 18021.265\nsamples = 7\nvalue = 811.143", fillcolor="#efb286"] ;
858 -> 860 ;
861 [label="X[3] <= 0.0\nmse = 5577.472\nsamples = 6\nvalue = 764.167", fillcolor="#f1ba93"] ;
860 -> 861 ;
862 [label="X[1] <= 0.031\nmse = 2210.75\nsamples = 4\nvalue = 720.5", fillcolor="#f2c29e"] ;
861 -> 862 ;
863 [label="X[0] <= 0.001\nmse = 738.667\nsamples = 3\nvalue = 697.0", fillcolor="#f3c6a5"] ;
862 -> 863 ;
864 [label="X[3] <= 0.0\nmse = 25.0\nsamples = 2\nvalue = 716.0", fillcolor="#f2c2a0"] ;
863 -> 864 ;
865 [label="mse = 0.0\nsamples = 1\nvalue = 711.0", fillcolor="#f3c3a1"] ;
864 -> 865 ;
866 [label="mse = 0.0\nsamples = 1\nvalue = 721.0", fillcolor="#f2c19e"] ;
864 -> 866 ;
867 [label="mse = 0.0\nsamples = 1\nvalue = 659.0", fillcolor="#f5ccaf"] ;
863 -> 867 ;
868 [label="mse = 0.0\nsamples = 1\nvalue = 791.0", fillcolor="#f0b58b"] ;
862 -> 868 ;
869 [label="X[2] <= 0.004\nmse = 870.25\nsamples = 2\nvalue = 851.5", fillcolor="#eeab7b"] ;
861 -> 869 ;
870 [label="mse = 0.0\nsamples = 1\nvalue = 822.0", fillcolor="#efb083"] ;
869 -> 870 ;
871 [label="mse = 0.0\nsamples = 1\nvalue = 881.0", fillcolor="#eda673"] ;
869 -> 871 ;
872 [label="mse = 0.0\nsamples = 1\nvalue = 1093.0", fillcolor="#e58139"] ;
860 -> 872 ;
873 [label="X[2] <= 0.001\nmse = 45379.035\nsamples = 22\nvalue = 701.682", fillcolor="#f3c5a4"] ;
849 -> 873 ;
874 [label="mse = 0.0\nsamples = 1\nvalue = 1093.0", fillcolor="#e58139"] ;
873 -> 874 ;
875 [label="X[3] <= 0.0\nmse = 39900.807\nsamples = 21\nvalue = 683.048", fillcolor="#f4c8a9"] ;
873 -> 875 ;
876 [label="X[2] <= 0.003\nmse = 27014.372\nsamples = 14\nvalue = 630.357", fillcolor="#f6d1b7"] ;
875 -> 876 ;
877 [label="X[1] <= 0.033\nmse = 32149.359\nsamples = 8\nvalue = 704.125", fillcolor="#f3c4a3"] ;
876 -> 877 ;
878 [label="X[2] <= 0.003\nmse = 12052.531\nsamples = 7\nvalue = 648.571", fillcolor="#f5ceb2"] ;
877 -> 878 ;
879 [label="X[3] <= 0.0\nmse = 3826.222\nsamples = 6\nvalue = 610.333", fillcolor="#f6d5bc"] ;
878 -> 879 ;
880 [label="X[1] <= 0.032\nmse = 1665.5\nsamples = 4\nvalue = 647.0", fillcolor="#f5ceb2"] ;
879 -> 880 ;
881 [label="X[3] <= 0.0\nmse = 256.0\nsamples = 2\nvalue = 612.0", fillcolor="#f6d4bc"] ;
880 -> 881 ;
882 [label="mse = 0.0\nsamples = 1\nvalue = 628.0", fillcolor="#f6d2b8"] ;
881 -> 882 ;
883 [label="mse = 0.0\nsamples = 1\nvalue = 596.0", fillcolor="#f7d7c0"] ;
881 -> 883 ;
884 [label="X[1] <= 0.032\nmse = 625.0\nsamples = 2\nvalue = 682.0", fillcolor="#f4c8a9"] ;
880 -> 884 ;
885 [label="mse = 0.0\nsamples = 1\nvalue = 707.0", fillcolor="#f3c4a2"] ;
884 -> 885 ;
886 [label="mse = 0.0\nsamples = 1\nvalue = 657.0", fillcolor="#f5cdb0"] ;
884 -> 886 ;
887 [label="X[1] <= 0.032\nmse = 81.0\nsamples = 2\nvalue = 537.0", fillcolor="#f9e1d0"] ;
879 -> 887 ;
888 [label="mse = 0.0\nsamples = 1\nvalue = 528.0", fillcolor="#f9e3d3"] ;
887 -> 888 ;
889 [label="mse = 0.0\nsamples = 1\nvalue = 546.0", fillcolor="#f9e0ce"] ;
887 -> 889 ;
890 [label="mse = 0.0\nsamples = 1\nvalue = 878.0", fillcolor="#eda674"] ;
878 -> 890 ;
891 [label="mse = 0.0\nsamples = 1\nvalue = 1093.0", fillcolor="#e58139"] ;
877 -> 891 ;
892 [label="X[0] <= 0.002\nmse = 3238.0\nsamples = 6\nvalue = 532.0", fillcolor="#f9e2d2"] ;
876 -> 892 ;
893 [label="mse = 0.0\nsamples = 1\nvalue = 656.0", fillcolor="#f5cdb0"] ;
892 -> 893 ;
894 [label="X[2] <= 0.003\nmse = 195.36\nsamples = 5\nvalue = 507.2", fillcolor="#fae7d9"] ;
892 -> 894 ;
895 [label="mse = 0.0\nsamples = 1\nvalue = 485.0", fillcolor="#fbeadf"] ;
894 -> 895 ;
896 [label="X[3] <= 0.0\nmse = 90.188\nsamples = 4\nvalue = 512.75", fillcolor="#fae6d7"] ;
894 -> 896 ;
897 [label="X[0] <= 0.002\nmse = 100.0\nsamples = 2\nvalue = 519.0", fillcolor="#fae4d5"] ;
896 -> 897 ;
898 [label="mse = 0.0\nsamples = 1\nvalue = 509.0", fillcolor="#fae6d8"] ;
897 -> 898 ;
899 [label="mse = 0.0\nsamples = 1\nvalue = 529.0", fillcolor="#f9e3d3"] ;
897 -> 899 ;
900 [label="X[0] <= 0.002\nmse = 2.25\nsamples = 2\nvalue = 506.5", fillcolor="#fae7d9"] ;
896 -> 900 ;
901 [label="mse = 0.0\nsamples = 1\nvalue = 505.0", fillcolor="#fae7d9"] ;
900 -> 901 ;
902 [label="mse = 0.0\nsamples = 1\nvalue = 508.0", fillcolor="#fae6d8"] ;
900 -> 902 ;
903 [label="X[3] <= 0.0\nmse = 49015.959\nsamples = 7\nvalue = 788.429", fillcolor="#f0b68c"] ;
875 -> 903 ;
904 [label="X[1] <= 0.032\nmse = 33681.6\nsamples = 5\nvalue = 888.0", fillcolor="#eca571"] ;
903 -> 904 ;
905 [label="mse = 0.0\nsamples = 2\nvalue = 1093.0", fillcolor="#e58139"] ;
904 -> 905 ;
906 [label="X[0] <= 0.002\nmse = 9441.556\nsamples = 3\nvalue = 751.333", fillcolor="#f1bc96"] ;
904 -> 906 ;
907 [label="X[2] <= 0.005\nmse = 3422.25\nsamples = 2\nvalue = 691.5", fillcolor="#f3c7a6"] ;
906 -> 907 ;
908 [label="mse = 0.0\nsamples = 1\nvalue = 633.0", fillcolor="#f5d1b6"] ;
907 -> 908 ;
909 [label="mse = 0.0\nsamples = 1\nvalue = 750.0", fillcolor="#f1bc96"] ;
907 -> 909 ;
910 [label="mse = 0.0\nsamples = 1\nvalue = 871.0", fillcolor="#eda775"] ;
906 -> 910 ;
911 [label="X[2] <= 0.005\nmse = 600.25\nsamples = 2\nvalue = 539.5", fillcolor="#f9e1d0"] ;
903 -> 911 ;
912 [label="mse = 0.0\nsamples = 1\nvalue = 564.0", fillcolor="#f8ddc9"] ;
911 -> 912 ;
913 [label="mse = 0.0\nsamples = 1\nvalue = 515.0", fillcolor="#fae5d6"] ;
911 -> 913 ;
914 [label="mse = 0.0\nsamples = 2\nvalue = 1093.0", fillcolor="#e58139"] ;
768 -> 914 ;
915 [label="X[1] <= 0.034\nmse = 9093.487\nsamples = 20\nvalue = 531.75", fillcolor="#f9e2d2"] ;
405 -> 915 ;
916 [label="X[3] <= 0.0\nmse = 10749.2\nsamples = 10\nvalue = 588.0", fillcolor="#f7d9c3"] ;
915 -> 916 ;
917 [label="X[2] <= 0.004\nmse = 9158.75\nsamples = 4\nvalue = 680.5", fillcolor="#f4c8a9"] ;
916 -> 917 ;
918 [label="X[0] <= 0.001\nmse = 2304.0\nsamples = 2\nvalue = 598.0", fillcolor="#f7d7c0"] ;
917 -> 918 ;
919 [label="mse = 0.0\nsamples = 1\nvalue = 550.0", fillcolor="#f8dfcd"] ;
918 -> 919 ;
920 [label="mse = 0.0\nsamples = 1\nvalue = 646.0", fillcolor="#f5ceb3"] ;
918 -> 920 ;
921 [label="X[3] <= 0.0\nmse = 2401.0\nsamples = 2\nvalue = 763.0", fillcolor="#f1ba93"] ;
917 -> 921 ;
922 [label="mse = 0.0\nsamples = 1\nvalue = 714.0", fillcolor="#f3c3a0"] ;
921 -> 922 ;
923 [label="mse = 0.0\nsamples = 1\nvalue = 812.0", fillcolor="#efb286"] ;
921 -> 923 ;
924 [label="X[1] <= 0.034\nmse = 2302.556\nsamples = 6\nvalue = 526.333", fillcolor="#f9e3d3"] ;
916 -> 924 ;
925 [label="X[2] <= 0.004\nmse = 206.0\nsamples = 3\nvalue = 568.0", fillcolor="#f8dcc8"] ;
924 -> 925 ;
926 [label="mse = 0.0\nsamples = 1\nvalue = 548.0", fillcolor="#f8dfcd"] ;
925 -> 926 ;
927 [label="X[2] <= 0.005\nmse = 9.0\nsamples = 2\nvalue = 578.0", fillcolor="#f7dac5"] ;
925 -> 927 ;
928 [label="mse = 0.0\nsamples = 1\nvalue = 575.0", fillcolor="#f8dbc6"] ;
927 -> 928 ;
929 [label="mse = 0.0\nsamples = 1\nvalue = 581.0", fillcolor="#f7dac4"] ;
927 -> 929 ;
930 [label="X[2] <= 0.004\nmse = 926.889\nsamples = 3\nvalue = 484.667", fillcolor="#fbeadf"] ;
924 -> 930 ;
931 [label="mse = 0.0\nsamples = 1\nvalue = 445.0", fillcolor="#fcf1e9"] ;
930 -> 931 ;
932 [label="X[3] <= 0.0\nmse = 210.25\nsamples = 2\nvalue = 504.5", fillcolor="#fae7d9"] ;
930 -> 932 ;
933 [label="mse = 0.0\nsamples = 1\nvalue = 490.0", fillcolor="#fbeadd"] ;
932 -> 933 ;
934 [label="mse = 0.0\nsamples = 1\nvalue = 519.0", fillcolor="#fae4d5"] ;
932 -> 934 ;
935 [label="X[1] <= 0.036\nmse = 1109.65\nsamples = 10\nvalue = 475.5", fillcolor="#fbece1"] ;
915 -> 935 ;
936 [label="X[2] <= 0.007\nmse = 575.551\nsamples = 7\nvalue = 492.857", fillcolor="#fae9dc"] ;
935 -> 936 ;
937 [label="X[1] <= 0.034\nmse = 209.0\nsamples = 4\nvalue = 511.0", fillcolor="#fae6d8"] ;
936 -> 937 ;
938 [label="X[2] <= 0.001\nmse = 64.0\nsamples = 2\nvalue = 498.0", fillcolor="#fae8db"] ;
937 -> 938 ;
939 [label="mse = 0.0\nsamples = 1\nvalue = 506.0", fillcolor="#fae7d9"] ;
938 -> 939 ;
940 [label="mse = 0.0\nsamples = 1\nvalue = 490.0", fillcolor="#fbeadd"] ;
938 -> 940 ;
941 [label="X[3] <= 0.0\nmse = 16.0\nsamples = 2\nvalue = 524.0", fillcolor="#f9e4d4"] ;
937 -> 941 ;
942 [label="mse = 0.0\nsamples = 1\nvalue = 520.0", fillcolor="#f9e4d5"] ;
941 -> 942 ;
943 [label="mse = 0.0\nsamples = 1\nvalue = 528.0", fillcolor="#f9e3d3"] ;
941 -> 943 ;
944 [label="X[2] <= 0.007\nmse = 40.222\nsamples = 3\nvalue = 468.667", fillcolor="#fbede3"] ;
936 -> 944 ;
945 [label="X[0] <= 0.001\nmse = 4.0\nsamples = 2\nvalue = 473.0", fillcolor="#fbece2"] ;
944 -> 945 ;
946 [label="mse = 0.0\nsamples = 1\nvalue = 471.0", fillcolor="#fbede2"] ;
945 -> 946 ;
947 [label="mse = 0.0\nsamples = 1\nvalue = 475.0", fillcolor="#fbece1"] ;
945 -> 947 ;
948 [label="mse = 0.0\nsamples = 1\nvalue = 460.0", fillcolor="#fcefe5"] ;
944 -> 948 ;
949 [label="X[2] <= 0.005\nmse = 12.667\nsamples = 3\nvalue = 435.0", fillcolor="#fdf3ec"] ;
935 -> 949 ;
950 [label="X[2] <= 0.003\nmse = 0.25\nsamples = 2\nvalue = 437.5", fillcolor="#fcf3ec"] ;
949 -> 950 ;
951 [label="mse = 0.0\nsamples = 1\nvalue = 437.0", fillcolor="#fcf3ec"] ;
950 -> 951 ;
952 [label="mse = 0.0\nsamples = 1\nvalue = 438.0", fillcolor="#fcf3eb"] ;
950 -> 952 ;
953 [label="mse = 0.0\nsamples = 1\nvalue = 430.0", fillcolor="#fdf4ee"] ;
949 -> 953 ;
954 [label="X[3] <= 0.0\nmse = 55164.505\nsamples = 179\nvalue = 721.939", fillcolor="#f2c19e"] ;
2 -> 954 ;
955 [label="X[1] <= 0.033\nmse = 55594.635\nsamples = 143\nvalue = 765.224", fillcolor="#f1ba92"] ;
954 -> 955 ;
956 [label="X[0] <= 0.001\nmse = 54060.43\nsamples = 137\nvalue = 778.022", fillcolor="#f0b88f"] ;
955 -> 956 ;
957 [label="X[1] <= 0.008\nmse = 59215.005\nsamples = 66\nvalue = 844.318", fillcolor="#eeac7d"] ;
956 -> 957 ;
958 [label="X[3] <= 0.0\nmse = 17436.693\nsamples = 15\nvalue = 1043.8", fillcolor="#e78a46"] ;
957 -> 958 ;
959 [label="X[1] <= 0.007\nmse = 4653.444\nsamples = 13\nvalue = 1073.308", fillcolor="#e6843e"] ;
958 -> 959 ;
960 [label="mse = 0.0\nsamples = 11\nvalue = 1093.0", fillcolor="#e58139"] ;
959 -> 960 ;
961 [label="X[2] <= 0.005\nmse = 16384.0\nsamples = 2\nvalue = 965.0", fillcolor="#ea975c"] ;
959 -> 961 ;
962 [label="mse = 0.0\nsamples = 1\nvalue = 1093.0", fillcolor="#e58139"] ;
961 -> 962 ;
963 [label="mse = 0.0\nsamples = 1\nvalue = 837.0", fillcolor="#eead7f"] ;
961 -> 963 ;
964 [label="X[2] <= 0.002\nmse = 58081.0\nsamples = 2\nvalue = 852.0", fillcolor="#eeab7b"] ;
958 -> 964 ;
965 [label="mse = 0.0\nsamples = 1\nvalue = 611.0", fillcolor="#f6d5bc"] ;
964 -> 965 ;
966 [label="mse = 0.0\nsamples = 1\nvalue = 1093.0", fillcolor="#e58139"] ;
964 -> 966 ;
967 [label="X[0] <= 0.001\nmse = 56356.621\nsamples = 51\nvalue = 785.647", fillcolor="#f0b68d"] ;
957 -> 967 ;
968 [label="X[0] <= 0.001\nmse = 52429.058\nsamples = 47\nvalue = 759.489", fillcolor="#f1bb94"] ;
967 -> 968 ;
969 [label="X[2] <= 0.003\nmse = 49061.196\nsamples = 27\nvalue = 703.63", fillcolor="#f3c4a3"] ;
968 -> 969 ;
970 [label="X[3] <= 0.0\nmse = 2570.204\nsamples = 7\nvalue = 536.714", fillcolor="#f9e1d1"] ;
969 -> 970 ;
971 [label="X[3] <= 0.0\nmse = 1896.472\nsamples = 6\nvalue = 524.167", fillcolor="#f9e4d4"] ;
970 -> 971 ;
972 [label="mse = 0.0\nsamples = 1\nvalue = 605.0", fillcolor="#f6d6be"] ;
971 -> 972 ;
973 [label="X[2] <= 0.002\nmse = 707.6\nsamples = 5\nvalue = 508.0", fillcolor="#fae6d8"] ;
971 -> 973 ;
974 [label="X[2] <= 0.001\nmse = 223.25\nsamples = 4\nvalue = 519.5", fillcolor="#fae4d5"] ;
973 -> 974 ;
975 [label="X[3] <= 0.0\nmse = 25.0\nsamples = 2\nvalue = 534.0", fillcolor="#f9e2d1"] ;
974 -> 975 ;
976 [label="mse = 0.0\nsamples = 1\nvalue = 529.0", fillcolor="#f9e3d3"] ;
975 -> 976 ;
977 [label="mse = 0.0\nsamples = 1\nvalue = 539.0", fillcolor="#f9e1d0"] ;
975 -> 977 ;
978 [label="X[0] <= 0.0\nmse = 1.0\nsamples = 2\nvalue = 505.0", fillcolor="#fae7d9"] ;
974 -> 978 ;
979 [label="mse = 0.0\nsamples = 1\nvalue = 504.0", fillcolor="#fae7d9"] ;
978 -> 979 ;
980 [label="mse = 0.0\nsamples = 1\nvalue = 506.0", fillcolor="#fae7d9"] ;
978 -> 980 ;
981 [label="mse = 0.0\nsamples = 1\nvalue = 462.0", fillcolor="#fceee5"] ;
973 -> 981 ;
982 [label="mse = 0.0\nsamples = 1\nvalue = 612.0", fillcolor="#f6d4bc"] ;
970 -> 982 ;
983 [label="X[2] <= 0.006\nmse = 52168.848\nsamples = 20\nvalue = 762.05", fillcolor="#f1ba93"] ;
969 -> 983 ;
984 [label="X[1] <= 0.012\nmse = 58568.595\nsamples = 11\nvalue = 883.364", fillcolor="#eca572"] ;
983 -> 984 ;
985 [label="X[2] <= 0.005\nmse = 14352.889\nsamples = 3\nvalue = 625.667", fillcolor="#f6d2b8"] ;
984 -> 985 ;
986 [label="X[2] <= 0.004\nmse = 1521.0\nsamples = 2\nvalue = 544.0", fillcolor="#f9e0cf"] ;
985 -> 986 ;
987 [label="mse = 0.0\nsamples = 1\nvalue = 505.0", fillcolor="#fae7d9"] ;
986 -> 987 ;
988 [label="mse = 0.0\nsamples = 1\nvalue = 583.0", fillcolor="#f7d9c4"] ;
986 -> 988 ;
989 [label="mse = 0.0\nsamples = 1\nvalue = 789.0", fillcolor="#f0b68c"] ;
985 -> 989 ;
990 [label="X[3] <= 0.0\nmse = 40908.0\nsamples = 8\nvalue = 980.0", fillcolor="#e99558"] ;
984 -> 990 ;
991 [label="X[1] <= 0.017\nmse = 52336.889\nsamples = 3\nvalue = 791.667", fillcolor="#f0b58b"] ;
990 -> 991 ;
992 [label="mse = 0.0\nsamples = 1\nvalue = 1093.0", fillcolor="#e58139"] ;
991 -> 992 ;
993 [label="X[2] <= 0.004\nmse = 10404.0\nsamples = 2\nvalue = 641.0", fillcolor="#f5cfb4"] ;
991 -> 993 ;
994 [label="mse = 0.0\nsamples = 1\nvalue = 743.0", fillcolor="#f2be98"] ;
993 -> 994 ;
995 [label="mse = 0.0\nsamples = 1\nvalue = 539.0", fillcolor="#f9e1d0"] ;
993 -> 995 ;
996 [label="mse = 0.0\nsamples = 5\nvalue = 1093.0", fillcolor="#e58139"] ;
990 -> 996 ;
997 [label="X[2] <= 0.008\nmse = 4374.84\nsamples = 9\nvalue = 613.778", fillcolor="#f6d4bc"] ;
983 -> 997 ;
998 [label="X[3] <= 0.0\nmse = 2701.333\nsamples = 6\nvalue = 583.0", fillcolor="#f7d9c4"] ;
997 -> 998 ;
999 [label="X[1] <= 0.014\nmse = 1024.0\nsamples = 2\nvalue = 643.0", fillcolor="#f5cfb4"] ;
998 -> 999 ;
1000 [label="mse = 0.0\nsamples = 1\nvalue = 611.0", fillcolor="#f6d5bc"] ;
999 -> 1000 ;
1001 [label="mse = 0.0\nsamples = 1\nvalue = 675.0", fillcolor="#f4c9ab"] ;
999 -> 1001 ;
1002 [label="X[2] <= 0.007\nmse = 840.0\nsamples = 4\nvalue = 553.0", fillcolor="#f8dfcc"] ;
998 -> 1002 ;
1003 [label="X[2] <= 0.007\nmse = 324.0\nsamples = 2\nvalue = 527.0", fillcolor="#f9e3d3"] ;
1002 -> 1003 ;
1004 [label="mse = 0.0\nsamples = 1\nvalue = 545.0", fillcolor="#f9e0ce"] ;
1003 -> 1004 ;
1005 [label="mse = 0.0\nsamples = 1\nvalue = 509.0", fillcolor="#fae6d8"] ;
1003 -> 1005 ;
1006 [label="X[0] <= 0.0\nmse = 4.0\nsamples = 2\nvalue = 579.0", fillcolor="#f7dac5"] ;
1002 -> 1006 ;
1007 [label="mse = 0.0\nsamples = 1\nvalue = 577.0", fillcolor="#f7dac6"] ;
1006 -> 1007 ;
1008 [label="mse = 0.0\nsamples = 1\nvalue = 581.0", fillcolor="#f7dac4"] ;
1006 -> 1008 ;
1009 [label="X[2] <= 0.008\nmse = 2038.222\nsamples = 3\nvalue = 675.333", fillcolor="#f4c9ab"] ;
997 -> 1009 ;
1010 [label="X[1] <= 0.026\nmse = 49.0\nsamples = 2\nvalue = 707.0", fillcolor="#f3c4a2"] ;
1009 -> 1010 ;
1011 [label="mse = 0.0\nsamples = 1\nvalue = 714.0", fillcolor="#f3c3a0"] ;
1010 -> 1011 ;
1012 [label="mse = 0.0\nsamples = 1\nvalue = 700.0", fillcolor="#f3c5a4"] ;
1010 -> 1012 ;
1013 [label="mse = 0.0\nsamples = 1\nvalue = 612.0", fillcolor="#f6d4bc"] ;
1009 -> 1013 ;
1014 [label="X[3] <= 0.0\nmse = 47076.49\nsamples = 20\nvalue = 834.9", fillcolor="#eeae7f"] ;
968 -> 1014 ;
1015 [label="X[3] <= 0.0\nmse = 11522.4\nsamples = 5\nvalue = 1014.0", fillcolor="#e88f4f"] ;
1014 -> 1015 ;
1016 [label="mse = 0.0\nsamples = 1\nvalue = 822.0", fillcolor="#efb083"] ;
1015 -> 1016 ;
1017 [label="X[1] <= 0.024\nmse = 2883.0\nsamples = 4\nvalue = 1062.0", fillcolor="#e68641"] ;
1015 -> 1017 ;
1018 [label="mse = 0.0\nsamples = 3\nvalue = 1093.0", fillcolor="#e58139"] ;
1017 -> 1018 ;
