digraph Tree {
node [shape=box, style="filled, rounded", color="black", fontname=helvetica] ;
edge [fontname=helvetica] ;
0 [label="X[4] <= 835.5\nmse = 59474.878\nsamples = 1470\nvalue = 793.958", fillcolor="#f0b58a"] ;
1 [label="X[4] <= 632.5\nmse = 12654.571\nsamples = 869\nvalue = 608.649", fillcolor="#f6d5bd"] ;
0 -> 1 [labeldistance=2.5, labelangle=45, headlabel="True"] ;
2 [label="X[4] <= 533.5\nmse = 2649.614\nsamples = 536\nvalue = 530.869", fillcolor="#f9e2d2"] ;
1 -> 2 ;
3 [label="X[4] <= 479.5\nmse = 919.752\nsamples = 285\nvalue = 490.688", fillcolor="#fbe9dd"] ;
2 -> 3 ;
4 [label="X[4] <= 444.0\nmse = 517.991\nsamples = 83\nvalue = 451.904", fillcolor="#fcf0e8"] ;
3 -> 4 ;
5 [label="X[4] <= 405.5\nmse = 379.76\nsamples = 25\nvalue = 424.2", fillcolor="#fdf5ef"] ;
4 -> 5 ;
6 [label="X[1] <= 0.019\nmse = 134.0\nsamples = 4\nvalue = 384.0", fillcolor="#fefcfa"] ;
5 -> 6 ;
7 [label="mse = 0.0\nsamples = 1\nvalue = 366.0", fillcolor="#ffffff"] ;
6 -> 7 ;
8 [label="X[4] <= 393.0\nmse = 34.667\nsamples = 3\nvalue = 390.0", fillcolor="#fefbf8"] ;
6 -> 8 ;
9 [label="X[4] <= 386.0\nmse = 4.0\nsamples = 2\nvalue = 386.0", fillcolor="#fefcfa"] ;
8 -> 9 ;
10 [label="mse = 0.0\nsamples = 1\nvalue = 384.0", fillcolor="#fefcfa"] ;
9 -> 10 ;
11 [label="mse = 0.0\nsamples = 1\nvalue = 388.0", fillcolor="#fefbf9"] ;
9 -> 11 ;
12 [label="mse = 0.0\nsamples = 1\nvalue = 398.0", fillcolor="#fef9f6"] ;
8 -> 12 ;
13 [label="X[4] <= 433.5\nmse = 60.122\nsamples = 21\nvalue = 431.857", fillcolor="#fdf4ed"] ;
5 -> 13 ;
14 [label="X[4] <= 424.0\nmse = 27.456\nsamples = 13\nvalue = 426.923", fillcolor="#fdf4ee"] ;
13 -> 14 ;
15 [label="X[2] <= 0.003\nmse = 18.667\nsamples = 3\nvalue = 419.0", fillcolor="#fdf6f1"] ;
14 -> 15 ;
16 [label="mse = 0.0\nsamples = 1\nvalue = 413.0", fillcolor="#fdf7f2"] ;
15 -> 16 ;
17 [label="X[4] <= 422.0\nmse = 1.0\nsamples = 2\nvalue = 422.0", fillcolor="#fdf5f0"] ;
15 -> 17 ;
18 [label="mse = 0.0\nsamples = 1\nvalue = 421.0", fillcolor="#fdf5f0"] ;
17 -> 18 ;
19 [label="mse = 0.0\nsamples = 1\nvalue = 423.0", fillcolor="#fdf5ef"] ;
17 -> 19 ;
20 [label="X[4] <= 428.5\nmse = 5.61\nsamples = 10\nvalue = 429.3", fillcolor="#fdf4ee"] ;
14 -> 20 ;
21 [label="X[3] <= 0.0\nmse = 0.667\nsamples = 3\nvalue = 426.0", fillcolor="#fdf5ef"] ;
20 -> 21 ;
22 [label="X[4] <= 426.5\nmse = 0.25\nsamples = 2\nvalue = 426.5", fillcolor="#fdf5ef"] ;
21 -> 22 ;
23 [label="mse = 0.0\nsamples = 1\nvalue = 426.0", fillcolor="#fdf5ef"] ;
22 -> 23 ;
24 [label="mse = 0.0\nsamples = 1\nvalue = 427.0", fillcolor="#fdf4ee"] ;
22 -> 24 ;
25 [label="mse = 0.0\nsamples = 1\nvalue = 425.0", fillcolor="#fdf5ef"] ;
21 -> 25 ;
26 [label="X[0] <= 0.003\nmse = 1.061\nsamples = 7\nvalue = 430.714", fillcolor="#fdf4ed"] ;
20 -> 26 ;
27 [label="X[4] <= 430.5\nmse = 0.222\nsamples = 6\nvalue = 430.333", fillcolor="#fdf4ed"] ;
26 -> 27 ;
28 [label="mse = 0.0\nsamples = 4\nvalue = 430.0", fillcolor="#fdf4ee"] ;
27 -> 28 ;
29 [label="mse = 0.0\nsamples = 2\nvalue = 431.0", fillcolor="#fdf4ed"] ;
27 -> 29 ;
30 [label="mse = 0.0\nsamples = 1\nvalue = 433.0", fillcolor="#fdf3ed"] ;
26 -> 30 ;
31 [label="X[4] <= 439.0\nmse = 9.359\nsamples = 8\nvalue = 439.875", fillcolor="#fcf2eb"] ;
13 -> 31 ;
32 [label="X[0] <= 0.003\nmse = 2.889\nsamples = 3\nvalue = 436.333", fillcolor="#fcf3ec"] ;
31 -> 32 ;
33 [label="X[3] <= 0.0\nmse = 0.25\nsamples = 2\nvalue = 437.5", fillcolor="#fcf3ec"] ;
32 -> 33 ;
34 [label="mse = 0.0\nsamples = 1\nvalue = 437.0", fillcolor="#fcf3ec"] ;
33 -> 34 ;
35 [label="mse = 0.0\nsamples = 1\nvalue = 438.0", fillcolor="#fcf3eb"] ;
33 -> 35 ;
36 [label="mse = 0.0\nsamples = 1\nvalue = 434.0", fillcolor="#fdf3ec"] ;
32 -> 36 ;
37 [label="X[0] <= 0.001\nmse = 1.2\nsamples = 5\nvalue = 442.0", fillcolor="#fcf2ea"] ;
31 -> 37 ;
38 [label="mse = 0.0\nsamples = 1\nvalue = 440.0", fillcolor="#fcf2eb"] ;
37 -> 38 ;
39 [label="X[1] <= 0.017\nmse = 0.25\nsamples = 4\nvalue = 442.5", fillcolor="#fcf2ea"] ;
37 -> 39 ;
40 [label="mse = 0.0\nsamples = 2\nvalue = 442.0", fillcolor="#fcf2ea"] ;
39 -> 40 ;
41 [label="mse = 0.0\nsamples = 2\nvalue = 443.0", fillcolor="#fcf2ea"] ;
39 -> 41 ;
42 [label="X[4] <= 463.5\nmse = 104.166\nsamples = 58\nvalue = 463.845", fillcolor="#fceee4"] ;
4 -> 42 ;
43 [label="X[4] <= 455.0\nmse = 28.459\nsamples = 28\nvalue = 454.571", fillcolor="#fcf0e7"] ;
42 -> 43 ;
44 [label="X[4] <= 449.5\nmse = 7.837\nsamples = 14\nvalue = 449.857", fillcolor="#fcf0e8"] ;
43 -> 44 ;
45 [label="X[4] <= 446.0\nmse = 2.806\nsamples = 6\nvalue = 447.167", fillcolor="#fcf1e9"] ;
44 -> 45 ;
46 [label="mse = 0.0\nsamples = 2\nvalue = 445.0", fillcolor="#fcf1e9"] ;
45 -> 46 ;
47 [label="X[1] <= 0.019\nmse = 0.688\nsamples = 4\nvalue = 448.25", fillcolor="#fcf1e9"] ;
45 -> 47 ;
48 [label="X[2] <= 0.007\nmse = 0.25\nsamples = 2\nvalue = 447.5", fillcolor="#fcf1e9"] ;
47 -> 48 ;
49 [label="mse = 0.0\nsamples = 1\nvalue = 447.0", fillcolor="#fcf1e9"] ;
48 -> 49 ;
50 [label="mse = 0.0\nsamples = 1\nvalue = 448.0", fillcolor="#fcf1e9"] ;
48 -> 50 ;
51 [label="mse = 0.0\nsamples = 2\nvalue = 449.0", fillcolor="#fcf1e8"] ;
47 -> 51 ;
52 [label="X[4] <= 452.0\nmse = 2.109\nsamples = 8\nvalue = 451.875", fillcolor="#fcf0e8"] ;
44 -> 52 ;
53 [label="X[4] <= 450.5\nmse = 0.25\nsamples = 4\nvalue = 450.5", fillcolor="#fcf0e8"] ;
52 -> 53 ;
54 [label="mse = 0.0\nsamples = 2\nvalue = 450.0", fillcolor="#fcf0e8"] ;
53 -> 54 ;
55 [label="mse = 0.0\nsamples = 2\nvalue = 451.0", fillcolor="#fcf0e8"] ;
53 -> 55 ;
56 [label="X[2] <= 0.01\nmse = 0.188\nsamples = 4\nvalue = 453.25", fillcolor="#fcf0e7"] ;
52 -> 56 ;
57 [label="mse = 0.0\nsamples = 3\nvalue = 453.0", fillcolor="#fcf0e7"] ;
56 -> 57 ;
58 [label="mse = 0.0\nsamples = 1\nvalue = 454.0", fillcolor="#fcf0e7"] ;
56 -> 58 ;
59 [label="X[4] <= 459.5\nmse = 4.633\nsamples = 14\nvalue = 459.286", fillcolor="#fcefe6"] ;
43 -> 59 ;
60 [label="X[4] <= 457.0\nmse = 1.188\nsamples = 8\nvalue = 457.75", fillcolor="#fcefe6"] ;
59 -> 60 ;
61 [label="mse = 0.0\nsamples = 2\nvalue = 456.0", fillcolor="#fcefe6"] ;
60 -> 61 ;
62 [label="X[4] <= 458.5\nmse = 0.222\nsamples = 6\nvalue = 458.333", fillcolor="#fcefe6"] ;
60 -> 62 ;
63 [label="mse = 0.0\nsamples = 4\nvalue = 458.0", fillcolor="#fcefe6"] ;
62 -> 63 ;
64 [label="mse = 0.0\nsamples = 2\nvalue = 459.0", fillcolor="#fcefe6"] ;
62 -> 64 ;
65 [label="X[4] <= 461.0\nmse = 1.889\nsamples = 6\nvalue = 461.333", fillcolor="#fceee5"] ;
59 -> 65 ;
66 [label="mse = 0.0\nsamples = 3\nvalue = 460.0", fillcolor="#fcefe5"] ;
65 -> 66 ;
67 [label="X[4] <= 462.5\nmse = 0.222\nsamples = 3\nvalue = 462.667", fillcolor="#fceee5"] ;
65 -> 67 ;
68 [label="mse = 0.0\nsamples = 1\nvalue = 462.0", fillcolor="#fceee5"] ;
67 -> 68 ;
69 [label="mse = 0.0\nsamples = 2\nvalue = 463.0", fillcolor="#fceee5"] ;
67 -> 69 ;
70 [label="X[4] <= 471.5\nmse = 19.65\nsamples = 30\nvalue = 472.5", fillcolor="#fbede2"] ;
42 -> 70 ;
71 [label="X[4] <= 467.5\nmse = 4.066\nsamples = 11\nvalue = 467.455", fillcolor="#fbede3"] ;
70 -> 71 ;
72 [label="X[4] <= 465.5\nmse = 1.04\nsamples = 5\nvalue = 465.6", fillcolor="#fbeee4"] ;
71 -> 72 ;
73 [label="X[3] <= 0.0\nmse = 0.25\nsamples = 2\nvalue = 464.5", fillcolor="#fbeee4"] ;
72 -> 73 ;
74 [label="mse = 0.0\nsamples = 1\nvalue = 465.0", fillcolor="#fbeee4"] ;
73 -> 74 ;
75 [label="mse = 0.0\nsamples = 1\nvalue = 464.0", fillcolor="#fbeee4"] ;
73 -> 75 ;
76 [label="X[2] <= 0.008\nmse = 0.222\nsamples = 3\nvalue = 466.333", fillcolor="#fbeee4"] ;
72 -> 76 ;
77 [label="mse = 0.0\nsamples = 1\nvalue = 467.0", fillcolor="#fbede3"] ;
76 -> 77 ;
78 [label="mse = 0.0\nsamples = 2\nvalue = 466.0", fillcolor="#fbeee4"] ;
76 -> 78 ;
79 [label="X[4] <= 469.5\nmse = 1.333\nsamples = 6\nvalue = 469.0", fillcolor="#fbede3"] ;
71 -> 79 ;
80 [label="X[4] <= 468.5\nmse = 0.188\nsamples = 4\nvalue = 468.25", fillcolor="#fbede3"] ;
79 -> 80 ;
81 [label="mse = 0.0\nsamples = 3\nvalue = 468.0", fillcolor="#fbede3"] ;
80 -> 81 ;
82 [label="mse = 0.0\nsamples = 1\nvalue = 469.0", fillcolor="#fbede3"] ;
80 -> 82 ;
83 [label="X[0] <= 0.002\nmse = 0.25\nsamples = 2\nvalue = 470.5", fillcolor="#fbede3"] ;
79 -> 83 ;
84 [label="mse = 0.0\nsamples = 1\nvalue = 471.0", fillcolor="#fbede2"] ;
83 -> 84 ;
85 [label="mse = 0.0\nsamples = 1\nvalue = 470.0", fillcolor="#fbede3"] ;
83 -> 85 ;
86 [label="X[4] <= 475.5\nmse = 5.402\nsamples = 19\nvalue = 475.421", fillcolor="#fbece1"] ;
70 -> 86 ;
87 [label="X[4] <= 474.0\nmse = 1.65\nsamples = 10\nvalue = 473.5", fillcolor="#fbece2"] ;
86 -> 87 ;
88 [label="X[4] <= 472.5\nmse = 0.25\nsamples = 6\nvalue = 472.5", fillcolor="#fbede2"] ;
87 -> 88 ;
89 [label="mse = 0.0\nsamples = 3\nvalue = 472.0", fillcolor="#fbede2"] ;
88 -> 89 ;
90 [label="mse = 0.0\nsamples = 3\nvalue = 473.0", fillcolor="#fbece2"] ;
88 -> 90 ;
91 [label="mse = 0.0\nsamples = 4\nvalue = 475.0", fillcolor="#fbece1"] ;
87 -> 91 ;
92 [label="X[2] <= 0.005\nmse = 0.914\nsamples = 9\nvalue = 477.556", fillcolor="#fbece1"] ;
86 -> 92 ;
93 [label="X[1] <= 0.02\nmse = 0.16\nsamples = 5\nvalue = 476.8", fillcolor="#fbece1"] ;
92 -> 93 ;
94 [label="mse = 0.0\nsamples = 4\nvalue = 477.0", fillcolor="#fbece1"] ;
93 -> 94 ;
95 [label="mse = 0.0\nsamples = 1\nvalue = 476.0", fillcolor="#fbece1"] ;
93 -> 95 ;
96 [label="X[3] <= 0.0\nmse = 0.25\nsamples = 4\nvalue = 478.5", fillcolor="#fbece0"] ;
92 -> 96 ;
97 [label="mse = 0.0\nsamples = 2\nvalue = 478.0", fillcolor="#fbece0"] ;
96 -> 97 ;
98 [label="mse = 0.0\nsamples = 2\nvalue = 479.0", fillcolor="#fbebe0"] ;
96 -> 98 ;
99 [label="X[4] <= 505.5\nmse = 212.809\nsamples = 202\nvalue = 506.624", fillcolor="#fae7d9"] ;
3 -> 99 ;
100 [label="X[4] <= 493.5\nmse = 62.173\nsamples = 92\nvalue = 492.978", fillcolor="#fae9dc"] ;
99 -> 100 ;
101 [label="X[4] <= 486.5\nmse = 16.264\nsamples = 50\nvalue = 486.66", fillcolor="#fbeade"] ;
100 -> 101 ;
102 [label="X[4] <= 483.5\nmse = 2.976\nsamples = 26\nvalue = 483.154", fillcolor="#fbebdf"] ;
101 -> 102 ;
103 [label="X[4] <= 481.5\nmse = 0.649\nsamples = 15\nvalue = 481.867", fillcolor="#fbebdf"] ;
102 -> 103 ;
104 [label="X[2] <= 0.007\nmse = 0.188\nsamples = 4\nvalue = 480.75", fillcolor="#fbebe0"] ;
103 -> 104 ;
105 [label="mse = 0.0\nsamples = 1\nvalue = 480.0", fillcolor="#fbebe0"] ;
104 -> 105 ;
106 [label="mse = 0.0\nsamples = 3\nvalue = 481.0", fillcolor="#fbebe0"] ;
104 -> 106 ;
107 [label="X[4] <= 482.5\nmse = 0.198\nsamples = 11\nvalue = 482.273", fillcolor="#fbebdf"] ;
103 -> 107 ;
108 [label="mse = 0.0\nsamples = 8\nvalue = 482.0", fillcolor="#fbebdf"] ;
107 -> 108 ;
109 [label="mse = 0.0\nsamples = 3\nvalue = 483.0", fillcolor="#fbebdf"] ;
107 -> 109 ;
110 [label="X[4] <= 484.5\nmse = 0.81\nsamples = 11\nvalue = 484.909", fillcolor="#fbeadf"] ;
102 -> 110 ;
111 [label="mse = 0.0\nsamples = 5\nvalue = 484.0", fillcolor="#fbebdf"] ;
110 -> 111 ;
112 [label="X[4] <= 485.5\nmse = 0.222\nsamples = 6\nvalue = 485.667", fillcolor="#fbeade"] ;
110 -> 112 ;
113 [label="mse = 0.0\nsamples = 2\nvalue = 485.0", fillcolor="#fbeadf"] ;
112 -> 113 ;
114 [label="mse = 0.0\nsamples = 4\nvalue = 486.0", fillcolor="#fbeade"] ;
112 -> 114 ;
115 [label="X[4] <= 490.5\nmse = 2.915\nsamples = 24\nvalue = 490.458", fillcolor="#fbe9dd"] ;
101 -> 115 ;
116 [label="X[4] <= 489.0\nmse = 1.408\nsamples = 13\nvalue = 489.231", fillcolor="#fbeadd"] ;
115 -> 116 ;
117 [label="X[0] <= 0.002\nmse = 0.25\nsamples = 4\nvalue = 487.5", fillcolor="#fbeade"] ;
116 -> 117 ;
118 [label="mse = 0.0\nsamples = 2\nvalue = 487.0", fillcolor="#fbeade"] ;
117 -> 118 ;
119 [label="mse = 0.0\nsamples = 2\nvalue = 488.0", fillcolor="#fbeade"] ;
117 -> 119 ;
120 [label="mse = 0.0\nsamples = 9\nvalue = 490.0", fillcolor="#fbeadd"] ;
116 -> 120 ;
121 [label="X[4] <= 491.5\nmse = 0.81\nsamples = 11\nvalue = 491.909", fillcolor="#fae9dd"] ;
115 -> 121 ;
122 [label="mse = 0.0\nsamples = 5\nvalue = 491.0", fillcolor="#fbe9dd"] ;
121 -> 122 ;
123 [label="X[4] <= 492.5\nmse = 0.222\nsamples = 6\nvalue = 492.667", fillcolor="#fae9dd"] ;
121 -> 123 ;
124 [label="mse = 0.0\nsamples = 2\nvalue = 492.0", fillcolor="#fae9dd"] ;
123 -> 124 ;
125 [label="mse = 0.0\nsamples = 4\nvalue = 493.0", fillcolor="#fae9dc"] ;
123 -> 125 ;
126 [label="X[4] <= 499.5\nmse = 12.726\nsamples = 42\nvalue = 500.5", fillcolor="#fae8da"] ;
100 -> 126 ;
127 [label="X[4] <= 496.5\nmse = 2.713\nsamples = 17\nvalue = 496.588", fillcolor="#fae8db"] ;
126 -> 127 ;
128 [label="X[1] <= 0.013\nmse = 0.694\nsamples = 7\nvalue = 494.857", fillcolor="#fae9dc"] ;
127 -> 128 ;
129 [label="mse = 0.0\nsamples = 3\nvalue = 494.0", fillcolor="#fae9dc"] ;
128 -> 129 ;
130 [label="X[4] <= 495.5\nmse = 0.25\nsamples = 4\nvalue = 495.5", fillcolor="#fae9dc"] ;
128 -> 130 ;
131 [label="mse = 0.0\nsamples = 2\nvalue = 495.0", fillcolor="#fae9dc"] ;
130 -> 131 ;
132 [label="mse = 0.0\nsamples = 2\nvalue = 496.0", fillcolor="#fae8dc"] ;
130 -> 132 ;
133 [label="X[4] <= 497.5\nmse = 0.56\nsamples = 10\nvalue = 497.8", fillcolor="#fae8db"] ;
127 -> 133 ;
134 [label="mse = 0.0\nsamples = 4\nvalue = 497.0", fillcolor="#fae8db"] ;
133 -> 134 ;
135 [label="X[3] <= 0.0\nmse = 0.222\nsamples = 6\nvalue = 498.333", fillcolor="#fae8db"] ;
133 -> 135 ;
136 [label="mse = 0.0\nsamples = 2\nvalue = 499.0", fillcolor="#fae8db"] ;
135 -> 136 ;
137 [label="mse = 0.0\nsamples = 4\nvalue = 498.0", fillcolor="#fae8db"] ;
135 -> 137 ;
138 [label="X[4] <= 502.5\nmse = 2.054\nsamples = 25\nvalue = 503.16", fillcolor="#fae7da"] ;
126 -> 138 ;
139 [label="X[3] <= 0.0\nmse = 0.484\nsamples = 8\nvalue = 501.375", fillcolor="#fae8da"] ;
138 -> 139 ;
140 [label="X[4] <= 500.5\nmse = 0.188\nsamples = 4\nvalue = 500.75", fillcolor="#fae8da"] ;
139 -> 140 ;
141 [label="mse = 0.0\nsamples = 1\nvalue = 500.0", fillcolor="#fae8db"] ;
140 -> 141 ;
142 [label="mse = 0.0\nsamples = 3\nvalue = 501.0", fillcolor="#fae8da"] ;
140 -> 142 ;
143 [label="mse = 0.0\nsamples = 4\nvalue = 502.0", fillcolor="#fae7da"] ;
139 -> 143 ;
144 [label="X[4] <= 503.5\nmse = 0.588\nsamples = 17\nvalue = 504.0", fillcolor="#fae7d9"] ;
138 -> 144 ;
145 [label="mse = 0.0\nsamples = 5\nvalue = 503.0", fillcolor="#fae7da"] ;
144 -> 145 ;
146 [label="X[4] <= 504.5\nmse = 0.243\nsamples = 12\nvalue = 504.417", fillcolor="#fae7d9"] ;
144 -> 146 ;
147 [label="mse = 0.0\nsamples = 7\nvalue = 504.0", fillcolor="#fae7d9"] ;
146 -> 147 ;
148 [label="mse = 0.0\nsamples = 5\nvalue = 505.0", fillcolor="#fae7d9"] ;
146 -> 148 ;
149 [label="X[4] <= 519.5\nmse = 52.817\nsamples = 110\nvalue = 518.036", fillcolor="#fae5d6"] ;
99 -> 149 ;
150 [label="X[4] <= 513.5\nmse = 15.754\nsamples = 70\nvalue = 513.4", fillcolor="#fae5d7"] ;
149 -> 150 ;
151 [label="X[4] <= 509.5\nmse = 5.067\nsamples = 34\nvalue = 509.853", fillcolor="#fae6d8"] ;
150 -> 151 ;
152 [label="X[4] <= 507.5\nmse = 1.422\nsamples = 15\nvalue = 507.667", fillcolor="#fae6d8"] ;
151 -> 152 ;
153 [label="X[4] <= 506.5\nmse = 0.222\nsamples = 6\nvalue = 506.333", fillcolor="#fae7d9"] ;
152 -> 153 ;
154 [label="mse = 0.0\nsamples = 4\nvalue = 506.0", fillcolor="#fae7d9"] ;
153 -> 154 ;
155 [label="mse = 0.0\nsamples = 2\nvalue = 507.0", fillcolor="#fae7d9"] ;
153 -> 155 ;
156 [label="X[4] <= 508.5\nmse = 0.247\nsamples = 9\nvalue = 508.556", fillcolor="#fae6d8"] ;
152 -> 156 ;
157 [label="mse = 0.0\nsamples = 4\nvalue = 508.0", fillcolor="#fae6d8"] ;
156 -> 157 ;
158 [label="mse = 0.0\nsamples = 5\nvalue = 509.0", fillcolor="#fae6d8"] ;
156 -> 158 ;
159 [label="X[4] <= 511.5\nmse = 1.191\nsamples = 19\nvalue = 511.579", fillcolor="#fae6d7"] ;
151 -> 159 ;
160 [label="X[4] <= 510.5\nmse = 0.247\nsamples = 9\nvalue = 510.556", fillcolor="#fae6d8"] ;
159 -> 160 ;
161 [label="mse = 0.0\nsamples = 4\nvalue = 510.0", fillcolor="#fae6d8"] ;
160 -> 161 ;
162 [label="mse = 0.0\nsamples = 5\nvalue = 511.0", fillcolor="#fae6d8"] ;
160 -> 162 ;
163 [label="X[4] <= 512.5\nmse = 0.25\nsamples = 10\nvalue = 512.5", fillcolor="#fae6d7"] ;
159 -> 163 ;
164 [label="mse = 0.0\nsamples = 5\nvalue = 512.0", fillcolor="#fae6d7"] ;
163 -> 164 ;
165 [label="mse = 0.0\nsamples = 5\nvalue = 513.0", fillcolor="#fae6d7"] ;
163 -> 165 ;
166 [label="X[4] <= 516.5\nmse = 2.743\nsamples = 36\nvalue = 516.75", fillcolor="#fae5d6"] ;
150 -> 166 ;
167 [label="X[4] <= 515.5\nmse = 0.498\nsamples = 17\nvalue = 515.176", fillcolor="#fae5d6"] ;
166 -> 167 ;
168 [label="X[4] <= 514.5\nmse = 0.198\nsamples = 11\nvalue = 514.727", fillcolor="#fae5d6"] ;
167 -> 168 ;
169 [label="mse = 0.0\nsamples = 3\nvalue = 514.0", fillcolor="#fae5d7"] ;
168 -> 169 ;
170 [label="mse = 0.0\nsamples = 8\nvalue = 515.0", fillcolor="#fae5d6"] ;
168 -> 170 ;
171 [label="mse = 0.0\nsamples = 6\nvalue = 516.0", fillcolor="#fae5d6"] ;
167 -> 171 ;
172 [label="X[4] <= 518.5\nmse = 0.554\nsamples = 19\nvalue = 518.158", fillcolor="#fae5d6"] ;
166 -> 172 ;
173 [label="X[4] <= 517.5\nmse = 0.222\nsamples = 12\nvalue = 517.667", fillcolor="#fae5d6"] ;
172 -> 173 ;
174 [label="mse = 0.0\nsamples = 4\nvalue = 517.0", fillcolor="#fae5d6"] ;
173 -> 174 ;
175 [label="mse = 0.0\nsamples = 8\nvalue = 518.0", fillcolor="#fae5d6"] ;
173 -> 175 ;
176 [label="mse = 0.0\nsamples = 7\nvalue = 519.0", fillcolor="#fae4d5"] ;
172 -> 176 ;
177 [label="X[4] <= 525.5\nmse = 14.228\nsamples = 40\nvalue = 526.15", fillcolor="#f9e3d3"] ;
149 -> 177 ;
178 [label="X[4] <= 522.5\nmse = 3.215\nsamples = 16\nvalue = 522.312", fillcolor="#f9e4d4"] ;
177 -> 178 ;
179 [label="X[4] <= 520.5\nmse = 0.543\nsamples = 9\nvalue = 520.889", fillcolor="#f9e4d5"] ;
178 -> 179 ;
180 [label="mse = 0.0\nsamples = 3\nvalue = 520.0", fillcolor="#f9e4d5"] ;
179 -> 180 ;
181 [label="X[2] <= 0.003\nmse = 0.222\nsamples = 6\nvalue = 521.333", fillcolor="#f9e4d5"] ;
179 -> 181 ;
182 [label="mse = 0.0\nsamples = 2\nvalue = 522.0", fillcolor="#f9e4d5"] ;
181 -> 182 ;
183 [label="mse = 0.0\nsamples = 4\nvalue = 521.0", fillcolor="#f9e4d5"] ;
181 -> 183 ;
184 [label="X[4] <= 524.5\nmse = 0.694\nsamples = 7\nvalue = 524.143", fillcolor="#f9e4d4"] ;
178 -> 184 ;
185 [label="X[4] <= 523.5\nmse = 0.25\nsamples = 4\nvalue = 523.5", fillcolor="#f9e4d4"] ;
184 -> 185 ;
186 [label="mse = 0.0\nsamples = 2\nvalue = 523.0", fillcolor="#f9e4d4"] ;
185 -> 186 ;
187 [label="mse = 0.0\nsamples = 2\nvalue = 524.0", fillcolor="#f9e4d4"] ;
185 -> 187 ;
188 [label="mse = 0.0\nsamples = 3\nvalue = 525.0", fillcolor="#f9e3d4"] ;
184 -> 188 ;
189 [label="X[4] <= 529.5\nmse = 5.207\nsamples = 24\nvalue = 528.708", fillcolor="#f9e3d3"] ;
177 -> 189 ;
190 [label="X[4] <= 527.5\nmse = 1.09\nsamples = 16\nvalue = 527.312", fillcolor="#f9e3d3"] ;
189 -> 190 ;
191 [label="X[4] <= 526.5\nmse = 0.234\nsamples = 8\nvalue = 526.375", fillcolor="#f9e3d3"] ;
190 -> 191 ;
192 [label="mse = 0.0\nsamples = 5\nvalue = 526.0", fillcolor="#f9e3d3"] ;
191 -> 192 ;
193 [label="mse = 0.0\nsamples = 3\nvalue = 527.0", fillcolor="#f9e3d3"] ;
191 -> 193 ;
194 [label="X[4] <= 528.5\nmse = 0.188\nsamples = 8\nvalue = 528.25", fillcolor="#f9e3d3"] ;
190 -> 194 ;
195 [label="mse = 0.0\nsamples = 6\nvalue = 528.0", fillcolor="#f9e3d3"] ;
194 -> 195 ;
196 [label="mse = 0.0\nsamples = 2\nvalue = 529.0", fillcolor="#f9e3d3"] ;
194 -> 196 ;
197 [label="X[4] <= 531.5\nmse = 1.75\nsamples = 8\nvalue = 531.5", fillcolor="#f9e2d2"] ;
189 -> 197 ;
198 [label="X[0] <= 0.002\nmse = 0.188\nsamples = 4\nvalue = 530.25", fillcolor="#f9e3d2"] ;
197 -> 198 ;
199 [label="mse = 0.0\nsamples = 1\nvalue = 531.0", fillcolor="#f9e2d2"] ;
198 -> 199 ;
200 [label="mse = 0.0\nsamples = 3\nvalue = 530.0", fillcolor="#f9e3d2"] ;
198 -> 200 ;
201 [label="X[3] <= 0.0\nmse = 0.188\nsamples = 4\nvalue = 532.75", fillcolor="#f9e2d2"] ;
197 -> 201 ;
202 [label="mse = 0.0\nsamples = 1\nvalue = 532.0", fillcolor="#f9e2d2"] ;
201 -> 202 ;
203 [label="mse = 0.0\nsamples = 3\nvalue = 533.0", fillcolor="#f9e2d2"] ;
201 -> 203 ;
204 [label="X[4] <= 575.5\nmse = 698.919\nsamples = 251\nvalue = 576.494", fillcolor="#f7dbc6"] ;
2 -> 204 ;
205 [label="X[4] <= 553.5\nmse = 132.938\nsamples = 119\nvalue = 552.462", fillcolor="#f8dfcc"] ;
204 -> 205 ;
206 [label="X[4] <= 543.5\nmse = 33.41\nsamples = 67\nvalue = 543.806", fillcolor="#f9e0cf"] ;
205 -> 206 ;
207 [label="X[4] <= 538.5\nmse = 6.304\nsamples = 31\nvalue = 538.226", fillcolor="#f9e1d0"] ;
206 -> 207 ;
208 [label="X[4] <= 536.5\nmse = 1.855\nsamples = 17\nvalue = 536.294", fillcolor="#f9e1d1"] ;
207 -> 208 ;
209 [label="X[4] <= 534.5\nmse = 0.5\nsamples = 8\nvalue = 535.0", fillcolor="#f9e2d1"] ;
208 -> 209 ;
210 [label="mse = 0.0\nsamples = 2\nvalue = 534.0", fillcolor="#f9e2d1"] ;
209 -> 210 ;
211 [label="X[4] <= 535.5\nmse = 0.222\nsamples = 6\nvalue = 535.333", fillcolor="#f9e2d1"] ;
209 -> 211 ;
212 [label="mse = 0.0\nsamples = 4\nvalue = 535.0", fillcolor="#f9e2d1"] ;
211 -> 212 ;
213 [label="mse = 0.0\nsamples = 2\nvalue = 536.0", fillcolor="#f9e2d1"] ;
211 -> 213 ;
214 [label="X[4] <= 537.5\nmse = 0.247\nsamples = 9\nvalue = 537.444", fillcolor="#f9e1d0"] ;
208 -> 214 ;
215 [label="mse = 0.0\nsamples = 5\nvalue = 537.0", fillcolor="#f9e1d0"] ;
214 -> 215 ;
216 [label="mse = 0.0\nsamples = 4\nvalue = 538.0", fillcolor="#f9e1d0"] ;
214 -> 216 ;
217 [label="X[4] <= 540.5\nmse = 1.673\nsamples = 14\nvalue = 540.571", fillcolor="#f9e1cf"] ;
207 -> 217 ;
218 [label="X[3] <= 0.0\nmse = 0.245\nsamples = 7\nvalue = 539.429", fillcolor="#f9e1d0"] ;
217 -> 218 ;
219 [label="mse = 0.0\nsamples = 3\nvalue = 540.0", fillcolor="#f9e1d0"] ;
218 -> 219 ;
220 [label="mse = 0.0\nsamples = 4\nvalue = 539.0", fillcolor="#f9e1d0"] ;
218 -> 220 ;
221 [label="X[4] <= 541.5\nmse = 0.49\nsamples = 7\nvalue = 541.714", fillcolor="#f9e1cf"] ;
217 -> 221 ;
222 [label="mse = 0.0\nsamples = 3\nvalue = 541.0", fillcolor="#f9e1cf"] ;
221 -> 222 ;
223 [label="X[1] <= 0.006\nmse = 0.188\nsamples = 4\nvalue = 542.25", fillcolor="#f9e0cf"] ;
221 -> 223 ;
224 [label="mse = 0.0\nsamples = 1\nvalue = 543.0", fillcolor="#f9e0cf"] ;
223 -> 224 ;
225 [label="mse = 0.0\nsamples = 3\nvalue = 542.0", fillcolor="#f9e0cf"] ;
223 -> 225 ;
226 [label="X[4] <= 548.5\nmse = 6.849\nsamples = 36\nvalue = 548.611", fillcolor="#f8dfcd"] ;
206 -> 226 ;
227 [label="X[4] <= 546.5\nmse = 1.559\nsamples = 16\nvalue = 546.062", fillcolor="#f9e0ce"] ;
226 -> 227 ;
228 [label="X[4] <= 545.5\nmse = 0.595\nsamples = 11\nvalue = 545.364", fillcolor="#f9e0ce"] ;
227 -> 228 ;
229 [label="X[0] <= 0.003\nmse = 0.24\nsamples = 5\nvalue = 544.6", fillcolor="#f9e0ce"] ;
228 -> 229 ;
230 [label="mse = 0.0\nsamples = 2\nvalue = 544.0", fillcolor="#f9e0cf"] ;
229 -> 230 ;
231 [label="mse = 0.0\nsamples = 3\nvalue = 545.0", fillcolor="#f9e0ce"] ;
229 -> 231 ;
232 [label="mse = 0.0\nsamples = 6\nvalue = 546.0", fillcolor="#f9e0ce"] ;
228 -> 232 ;
233 [label="X[1] <= 0.023\nmse = 0.24\nsamples = 5\nvalue = 547.6", fillcolor="#f9e0ce"] ;
227 -> 233 ;
234 [label="mse = 0.0\nsamples = 2\nvalue = 547.0", fillcolor="#f9e0ce"] ;
233 -> 234 ;
235 [label="mse = 0.0\nsamples = 3\nvalue = 548.0", fillcolor="#f8dfcd"] ;
233 -> 235 ;
236 [label="X[4] <= 550.5\nmse = 1.728\nsamples = 20\nvalue = 550.65", fillcolor="#f8dfcd"] ;
226 -> 236 ;
237 [label="X[4] <= 549.5\nmse = 0.25\nsamples = 10\nvalue = 549.5", fillcolor="#f8dfcd"] ;
236 -> 237 ;
238 [label="mse = 0.0\nsamples = 5\nvalue = 549.0", fillcolor="#f8dfcd"] ;
237 -> 238 ;
239 [label="mse = 0.0\nsamples = 5\nvalue = 550.0", fillcolor="#f8dfcd"] ;
237 -> 239 ;
240 [label="X[4] <= 551.5\nmse = 0.56\nsamples = 10\nvalue = 551.8", fillcolor="#f8dfcc"] ;
236 -> 240 ;
241 [label="mse = 0.0\nsamples = 4\nvalue = 551.0", fillcolor="#f8dfcd"] ;
240 -> 241 ;
242 [label="X[4] <= 552.5\nmse = 0.222\nsamples = 6\nvalue = 552.333", fillcolor="#f8dfcc"] ;
240 -> 242 ;
243 [label="mse = 0.0\nsamples = 4\nvalue = 552.0", fillcolor="#f8dfcc"] ;
242 -> 243 ;
244 [label="mse = 0.0\nsamples = 2\nvalue = 553.0", fillcolor="#f8dfcc"] ;
242 -> 244 ;
245 [label="X[4] <= 564.5\nmse = 40.237\nsamples = 52\nvalue = 563.615", fillcolor="#f8ddc9"] ;
205 -> 245 ;
246 [label="X[4] <= 559.5\nmse = 9.717\nsamples = 29\nvalue = 558.724", fillcolor="#f8decb"] ;
245 -> 246 ;
247 [label="X[4] <= 556.5\nmse = 2.837\nsamples = 17\nvalue = 556.471", fillcolor="#f8decb"] ;
246 -> 247 ;
248 [label="X[4] <= 554.5\nmse = 0.609\nsamples = 8\nvalue = 554.875", fillcolor="#f8decc"] ;
247 -> 248 ;
249 [label="mse = 0.0\nsamples = 3\nvalue = 554.0", fillcolor="#f8decc"] ;
248 -> 249 ;
250 [label="X[1] <= 0.019\nmse = 0.24\nsamples = 5\nvalue = 555.4", fillcolor="#f8decb"] ;
248 -> 250 ;
251 [label="mse = 0.0\nsamples = 3\nvalue = 555.0", fillcolor="#f8decc"] ;
250 -> 251 ;
252 [label="mse = 0.0\nsamples = 2\nvalue = 556.0", fillcolor="#f8decb"] ;
250 -> 252 ;
253 [label="X[4] <= 557.5\nmse = 0.543\nsamples = 9\nvalue = 557.889", fillcolor="#f8decb"] ;
247 -> 253 ;
254 [label="mse = 0.0\nsamples = 3\nvalue = 557.0", fillcolor="#f8decb"] ;
253 -> 254 ;
255 [label="X[4] <= 558.5\nmse = 0.222\nsamples = 6\nvalue = 558.333", fillcolor="#f8decb"] ;
253 -> 255 ;
256 [label="mse = 0.0\nsamples = 4\nvalue = 558.0", fillcolor="#f8decb"] ;
255 -> 256 ;
257 [label="mse = 0.0\nsamples = 2\nvalue = 559.0", fillcolor="#f8deca"] ;
255 -> 257 ;
258 [label="X[4] <= 561.5\nmse = 2.076\nsamples = 12\nvalue = 561.917", fillcolor="#f8ddca"] ;
246 -> 258 ;
259 [label="X[4] <= 560.5\nmse = 0.24\nsamples = 5\nvalue = 560.4", fillcolor="#f8ddca"] ;
258 -> 259 ;
260 [label="mse = 0.0\nsamples = 3\nvalue = 560.0", fillcolor="#f8ddca"] ;
259 -> 260 ;
261 [label="mse = 0.0\nsamples = 2\nvalue = 561.0", fillcolor="#f8ddca"] ;
259 -> 261 ;
262 [label="X[4] <= 562.5\nmse = 0.571\nsamples = 7\nvalue = 563.0", fillcolor="#f8ddc9"] ;
258 -> 262 ;
263 [label="mse = 0.0\nsamples = 2\nvalue = 562.0", fillcolor="#f8ddca"] ;
262 -> 263 ;
264 [label="X[3] <= 0.0\nmse = 0.24\nsamples = 5\nvalue = 563.4", fillcolor="#f8ddc9"] ;
262 -> 264 ;
265 [label="mse = 0.0\nsamples = 2\nvalue = 564.0", fillcolor="#f8ddc9"] ;
264 -> 265 ;
266 [label="mse = 0.0\nsamples = 3\nvalue = 563.0", fillcolor="#f8ddc9"] ;
264 -> 266 ;
267 [label="X[4] <= 569.5\nmse = 10.518\nsamples = 23\nvalue = 569.783", fillcolor="#f8dcc7"] ;
245 -> 267 ;
268 [label="X[4] <= 566.5\nmse = 1.45\nsamples = 10\nvalue = 566.5", fillcolor="#f8dcc8"] ;
267 -> 268 ;
269 [label="X[2] <= 0.007\nmse = 0.188\nsamples = 4\nvalue = 565.25", fillcolor="#f8dcc9"] ;
268 -> 269 ;
270 [label="mse = 0.0\nsamples = 1\nvalue = 566.0", fillcolor="#f8dcc9"] ;
269 -> 270 ;
271 [label="mse = 0.0\nsamples = 3\nvalue = 565.0", fillcolor="#f8ddc9"] ;
269 -> 271 ;
272 [label="X[2] <= 0.009\nmse = 0.556\nsamples = 6\nvalue = 567.333", fillcolor="#f8dcc8"] ;
268 -> 272 ;
273 [label="mse = 0.0\nsamples = 5\nvalue = 567.0", fillcolor="#f8dcc8"] ;
272 -> 273 ;
274 [label="mse = 0.0\nsamples = 1\nvalue = 569.0", fillcolor="#f8dcc8"] ;
272 -> 274 ;
275 [label="X[4] <= 574.0\nmse = 2.828\nsamples = 13\nvalue = 572.308", fillcolor="#f8dbc7"] ;
267 -> 275 ;
276 [label="X[4] <= 571.5\nmse = 0.85\nsamples = 10\nvalue = 571.5", fillcolor="#f8dbc7"] ;
275 -> 276 ;
277 [label="X[4] <= 570.5\nmse = 0.25\nsamples = 4\nvalue = 570.5", fillcolor="#f8dcc7"] ;
276 -> 277 ;
278 [label="mse = 0.0\nsamples = 2\nvalue = 570.0", fillcolor="#f8dcc7"] ;
277 -> 278 ;
279 [label="mse = 0.0\nsamples = 2\nvalue = 571.0", fillcolor="#f8dbc7"] ;
277 -> 279 ;
280 [label="X[4] <= 572.5\nmse = 0.139\nsamples = 6\nvalue = 572.167", fillcolor="#f8dbc7"] ;
276 -> 280 ;
281 [label="mse = 0.0\nsamples = 5\nvalue = 572.0", fillcolor="#f8dbc7"] ;
280 -> 281 ;
282 [label="mse = 0.0\nsamples = 1\nvalue = 573.0", fillcolor="#f8dbc7"] ;
280 -> 282 ;
283 [label="mse = 0.0\nsamples = 3\nvalue = 575.0", fillcolor="#f8dbc6"] ;
275 -> 283 ;
284 [label="X[4] <= 600.5\nmse = 219.134\nsamples = 132\nvalue = 598.159", fillcolor="#f7d7c0"] ;
204 -> 284 ;
285 [label="X[4] <= 588.5\nmse = 50.816\nsamples = 79\nvalue = 587.759", fillcolor="#f7d9c3"] ;
284 -> 285 ;
286 [label="X[4] <= 581.5\nmse = 10.121\nsamples = 42\nvalue = 581.786", fillcolor="#f7dac4"] ;
285 -> 286 ;
287 [label="X[4] <= 578.5\nmse = 2.765\nsamples = 19\nvalue = 578.842", fillcolor="#f7dac5"] ;
286 -> 287 ;
288 [label="X[4] <= 576.5\nmse = 0.408\nsamples = 7\nvalue = 576.857", fillcolor="#f7dac6"] ;
287 -> 288 ;
289 [label="mse = 0.0\nsamples = 2\nvalue = 576.0", fillcolor="#f7dbc6"] ;
288 -> 289 ;
290 [label="X[4] <= 577.5\nmse = 0.16\nsamples = 5\nvalue = 577.2", fillcolor="#f7dac5"] ;
288 -> 290 ;
291 [label="mse = 0.0\nsamples = 4\nvalue = 577.0", fillcolor="#f7dac6"] ;
290 -> 291 ;
292 [label="mse = 0.0\nsamples = 1\nvalue = 578.0", fillcolor="#f7dac5"] ;
290 -> 292 ;
293 [label="X[4] <= 579.5\nmse = 0.5\nsamples = 12\nvalue = 580.0", fillcolor="#f7dac5"] ;
287 -> 293 ;
294 [label="mse = 0.0\nsamples = 3\nvalue = 579.0", fillcolor="#f7dac5"] ;
293 -> 294 ;
295 [label="X[4] <= 580.5\nmse = 0.222\nsamples = 9\nvalue = 580.333", fillcolor="#f7dac5"] ;
293 -> 295 ;
296 [label="mse = 0.0\nsamples = 6\nvalue = 580.0", fillcolor="#f7dac5"] ;
295 -> 296 ;
297 [label="mse = 0.0\nsamples = 3\nvalue = 581.0", fillcolor="#f7dac4"] ;
295 -> 297 ;
298 [label="X[4] <= 584.5\nmse = 3.127\nsamples = 23\nvalue = 584.217", fillcolor="#f7d9c4"] ;
286 -> 298 ;
299 [label="X[4] <= 583.5\nmse = 0.596\nsamples = 15\nvalue = 583.067", fillcolor="#f7d9c4"] ;
298 -> 299 ;
300 [label="X[4] <= 582.5\nmse = 0.24\nsamples = 10\nvalue = 582.6", fillcolor="#f7d9c4"] ;
299 -> 300 ;
301 [label="mse = 0.0\nsamples = 4\nvalue = 582.0", fillcolor="#f7dac4"] ;
300 -> 301 ;
302 [label="mse = 0.0\nsamples = 6\nvalue = 583.0", fillcolor="#f7d9c4"] ;
300 -> 302 ;
303 [label="mse = 0.0\nsamples = 5\nvalue = 584.0", fillcolor="#f7d9c4"] ;
299 -> 303 ;
304 [label="X[4] <= 586.5\nmse = 0.734\nsamples = 8\nvalue = 586.375", fillcolor="#f7d9c3"] ;
298 -> 304 ;
305 [label="X[4] <= 585.5\nmse = 0.16\nsamples = 5\nvalue = 585.8", fillcolor="#f7d9c3"] ;
304 -> 305 ;
306 [label="mse = 0.0\nsamples = 1\nvalue = 585.0", fillcolor="#f7d9c3"] ;
305 -> 306 ;
307 [label="mse = 0.0\nsamples = 4\nvalue = 586.0", fillcolor="#f7d9c3"] ;
305 -> 307 ;
308 [label="X[1] <= 0.007\nmse = 0.222\nsamples = 3\nvalue = 587.333", fillcolor="#f7d9c3"] ;
304 -> 308 ;
309 [label="mse = 0.0\nsamples = 1\nvalue = 588.0", fillcolor="#f7d9c3"] ;
308 -> 309 ;
310 [label="mse = 0.0\nsamples = 2\nvalue = 587.0", fillcolor="#f7d9c3"] ;
308 -> 310 ;
311 [label="X[4] <= 593.0\nmse = 10.519\nsamples = 37\nvalue = 594.541", fillcolor="#f7d7c1"] ;
285 -> 311 ;
312 [label="X[4] <= 590.5\nmse = 0.75\nsamples = 12\nvalue = 590.5", fillcolor="#f7d8c2"] ;
311 -> 312 ;
313 [label="X[4] <= 589.5\nmse = 0.24\nsamples = 5\nvalue = 589.6", fillcolor="#f7d8c2"] ;
312 -> 313 ;
314 [label="mse = 0.0\nsamples = 2\nvalue = 589.0", fillcolor="#f7d8c2"] ;
313 -> 314 ;
315 [label="mse = 0.0\nsamples = 3\nvalue = 590.0", fillcolor="#f7d8c2"] ;
313 -> 315 ;
316 [label="X[4] <= 591.5\nmse = 0.122\nsamples = 7\nvalue = 591.143", fillcolor="#f7d8c2"] ;
312 -> 316 ;
317 [label="mse = 0.0\nsamples = 6\nvalue = 591.0", fillcolor="#f7d8c2"] ;
316 -> 317 ;
318 [label="mse = 0.0\nsamples = 1\nvalue = 592.0", fillcolor="#f7d8c1"] ;
316 -> 318 ;
319 [label="X[4] <= 596.5\nmse = 3.61\nsamples = 25\nvalue = 596.48", fillcolor="#f7d7c0"] ;
311 -> 319 ;
320 [label="X[4] <= 594.5\nmse = 0.688\nsamples = 12\nvalue = 594.75", fillcolor="#f7d7c1"] ;
319 -> 320 ;
321 [label="mse = 0.0\nsamples = 6\nvalue = 594.0", fillcolor="#f7d7c1"] ;
320 -> 321 ;
322 [label="X[4] <= 595.5\nmse = 0.25\nsamples = 6\nvalue = 595.5", fillcolor="#f7d7c0"] ;
320 -> 322 ;
323 [label="mse = 0.0\nsamples = 3\nvalue = 595.0", fillcolor="#f7d7c1"] ;
322 -> 323 ;
324 [label="mse = 0.0\nsamples = 3\nvalue = 596.0", fillcolor="#f7d7c0"] ;
322 -> 324 ;
325 [label="X[4] <= 598.5\nmse = 0.994\nsamples = 13\nvalue = 598.077", fillcolor="#f7d7c0"] ;
319 -> 325 ;
326 [label="X[4] <= 597.5\nmse = 0.234\nsamples = 8\nvalue = 597.375", fillcolor="#f7d7c0"] ;
325 -> 326 ;
327 [label="mse = 0.0\nsamples = 5\nvalue = 597.0", fillcolor="#f7d7c0"] ;
326 -> 327 ;
328 [label="mse = 0.0\nsamples = 3\nvalue = 598.0", fillcolor="#f7d7c0"] ;
326 -> 328 ;
329 [label="X[4] <= 599.5\nmse = 0.16\nsamples = 5\nvalue = 599.2", fillcolor="#f7d7bf"] ;
325 -> 329 ;
330 [label="mse = 0.0\nsamples = 4\nvalue = 599.0", fillcolor="#f7d7c0"] ;
329 -> 330 ;
331 [label="mse = 0.0\nsamples = 1\nvalue = 600.0", fillcolor="#f7d6bf"] ;
329 -> 331 ;
332 [label="X[4] <= 613.0\nmse = 68.526\nsamples = 53\nvalue = 613.66", fillcolor="#f6d4bc"] ;
284 -> 332 ;
333 [label="X[4] <= 606.5\nmse = 15.018\nsamples = 26\nvalue = 606.538", fillcolor="#f6d5bd"] ;
332 -> 333 ;
334 [label="X[4] <= 603.5\nmse = 2.308\nsamples = 13\nvalue = 603.0", fillcolor="#f7d6be"] ;
333 -> 334 ;
335 [label="X[4] <= 602.5\nmse = 0.543\nsamples = 9\nvalue = 602.111", fillcolor="#f7d6bf"] ;
334 -> 335 ;
336 [label="X[4] <= 601.5\nmse = 0.222\nsamples = 6\nvalue = 601.667", fillcolor="#f7d6bf"] ;
335 -> 336 ;
337 [label="mse = 0.0\nsamples = 2\nvalue = 601.0", fillcolor="#f7d6bf"] ;
336 -> 337 ;
338 [label="mse = 0.0\nsamples = 4\nvalue = 602.0", fillcolor="#f7d6bf"] ;
336 -> 338 ;
339 [label="mse = 0.0\nsamples = 3\nvalue = 603.0", fillcolor="#f7d6be"] ;
335 -> 339 ;
340 [label="X[2] <= 0.006\nmse = 0.5\nsamples = 4\nvalue = 605.0", fillcolor="#f6d6be"] ;
334 -> 340 ;
341 [label="X[2] <= 0.005\nmse = 0.222\nsamples = 3\nvalue = 604.667", fillcolor="#f6d6be"] ;
340 -> 341 ;
342 [label="mse = 0.0\nsamples = 2\nvalue = 605.0", fillcolor="#f6d6be"] ;
341 -> 342 ;
343 [label="mse = 0.0\nsamples = 1\nvalue = 604.0", fillcolor="#f6d6be"] ;
341 -> 343 ;
344 [label="mse = 0.0\nsamples = 1\nvalue = 606.0", fillcolor="#f6d5be"] ;
340 -> 344 ;
345 [label="X[4] <= 609.5\nmse = 2.686\nsamples = 13\nvalue = 610.077", fillcolor="#f6d5bd"] ;
333 -> 345 ;
346 [label="X[2] <= 0.007\nmse = 0.56\nsamples = 5\nvalue = 608.2", fillcolor="#f6d5bd"] ;
345 -> 346 ;
347 [label="mse = 0.0\nsamples = 2\nvalue = 609.0", fillcolor="#f6d5bd"] ;
346 -> 347 ;
348 [label="X[3] <= 0.0\nmse = 0.222\nsamples = 3\nvalue = 607.667", fillcolor="#f6d5bd"] ;
346 -> 348 ;
349 [label="mse = 0.0\nsamples = 1\nvalue = 607.0", fillcolor="#f6d5bd"] ;
348 -> 349 ;
350 [label="mse = 0.0\nsamples = 2\nvalue = 608.0", fillcolor="#f6d5bd"] ;
348 -> 350 ;
351 [label="X[4] <= 611.5\nmse = 0.438\nsamples = 8\nvalue = 611.25", fillcolor="#f6d4bc"] ;
345 -> 351 ;
352 [label="X[1] <= 0.029\nmse = 0.16\nsamples = 5\nvalue = 610.8", fillcolor="#f6d5bc"] ;
351 -> 352 ;
353 [label="mse = 0.0\nsamples = 4\nvalue = 611.0", fillcolor="#f6d5bc"] ;
352 -> 353 ;
354 [label="mse = 0.0\nsamples = 1\nvalue = 610.0", fillcolor="#f6d5bd"] ;
352 -> 354 ;
355 [label="mse = 0.0\nsamples = 3\nvalue = 612.0", fillcolor="#f6d4bc"] ;
351 -> 355 ;
356 [label="X[4] <= 621.5\nmse = 24.176\nsamples = 27\nvalue = 620.519", fillcolor="#f6d3ba"] ;
332 -> 356 ;
357 [label="X[4] <= 617.5\nmse = 4.913\nsamples = 17\nvalue = 617.294", fillcolor="#f6d3bb"] ;
356 -> 357 ;
358 [label="X[1] <= 0.014\nmse = 1.136\nsamples = 9\nvalue = 615.444", fillcolor="#f6d4bb"] ;
357 -> 358 ;
359 [label="X[0] <= 0.002\nmse = 0.25\nsamples = 4\nvalue = 616.5", fillcolor="#f6d4bb"] ;
358 -> 359 ;
360 [label="mse = 0.0\nsamples = 2\nvalue = 617.0", fillcolor="#f6d3bb"] ;
359 -> 360 ;
361 [label="mse = 0.0\nsamples = 2\nvalue = 616.0", fillcolor="#f6d4bb"] ;
359 -> 361 ;
362 [label="X[4] <= 614.5\nmse = 0.24\nsamples = 5\nvalue = 614.6", fillcolor="#f6d4bb"] ;
358 -> 362 ;
363 [label="mse = 0.0\nsamples = 2\nvalue = 614.0", fillcolor="#f6d4bb"] ;
362 -> 363 ;
364 [label="mse = 0.0\nsamples = 3\nvalue = 615.0", fillcolor="#f6d4bb"] ;
362 -> 364 ;
365 [label="X[4] <= 619.5\nmse = 0.984\nsamples = 8\nvalue = 619.375", fillcolor="#f6d3ba"] ;
357 -> 365 ;
366 [label="X[3] <= 0.0\nmse = 0.25\nsamples = 4\nvalue = 618.5", fillcolor="#f6d3ba"] ;
365 -> 366 ;
367 [label="mse = 0.0\nsamples = 2\nvalue = 619.0", fillcolor="#f6d3ba"] ;
366 -> 367 ;
368 [label="mse = 0.0\nsamples = 2\nvalue = 618.0", fillcolor="#f6d3ba"] ;
366 -> 368 ;
369 [label="X[0] <= 0.003\nmse = 0.188\nsamples = 4\nvalue = 620.25", fillcolor="#f6d3ba"] ;
365 -> 369 ;
370 [label="mse = 0.0\nsamples = 3\nvalue = 620.0", fillcolor="#f6d3ba"] ;
369 -> 370 ;
371 [label="mse = 0.0\nsamples = 1\nvalue = 621.0", fillcolor="#f6d3ba"] ;
369 -> 371 ;
372 [label="X[4] <= 626.0\nmse = 9.2\nsamples = 10\nvalue = 626.0", fillcolor="#f6d2b8"] ;
356 -> 372 ;
373 [label="X[1] <= 0.013\nmse = 1.139\nsamples = 6\nvalue = 623.833", fillcolor="#f6d2b9"] ;
372 -> 373 ;
374 [label="X[3] <= 0.0\nmse = 0.25\nsamples = 2\nvalue = 622.5", fillcolor="#f6d3b9"] ;
373 -> 374 ;
375 [label="mse = 0.0\nsamples = 1\nvalue = 623.0", fillcolor="#f6d2b9"] ;
374 -> 375 ;
376 [label="mse = 0.0\nsamples = 1\nvalue = 622.0", fillcolor="#f6d3b9"] ;
374 -> 376 ;
377 [label="X[1] <= 0.02\nmse = 0.25\nsamples = 4\nvalue = 624.5", fillcolor="#f6d2b9"] ;
373 -> 377 ;
378 [label="mse = 0.0\nsamples = 2\nvalue = 625.0", fillcolor="#f6d2b8"] ;
377 -> 378 ;
379 [label="mse = 0.0\nsamples = 2\nvalue = 624.0", fillcolor="#f6d2b9"] ;
377 -> 379 ;
380 [label="X[4] <= 629.0\nmse = 3.688\nsamples = 4\nvalue = 629.25", fillcolor="#f6d1b7"] ;
372 -> 380 ;
381 [label="X[1] <= 0.016\nmse = 0.25\nsamples = 2\nvalue = 627.5", fillcolor="#f6d2b8"] ;
380 -> 381 ;
382 [label="mse = 0.0\nsamples = 1\nvalue = 627.0", fillcolor="#f6d2b8"] ;
381 -> 382 ;
383 [label="mse = 0.0\nsamples = 1\nvalue = 628.0", fillcolor="#f6d2b8"] ;
381 -> 383 ;
384 [label="X[1] <= 0.011\nmse = 1.0\nsamples = 2\nvalue = 631.0", fillcolor="#f6d1b7"] ;
380 -> 384 ;
385 [label="mse = 0.0\nsamples = 1\nvalue = 630.0", fillcolor="#f6d1b7"] ;
384 -> 385 ;
386 [label="mse = 0.0\nsamples = 1\nvalue = 632.0", fillcolor="#f5d1b7"] ;
384 -> 386 ;
387 [label="X[4] <= 729.5\nmse = 3347.297\nsamples = 333\nvalue = 733.844", fillcolor="#f2bf9b"] ;
1 -> 387 ;
388 [label="X[4] <= 682.5\nmse = 867.378\nsamples = 152\nvalue = 679.151", fillcolor="#f4c9aa"] ;
387 -> 388 ;
389 [label="X[4] <= 655.5\nmse = 190.236\nsamples = 85\nvalue = 655.894", fillcolor="#f5cdb0"] ;
388 -> 389 ;
390 [label="X[4] <= 642.5\nmse = 45.274\nsamples = 41\nvalue = 643.488", fillcolor="#f5cfb3"] ;
389 -> 390 ;
391 [label="X[4] <= 638.5\nmse = 9.052\nsamples = 18\nvalue = 636.944", fillcolor="#f5d0b5"] ;
390 -> 391 ;
392 [label="X[4] <= 634.5\nmse = 2.367\nsamples = 13\nvalue = 635.308", fillcolor="#f5d0b6"] ;
391 -> 392 ;
393 [label="X[4] <= 633.5\nmse = 0.188\nsamples = 4\nvalue = 633.25", fillcolor="#f5d1b6"] ;
392 -> 393 ;
394 [label="mse = 0.0\nsamples = 3\nvalue = 633.0", fillcolor="#f5d1b6"] ;
393 -> 394 ;
395 [label="mse = 0.0\nsamples = 1\nvalue = 634.0", fillcolor="#f5d1b6"] ;
393 -> 395 ;
396 [label="X[4] <= 636.5\nmse = 0.617\nsamples = 9\nvalue = 636.222", fillcolor="#f5d0b5"] ;
392 -> 396 ;
397 [label="X[4] <= 635.5\nmse = 0.122\nsamples = 7\nvalue = 635.857", fillcolor="#f5d0b6"] ;
396 -> 397 ;
398 [label="mse = 0.0\nsamples = 1\nvalue = 635.0", fillcolor="#f5d0b6"] ;
397 -> 398 ;
399 [label="mse = 0.0\nsamples = 6\nvalue = 636.0", fillcolor="#f5d0b5"] ;
397 -> 399 ;
400 [label="X[0] <= 0.002\nmse = 0.25\nsamples = 2\nvalue = 637.5", fillcolor="#f5d0b5"] ;
396 -> 400 ;
401 [label="mse = 0.0\nsamples = 1\nvalue = 637.0", fillcolor="#f5d0b5"] ;
400 -> 401 ;
402 [label="mse = 0.0\nsamples = 1\nvalue = 638.0", fillcolor="#f5d0b5"] ;
400 -> 402 ;
403 [label="X[3] <= 0.0\nmse = 1.36\nsamples = 5\nvalue = 641.2", fillcolor="#f5cfb4"] ;
391 -> 403 ;
404 [label="X[3] <= 0.0\nmse = 0.188\nsamples = 4\nvalue = 641.75", fillcolor="#f5cfb4"] ;
403 -> 404 ;
405 [label="mse = 0.0\nsamples = 3\nvalue = 642.0", fillcolor="#f5cfb4"] ;
404 -> 405 ;
406 [label="mse = 0.0\nsamples = 1\nvalue = 641.0", fillcolor="#f5cfb4"] ;
404 -> 406 ;
407 [label="mse = 0.0\nsamples = 1\nvalue = 639.0", fillcolor="#f5d0b5"] ;
403 -> 407 ;
408 [label="X[4] <= 649.5\nmse = 13.89\nsamples = 23\nvalue = 648.609", fillcolor="#f5ceb2"] ;
390 -> 408 ;
409 [label="X[4] <= 645.5\nmse = 1.597\nsamples = 14\nvalue = 645.786", fillcolor="#f5cfb3"] ;
408 -> 409 ;
410 [label="X[4] <= 644.5\nmse = 0.64\nsamples = 5\nvalue = 644.4", fillcolor="#f5cfb3"] ;
409 -> 410 ;
411 [label="X[0] <= 0.003\nmse = 0.25\nsamples = 2\nvalue = 643.5", fillcolor="#f5cfb3"] ;
410 -> 411 ;
412 [label="mse = 0.0\nsamples = 1\nvalue = 643.0", fillcolor="#f5cfb4"] ;
411 -> 412 ;
413 [label="mse = 0.0\nsamples = 1\nvalue = 644.0", fillcolor="#f5cfb3"] ;
411 -> 413 ;
414 [label="mse = 0.0\nsamples = 3\nvalue = 645.0", fillcolor="#f5cfb3"] ;
410 -> 414 ;
415 [label="X[4] <= 646.5\nmse = 0.469\nsamples = 9\nvalue = 646.556", fillcolor="#f5ceb3"] ;
409 -> 415 ;
416 [label="mse = 0.0\nsamples = 5\nvalue = 646.0", fillcolor="#f5ceb3"] ;
415 -> 416 ;
417 [label="X[4] <= 647.5\nmse = 0.188\nsamples = 4\nvalue = 647.25", fillcolor="#f5ceb2"] ;
415 -> 417 ;
418 [label="mse = 0.0\nsamples = 3\nvalue = 647.0", fillcolor="#f5ceb2"] ;
417 -> 418 ;
419 [label="mse = 0.0\nsamples = 1\nvalue = 648.0", fillcolor="#f5ceb2"] ;
417 -> 419 ;
420 [label="X[4] <= 652.5\nmse = 1.333\nsamples = 9\nvalue = 653.0", fillcolor="#f5cdb1"] ;
408 -> 420 ;
421 [label="X[1] <= 0.022\nmse = 0.222\nsamples = 3\nvalue = 651.667", fillcolor="#f5cdb1"] ;
420 -> 421 ;
422 [label="mse = 0.0\nsamples = 2\nvalue = 652.0", fillcolor="#f5cdb1"] ;
421 -> 422 ;
423 [label="mse = 0.0\nsamples = 1\nvalue = 651.0", fillcolor="#f5ceb1"] ;
421 -> 423 ;
424 [label="X[4] <= 653.5\nmse = 0.556\nsamples = 6\nvalue = 653.667", fillcolor="#f5cdb1"] ;
420 -> 424 ;
425 [label="mse = 0.0\nsamples = 3\nvalue = 653.0", fillcolor="#f5cdb1"] ;
424 -> 425 ;
426 [label="X[2] <= 0.004\nmse = 0.222\nsamples = 3\nvalue = 654.333", fillcolor="#f5cdb0"] ;
424 -> 426 ;
427 [label="mse = 0.0\nsamples = 2\nvalue = 654.0", fillcolor="#f5cdb1"] ;
426 -> 427 ;
428 [label="mse = 0.0\nsamples = 1\nvalue = 655.0", fillcolor="#f5cdb0"] ;
426 -> 428 ;
429 [label="X[4] <= 664.0\nmse = 48.248\nsamples = 44\nvalue = 667.455", fillcolor="#f4cbad"] ;
389 -> 429 ;
430 [label="X[4] <= 658.5\nmse = 2.633\nsamples = 14\nvalue = 658.714", fillcolor="#f5ccaf"] ;
429 -> 430 ;
431 [label="X[4] <= 657.5\nmse = 0.472\nsamples = 6\nvalue = 657.167", fillcolor="#f5cdb0"] ;
430 -> 431 ;
432 [label="X[4] <= 656.5\nmse = 0.188\nsamples = 4\nvalue = 656.75", fillcolor="#f5cdb0"] ;
431 -> 432 ;
433 [label="mse = 0.0\nsamples = 1\nvalue = 656.0", fillcolor="#f5cdb0"] ;
432 -> 433 ;
434 [label="mse = 0.0\nsamples = 3\nvalue = 657.0", fillcolor="#f5cdb0"] ;
432 -> 434 ;
435 [label="mse = 0.0\nsamples = 2\nvalue = 658.0", fillcolor="#f5ccaf"] ;
431 -> 435 ;
436 [label="X[4] <= 660.5\nmse = 1.109\nsamples = 8\nvalue = 659.875", fillcolor="#f4ccaf"] ;
430 -> 436 ;
437 [label="X[4] <= 659.5\nmse = 0.222\nsamples = 6\nvalue = 659.333", fillcolor="#f5ccaf"] ;
436 -> 437 ;
438 [label="mse = 0.0\nsamples = 4\nvalue = 659.0", fillcolor="#f5ccaf"] ;
437 -> 438 ;
439 [label="mse = 0.0\nsamples = 2\nvalue = 660.0", fillcolor="#f4ccaf"] ;
437 -> 439 ;
440 [label="X[3] <= 0.0\nmse = 0.25\nsamples = 2\nvalue = 661.5", fillcolor="#f4ccaf"] ;
436 -> 440 ;
441 [label="mse = 0.0\nsamples = 1\nvalue = 662.0", fillcolor="#f4ccae"] ;
440 -> 441 ;
442 [label="mse = 0.0\nsamples = 1\nvalue = 661.0", fillcolor="#f4ccaf"] ;
440 -> 442 ;
443 [label="X[4] <= 672.5\nmse = 17.249\nsamples = 30\nvalue = 671.533", fillcolor="#f4caac"] ;
429 -> 443 ;
444 [label="X[4] <= 668.5\nmse = 3.568\nsamples = 19\nvalue = 668.895", fillcolor="#f4cbad"] ;
443 -> 444 ;
445 [label="X[4] <= 666.5\nmse = 0.75\nsamples = 8\nvalue = 667.0", fillcolor="#f4cbad"] ;
444 -> 445 ;
446 [label="mse = 0.0\nsamples = 3\nvalue = 666.0", fillcolor="#f4cbad"] ;
445 -> 446 ;
447 [label="X[4] <= 667.5\nmse = 0.24\nsamples = 5\nvalue = 667.6", fillcolor="#f4cbad"] ;
445 -> 447 ;
448 [label="mse = 0.0\nsamples = 2\nvalue = 667.0", fillcolor="#f4cbad"] ;
447 -> 448 ;
449 [label="mse = 0.0\nsamples = 3\nvalue = 668.0", fillcolor="#f4cbad"] ;
447 -> 449 ;
450 [label="X[4] <= 670.5\nmse = 1.107\nsamples = 11\nvalue = 670.273", fillcolor="#f4caac"] ;
444 -> 450 ;
451 [label="X[4] <= 669.5\nmse = 0.245\nsamples = 7\nvalue = 669.571", fillcolor="#f4caac"] ;
450 -> 451 ;
452 [label="mse = 0.0\nsamples = 3\nvalue = 669.0", fillcolor="#f4caac"] ;
451 -> 452 ;
453 [label="mse = 0.0\nsamples = 4\nvalue = 670.0", fillcolor="#f4caac"] ;
451 -> 453 ;
454 [label="X[4] <= 671.5\nmse = 0.25\nsamples = 4\nvalue = 671.5", fillcolor="#f4caac"] ;
450 -> 454 ;
455 [label="mse = 0.0\nsamples = 2\nvalue = 671.0", fillcolor="#f4caac"] ;
454 -> 455 ;
456 [label="mse = 0.0\nsamples = 2\nvalue = 672.0", fillcolor="#f4caac"] ;
454 -> 456 ;
457 [label="X[4] <= 677.5\nmse = 8.083\nsamples = 11\nvalue = 676.091", fillcolor="#f4c9ab"] ;
443 -> 457 ;
458 [label="X[4] <= 674.5\nmse = 1.25\nsamples = 8\nvalue = 674.5", fillcolor="#f4caab"] ;
457 -> 458 ;
459 [label="X[2] <= 0.005\nmse = 0.25\nsamples = 4\nvalue = 673.5", fillcolor="#f4caab"] ;
458 -> 459 ;
460 [label="mse = 0.0\nsamples = 2\nvalue = 674.0", fillcolor="#f4caab"] ;
459 -> 460 ;
461 [label="mse = 0.0\nsamples = 2\nvalue = 673.0", fillcolor="#f4caab"] ;
459 -> 461 ;
462 [label="X[4] <= 675.5\nmse = 0.25\nsamples = 4\nvalue = 675.5", fillcolor="#f4c9ab"] ;
458 -> 462 ;
463 [label="mse = 0.0\nsamples = 2\nvalue = 675.0", fillcolor="#f4c9ab"] ;
462 -> 463 ;
464 [label="mse = 0.0\nsamples = 2\nvalue = 676.0", fillcolor="#f4c9ab"] ;
462 -> 464 ;
465 [label="X[4] <= 681.0\nmse = 1.556\nsamples = 3\nvalue = 680.333", fillcolor="#f4c9a9"] ;
457 -> 465 ;
466 [label="X[1] <= 0.012\nmse = 0.25\nsamples = 2\nvalue = 679.5", fillcolor="#f4c9aa"] ;
465 -> 466 ;
467 [label="mse = 0.0\nsamples = 1\nvalue = 679.0", fillcolor="#f4c9aa"] ;
466 -> 467 ;
468 [label="mse = 0.0\nsamples = 1\nvalue = 680.0", fillcolor="#f4c9a9"] ;
466 -> 468 ;
469 [label="mse = 0.0\nsamples = 1\nvalue = 682.0", fillcolor="#f4c8a9"] ;
465 -> 469 ;
470 [label="X[4] <= 706.0\nmse = 169.658\nsamples = 67\nvalue = 708.657", fillcolor="#f3c4a2"] ;
388 -> 470 ;
471 [label="X[4] <= 695.0\nmse = 53.001\nsamples = 26\nvalue = 694.808", fillcolor="#f3c6a5"] ;
470 -> 471 ;
472 [label="X[4] <= 689.5\nmse = 17.172\nsamples = 13\nvalue = 688.538", fillcolor="#f3c7a7"] ;
471 -> 472 ;
473 [label="X[4] <= 685.0\nmse = 1.837\nsamples = 7\nvalue = 684.857", fillcolor="#f4c8a8"] ;
472 -> 473 ;
474 [label="X[4] <= 683.5\nmse = 0.188\nsamples = 4\nvalue = 683.75", fillcolor="#f4c8a8"] ;
473 -> 474 ;
475 [label="mse = 0.0\nsamples = 1\nvalue = 683.0", fillcolor="#f4c8a9"] ;
474 -> 475 ;
476 [label="mse = 0.0\nsamples = 3\nvalue = 684.0", fillcolor="#f4c8a8"] ;
474 -> 476 ;
477 [label="X[0] <= 0.001\nmse = 0.222\nsamples = 3\nvalue = 686.333", fillcolor="#f4c7a8"] ;
473 -> 477 ;
478 [label="mse = 0.0\nsamples = 1\nvalue = 687.0", fillcolor="#f4c7a8"] ;
477 -> 478 ;
479 [label="mse = 0.0\nsamples = 2\nvalue = 686.0", fillcolor="#f4c8a8"] ;
477 -> 479 ;
480 [label="X[2] <= 0.006\nmse = 0.806\nsamples = 6\nvalue = 692.833", fillcolor="#f3c6a6"] ;
472 -> 480 ;
481 [label="mse = 0.0\nsamples = 3\nvalue = 692.0", fillcolor="#f3c6a6"] ;
480 -> 481 ;
482 [label="X[4] <= 693.5\nmse = 0.222\nsamples = 3\nvalue = 693.667", fillcolor="#f3c6a6"] ;
480 -> 482 ;
483 [label="mse = 0.0\nsamples = 1\nvalue = 693.0", fillcolor="#f3c6a6"] ;
482 -> 483 ;
484 [label="mse = 0.0\nsamples = 2\nvalue = 694.0", fillcolor="#f3c6a6"] ;
482 -> 484 ;
485 [label="X[4] <= 702.5\nmse = 10.225\nsamples = 13\nvalue = 701.077", fillcolor="#f3c5a4"] ;
471 -> 485 ;
486 [label="X[4] <= 698.0\nmse = 3.673\nsamples = 7\nvalue = 698.429", fillcolor="#f3c5a4"] ;
485 -> 486 ;
487 [label="X[1] <= 0.02\nmse = 0.222\nsamples = 3\nvalue = 696.333", fillcolor="#f3c6a5"] ;
486 -> 487 ;
488 [label="mse = 0.0\nsamples = 2\nvalue = 696.0", fillcolor="#f3c6a5"] ;
487 -> 488 ;
489 [label="mse = 0.0\nsamples = 1\nvalue = 697.0", fillcolor="#f3c6a5"] ;
487 -> 489 ;
490 [label="X[3] <= 0.0\nmse = 0.5\nsamples = 4\nvalue = 700.0", fillcolor="#f3c5a4"] ;
486 -> 490 ;
491 [label="mse = 0.0\nsamples = 1\nvalue = 701.0", fillcolor="#f3c5a4"] ;
490 -> 491 ;
492 [label="X[3] <= 0.0\nmse = 0.222\nsamples = 3\nvalue = 699.667", fillcolor="#f3c5a4"] ;
490 -> 492 ;
493 [label="mse = 0.0\nsamples = 1\nvalue = 699.0", fillcolor="#f3c5a4"] ;
492 -> 493 ;
494 [label="mse = 0.0\nsamples = 2\nvalue = 700.0", fillcolor="#f3c5a4"] ;
492 -> 494 ;
495 [label="X[4] <= 704.5\nmse = 0.139\nsamples = 6\nvalue = 704.167", fillcolor="#f3c4a3"] ;
485 -> 495 ;
496 [label="mse = 0.0\nsamples = 5\nvalue = 704.0", fillcolor="#f3c4a3"] ;
495 -> 496 ;
497 [label="mse = 0.0\nsamples = 1\nvalue = 705.0", fillcolor="#f3c4a3"] ;
495 -> 497 ;
498 [label="X[4] <= 718.5\nmse = 44.88\nsamples = 41\nvalue = 717.439", fillcolor="#f2c29f"] ;
470 -> 498 ;
499 [label="X[4] <= 712.0\nmse = 9.69\nsamples = 23\nvalue = 712.304", fillcolor="#f3c3a1"] ;
498 -> 499 ;
500 [label="X[4] <= 709.5\nmse = 2.056\nsamples = 12\nvalue = 709.667", fillcolor="#f3c3a1"] ;
499 -> 500 ;
501 [label="X[4] <= 708.0\nmse = 0.96\nsamples = 5\nvalue = 708.2", fillcolor="#f3c4a2"] ;
500 -> 501 ;
502 [label="mse = 0.0\nsamples = 2\nvalue = 707.0", fillcolor="#f3c4a2"] ;
501 -> 502 ;
503 [label="mse = 0.0\nsamples = 3\nvalue = 709.0", fillcolor="#f3c4a2"] ;
501 -> 503 ;
504 [label="X[4] <= 710.5\nmse = 0.204\nsamples = 7\nvalue = 710.714", fillcolor="#f3c3a1"] ;
500 -> 504 ;
505 [label="mse = 0.0\nsamples = 2\nvalue = 710.0", fillcolor="#f3c3a1"] ;
504 -> 505 ;
506 [label="mse = 0.0\nsamples = 5\nvalue = 711.0", fillcolor="#f3c3a1"] ;
504 -> 506 ;
507 [label="X[4] <= 715.5\nmse = 2.149\nsamples = 11\nvalue = 715.182", fillcolor="#f3c2a0"] ;
499 -> 507 ;
508 [label="X[1] <= 0.026\nmse = 0.333\nsamples = 6\nvalue = 714.0", fillcolor="#f3c3a0"] ;
507 -> 508 ;
509 [label="X[4] <= 713.5\nmse = 0.16\nsamples = 5\nvalue = 713.8", fillcolor="#f3c3a0"] ;
508 -> 509 ;
510 [label="mse = 0.0\nsamples = 1\nvalue = 713.0", fillcolor="#f3c3a0"] ;
509 -> 510 ;
511 [label="mse = 0.0\nsamples = 4\nvalue = 714.0", fillcolor="#f3c3a0"] ;
509 -> 511 ;
512 [label="mse = 0.0\nsamples = 1\nvalue = 715.0", fillcolor="#f3c3a0"] ;
508 -> 512 ;
513 [label="X[3] <= 0.0\nmse = 0.64\nsamples = 5\nvalue = 716.6", fillcolor="#f2c2a0"] ;
507 -> 513 ;
514 [label="mse = 0.0\nsamples = 3\nvalue = 716.0", fillcolor="#f2c2a0"] ;
513 -> 514 ;
515 [label="X[2] <= 0.006\nmse = 0.25\nsamples = 2\nvalue = 717.5", fillcolor="#f2c29f"] ;
513 -> 515 ;
516 [label="mse = 0.0\nsamples = 1\nvalue = 717.0", fillcolor="#f2c29f"] ;
515 -> 516 ;
517 [label="mse = 0.0\nsamples = 1\nvalue = 718.0", fillcolor="#f2c29f"] ;
515 -> 517 ;
518 [label="X[4] <= 724.0\nmse = 13.111\nsamples = 18\nvalue = 724.0", fillcolor="#f2c19d"] ;
498 -> 518 ;
519 [label="X[4] <= 720.5\nmse = 1.688\nsamples = 8\nvalue = 720.25", fillcolor="#f2c29f"] ;
518 -> 519 ;
520 [label="X[4] <= 719.5\nmse = 0.24\nsamples = 5\nvalue = 719.4", fillcolor="#f2c29f"] ;
519 -> 520 ;
521 [label="mse = 0.0\nsamples = 3\nvalue = 719.0", fillcolor="#f2c29f"] ;
520 -> 521 ;
522 [label="mse = 0.0\nsamples = 2\nvalue = 720.0", fillcolor="#f2c29f"] ;
520 -> 522 ;
523 [label="X[4] <= 722.0\nmse = 0.889\nsamples = 3\nvalue = 721.667", fillcolor="#f2c19e"] ;
519 -> 523 ;
524 [label="mse = 0.0\nsamples = 2\nvalue = 721.0", fillcolor="#f2c19e"] ;
523 -> 524 ;
525 [label="mse = 0.0\nsamples = 1\nvalue = 723.0", fillcolor="#f2c19e"] ;
523 -> 525 ;
526 [label="X[4] <= 726.5\nmse = 2.0\nsamples = 10\nvalue = 727.0", fillcolor="#f2c09d"] ;
518 -> 526 ;
527 [label="X[2] <= 0.005\nmse = 0.25\nsamples = 4\nvalue = 725.5", fillcolor="#f2c19d"] ;
526 -> 527 ;
528 [label="mse = 0.0\nsamples = 2\nvalue = 725.0", fillcolor="#f2c19d"] ;
527 -> 528 ;
529 [label="mse = 0.0\nsamples = 2\nvalue = 726.0", fillcolor="#f2c19d"] ;
527 -> 529 ;
530 [label="X[4] <= 727.5\nmse = 0.667\nsamples = 6\nvalue = 728.0", fillcolor="#f2c09c"] ;
526 -> 530 ;
531 [label="mse = 0.0\nsamples = 2\nvalue = 727.0", fillcolor="#f2c09d"] ;
530 -> 531 ;
532 [label="X[0] <= 0.002\nmse = 0.25\nsamples = 4\nvalue = 728.5", fillcolor="#f2c09c"] ;
530 -> 532 ;
533 [label="mse = 0.0\nsamples = 2\nvalue = 728.0", fillcolor="#f2c09c"] ;
532 -> 533 ;
534 [label="mse = 0.0\nsamples = 2\nvalue = 729.0", fillcolor="#f2c09c"] ;
532 -> 534 ;
535 [label="X[4] <= 778.5\nmse = 808.341\nsamples = 181\nvalue = 779.773", fillcolor="#f0b78e"] ;
387 -> 535 ;
536 [label="X[4] <= 753.0\nmse = 163.538\nsamples = 85\nvalue = 753.941", fillcolor="#f1bc95"] ;
535 -> 536 ;
537 [label="X[4] <= 743.0\nmse = 45.396\nsamples = 38\nvalue = 741.842", fillcolor="#f2be99"] ;
536 -> 537 ;
538 [label="X[4] <= 735.5\nmse = 12.154\nsamples = 21\nvalue = 736.524", fillcolor="#f2bf9a"] ;
537 -> 538 ;
539 [label="X[4] <= 732.5\nmse = 2.0\nsamples = 8\nvalue = 732.5", fillcolor="#f2bf9b"] ;
538 -> 539 ;
540 [label="X[4] <= 731.5\nmse = 0.688\nsamples = 4\nvalue = 731.25", fillcolor="#f2c09c"] ;
539 -> 540 ;
541 [label="X[0] <= 0.002\nmse = 0.25\nsamples = 2\nvalue = 730.5", fillcolor="#f2c09c"] ;
540 -> 541 ;
542 [label="mse = 0.0\nsamples = 1\nvalue = 731.0", fillcolor="#f2c09c"] ;
541 -> 542 ;
543 [label="mse = 0.0\nsamples = 1\nvalue = 730.0", fillcolor="#f2c09c"] ;
541 -> 543 ;
544 [label="mse = 0.0\nsamples = 2\nvalue = 732.0", fillcolor="#f2c09b"] ;
540 -> 544 ;
545 [label="X[2] <= 0.009\nmse = 0.188\nsamples = 4\nvalue = 733.75", fillcolor="#f2bf9b"] ;
539 -> 545 ;
546 [label="mse = 0.0\nsamples = 3\nvalue = 734.0", fillcolor="#f2bf9b"] ;
545 -> 546 ;
547 [label="mse = 0.0\nsamples = 1\nvalue = 733.0", fillcolor="#f2bf9b"] ;
545 -> 547 ;
548 [label="X[4] <= 739.0\nmse = 2.308\nsamples = 13\nvalue = 739.0", fillcolor="#f2be99"] ;
538 -> 548 ;
549 [label="X[4] <= 737.5\nmse = 0.204\nsamples = 7\nvalue = 737.714", fillcolor="#f2bf9a"] ;
548 -> 549 ;
550 [label="mse = 0.0\nsamples = 2\nvalue = 737.0", fillcolor="#f2bf9a"] ;
549 -> 550 ;
551 [label="mse = 0.0\nsamples = 5\nvalue = 738.0", fillcolor="#f2bf9a"] ;
549 -> 551 ;
552 [label="X[0] <= 0.003\nmse = 0.583\nsamples = 6\nvalue = 740.5", fillcolor="#f2be99"] ;
548 -> 552 ;
553 [label="mse = 0.0\nsamples = 4\nvalue = 740.0", fillcolor="#f2be99"] ;
552 -> 553 ;
554 [label="X[1] <= 0.01\nmse = 0.25\nsamples = 2\nvalue = 741.5", fillcolor="#f2be99"] ;
552 -> 554 ;
555 [label="mse = 0.0\nsamples = 1\nvalue = 741.0", fillcolor="#f2be99"] ;
554 -> 555 ;
556 [label="mse = 0.0\nsamples = 1\nvalue = 742.0", fillcolor="#f2be99"] ;
554 -> 556 ;
557 [label="X[4] <= 747.5\nmse = 8.36\nsamples = 17\nvalue = 748.412", fillcolor="#f1bd97"] ;
537 -> 557 ;
558 [label="X[4] <= 745.5\nmse = 1.333\nsamples = 6\nvalue = 745.0", fillcolor="#f1bd98"] ;
557 -> 558 ;
559 [label="X[1] <= 0.012\nmse = 0.188\nsamples = 4\nvalue = 744.25", fillcolor="#f1bd98"] ;
558 -> 559 ;
560 [label="mse = 0.0\nsamples = 1\nvalue = 745.0", fillcolor="#f1bd98"] ;
559 -> 560 ;
561 [label="mse = 0.0\nsamples = 3\nvalue = 744.0", fillcolor="#f1bd98"] ;
559 -> 561 ;
562 [label="X[1] <= 0.023\nmse = 0.25\nsamples = 2\nvalue = 746.5", fillcolor="#f1bd97"] ;
558 -> 562 ;
563 [label="mse = 0.0\nsamples = 1\nvalue = 746.0", fillcolor="#f1bd98"] ;
562 -> 563 ;
564 [label="mse = 0.0\nsamples = 1\nvalue = 747.0", fillcolor="#f1bd97"] ;
562 -> 564 ;
565 [label="X[4] <= 750.5\nmse = 2.38\nsamples = 11\nvalue = 750.273", fillcolor="#f1bc96"] ;
557 -> 565 ;
566 [label="X[4] <= 748.5\nmse = 0.667\nsamples = 6\nvalue = 749.0", fillcolor="#f1bd97"] ;
565 -> 566 ;
567 [label="mse = 0.0\nsamples = 2\nvalue = 748.0", fillcolor="#f1bd97"] ;
566 -> 567 ;
568 [label="X[4] <= 749.5\nmse = 0.25\nsamples = 4\nvalue = 749.5", fillcolor="#f1bd97"] ;
566 -> 568 ;
569 [label="mse = 0.0\nsamples = 2\nvalue = 749.0", fillcolor="#f1bd97"] ;
568 -> 569 ;
570 [label="mse = 0.0\nsamples = 2\nvalue = 750.0", fillcolor="#f1bc96"] ;
568 -> 570 ;
571 [label="X[1] <= 0.018\nmse = 0.16\nsamples = 5\nvalue = 751.8", fillcolor="#f1bc96"] ;
565 -> 571 ;
572 [label="mse = 0.0\nsamples = 4\nvalue = 752.0", fillcolor="#f1bc96"] ;
571 -> 572 ;
573 [label="mse = 0.0\nsamples = 1\nvalue = 751.0", fillcolor="#f1bc96"] ;
571 -> 573 ;
574 [label="X[4] <= 765.5\nmse = 45.009\nsamples = 47\nvalue = 763.723", fillcolor="#f1ba93"] ;
536 -> 574 ;
575 [label="X[4] <= 760.0\nmse = 10.92\nsamples = 29\nvalue = 759.103", fillcolor="#f1bb94"] ;
574 -> 575 ;
576 [label="X[4] <= 756.5\nmse = 3.619\nsamples = 17\nvalue = 756.706", fillcolor="#f1bb95"] ;
575 -> 576 ;
577 [label="X[1] <= 0.023\nmse = 0.609\nsamples = 8\nvalue = 754.875", fillcolor="#f1bc95"] ;
576 -> 577 ;
578 [label="X[4] <= 755.5\nmse = 0.24\nsamples = 5\nvalue = 755.4", fillcolor="#f1bc95"] ;
577 -> 578 ;
579 [label="mse = 0.0\nsamples = 3\nvalue = 755.0", fillcolor="#f1bc95"] ;
578 -> 579 ;
580 [label="mse = 0.0\nsamples = 2\nvalue = 756.0", fillcolor="#f1bb95"] ;
578 -> 580 ;
581 [label="mse = 0.0\nsamples = 3\nvalue = 754.0", fillcolor="#f1bc95"] ;
577 -> 581 ;
582 [label="X[4] <= 758.5\nmse = 0.667\nsamples = 9\nvalue = 758.333", fillcolor="#f1bb94"] ;
576 -> 582 ;
583 [label="X[4] <= 757.5\nmse = 0.25\nsamples = 4\nvalue = 757.5", fillcolor="#f1bb94"] ;
582 -> 583 ;
584 [label="mse = 0.0\nsamples = 2\nvalue = 757.0", fillcolor="#f1bb95"] ;
583 -> 584 ;
585 [label="mse = 0.0\nsamples = 2\nvalue = 758.0", fillcolor="#f1bb94"] ;
583 -> 585 ;
586 [label="mse = 0.0\nsamples = 5\nvalue = 759.0", fillcolor="#f1bb94"] ;
582 -> 586 ;
587 [label="X[4] <= 762.5\nmse = 1.583\nsamples = 12\nvalue = 762.5", fillcolor="#f1ba93"] ;
575 -> 587 ;
588 [label="X[4] <= 761.5\nmse = 0.222\nsamples = 6\nvalue = 761.333", fillcolor="#f1ba93"] ;
587 -> 588 ;
589 [label="mse = 0.0\nsamples = 4\nvalue = 761.0", fillcolor="#f1bb93"] ;
588 -> 589 ;
590 [label="mse = 0.0\nsamples = 2\nvalue = 762.0", fillcolor="#f1ba93"] ;
588 -> 590 ;
591 [label="X[1] <= 0.023\nmse = 0.222\nsamples = 6\nvalue = 763.667", fillcolor="#f1ba93"] ;
587 -> 591 ;
592 [label="mse = 0.0\nsamples = 4\nvalue = 764.0", fillcolor="#f1ba93"] ;
591 -> 592 ;
593 [label="mse = 0.0\nsamples = 2\nvalue = 763.0", fillcolor="#f1ba93"] ;
591 -> 593 ;
594 [label="X[4] <= 771.5\nmse = 10.139\nsamples = 18\nvalue = 771.167", fillcolor="#f1b991"] ;
574 -> 594 ;
595 [label="X[4] <= 768.5\nmse = 1.778\nsamples = 9\nvalue = 768.333", fillcolor="#f1b991"] ;
594 -> 595 ;
596 [label="X[4] <= 767.5\nmse = 0.25\nsamples = 6\nvalue = 767.5", fillcolor="#f1b992"] ;
595 -> 596 ;
597 [label="mse = 0.0\nsamples = 3\nvalue = 767.0", fillcolor="#f1ba92"] ;
596 -> 597 ;
598 [label="mse = 0.0\nsamples = 3\nvalue = 768.0", fillcolor="#f1b992"] ;
596 -> 598 ;
599 [label="X[2] <= 0.004\nmse = 0.667\nsamples = 3\nvalue = 770.0", fillcolor="#f1b991"] ;
595 -> 599 ;
600 [label="mse = 0.0\nsamples = 1\nvalue = 771.0", fillcolor="#f1b991"] ;
599 -> 600 ;
601 [label="X[4] <= 769.5\nmse = 0.25\nsamples = 2\nvalue = 769.5", fillcolor="#f1b991"] ;
599 -> 601 ;
602 [label="mse = 0.0\nsamples = 1\nvalue = 769.0", fillcolor="#f1b991"] ;
601 -> 602 ;
603 [label="mse = 0.0\nsamples = 1\nvalue = 770.0", fillcolor="#f1b991"] ;
601 -> 603 ;
604 [label="X[4] <= 776.0\nmse = 2.444\nsamples = 9\nvalue = 774.0", fillcolor="#f0b890"] ;
594 -> 604 ;
605 [label="X[0] <= 0.002\nmse = 0.5\nsamples = 8\nvalue = 773.5", fillcolor="#f0b890"] ;
604 -> 605 ;
606 [label="X[2] <= 0.003\nmse = 0.222\nsamples = 3\nvalue = 772.667", fillcolor="#f0b990"] ;
605 -> 606 ;
607 [label="mse = 0.0\nsamples = 1\nvalue = 772.0", fillcolor="#f0b990"] ;
606 -> 607 ;
608 [label="mse = 0.0\nsamples = 2\nvalue = 773.0", fillcolor="#f0b890"] ;
606 -> 608 ;
609 [label="mse = 0.0\nsamples = 5\nvalue = 774.0", fillcolor="#f0b890"] ;
605 -> 609 ;
610 [label="mse = 0.0\nsamples = 1\nvalue = 778.0", fillcolor="#f0b88f"] ;
604 -> 610 ;
611 [label="X[4] <= 804.5\nmse = 265.27\nsamples = 96\nvalue = 802.646", fillcolor="#efb388"] ;
535 -> 611 ;
612 [label="X[4] <= 791.5\nmse = 49.166\nsamples = 54\nvalue = 789.981", fillcolor="#f0b68c"] ;
611 -> 612 ;
613 [label="X[4] <= 785.5\nmse = 16.249\nsamples = 34\nvalue = 785.471", fillcolor="#f0b68d"] ;
612 -> 613 ;
614 [label="X[4] <= 782.5\nmse = 3.322\nsamples = 17\nvalue = 781.824", fillcolor="#f0b78e"] ;
613 -> 614 ;
615 [label="X[4] <= 780.5\nmse = 0.777\nsamples = 11\nvalue = 780.636", fillcolor="#f0b78e"] ;
614 -> 615 ;
616 [label="X[1] <= 0.029\nmse = 0.16\nsamples = 5\nvalue = 779.8", fillcolor="#f0b78e"] ;
615 -> 616 ;
617 [label="mse = 0.0\nsamples = 4\nvalue = 780.0", fillcolor="#f0b78e"] ;
616 -> 617 ;
618 [label="mse = 0.0\nsamples = 1\nvalue = 779.0", fillcolor="#f0b78f"] ;
616 -> 618 ;
619 [label="X[4] <= 781.5\nmse = 0.222\nsamples = 6\nvalue = 781.333", fillcolor="#f0b78e"] ;
615 -> 619 ;
620 [label="mse = 0.0\nsamples = 4\nvalue = 781.0", fillcolor="#f0b78e"] ;
619 -> 620 ;
621 [label="mse = 0.0\nsamples = 2\nvalue = 782.0", fillcolor="#f0b78e"] ;
619 -> 621 ;
622 [label="X[4] <= 783.5\nmse = 0.667\nsamples = 6\nvalue = 784.0", fillcolor="#f0b78d"] ;
614 -> 622 ;
623 [label="mse = 0.0\nsamples = 2\nvalue = 783.0", fillcolor="#f0b78d"] ;
622 -> 623 ;
624 [label="X[4] <= 784.5\nmse = 0.25\nsamples = 4\nvalue = 784.5", fillcolor="#f0b68d"] ;
622 -> 624 ;
625 [label="mse = 0.0\nsamples = 2\nvalue = 784.0", fillcolor="#f0b78d"] ;
624 -> 625 ;
626 [label="mse = 0.0\nsamples = 2\nvalue = 785.0", fillcolor="#f0b68d"] ;
624 -> 626 ;
627 [label="X[4] <= 788.5\nmse = 2.574\nsamples = 17\nvalue = 789.118", fillcolor="#f0b68c"] ;
613 -> 627 ;
628 [label="X[2] <= 0.004\nmse = 0.8\nsamples = 5\nvalue = 787.0", fillcolor="#f0b68c"] ;
627 -> 628 ;
629 [label="mse = 0.0\nsamples = 2\nvalue = 786.0", fillcolor="#f0b68d"] ;
628 -> 629 ;
630 [label="X[4] <= 787.5\nmse = 0.222\nsamples = 3\nvalue = 787.667", fillcolor="#f0b68c"] ;
628 -> 630 ;
631 [label="mse = 0.0\nsamples = 1\nvalue = 787.0", fillcolor="#f0b68c"] ;
630 -> 631 ;
632 [label="mse = 0.0\nsamples = 2\nvalue = 788.0", fillcolor="#f0b68c"] ;
630 -> 632 ;
633 [label="X[4] <= 789.5\nmse = 0.667\nsamples = 12\nvalue = 790.0", fillcolor="#f0b68c"] ;
627 -> 633 ;
634 [label="mse = 0.0\nsamples = 4\nvalue = 789.0", fillcolor="#f0b68c"] ;
633 -> 634 ;
635 [label="X[1] <= 0.015\nmse = 0.25\nsamples = 8\nvalue = 790.5", fillcolor="#f0b58b"] ;
633 -> 635 ;
636 [label="mse = 0.0\nsamples = 4\nvalue = 790.0", fillcolor="#f0b68c"] ;
635 -> 636 ;
637 [label="mse = 0.0\nsamples = 4\nvalue = 791.0", fillcolor="#f0b58b"] ;
635 -> 637 ;
638 [label="X[4] <= 797.5\nmse = 11.728\nsamples = 20\nvalue = 797.65", fillcolor="#f0b489"] ;
612 -> 638 ;
639 [label="X[4] <= 793.5\nmse = 1.432\nsamples = 9\nvalue = 794.111", fillcolor="#f0b58a"] ;
638 -> 639 ;
640 [label="X[4] <= 792.5\nmse = 0.222\nsamples = 3\nvalue = 792.667", fillcolor="#f0b58b"] ;
639 -> 640 ;
641 [label="mse = 0.0\nsamples = 1\nvalue = 792.0", fillcolor="#f0b58b"] ;
640 -> 641 ;
642 [label="mse = 0.0\nsamples = 2\nvalue = 793.0", fillcolor="#f0b58b"] ;
640 -> 642 ;
643 [label="X[4] <= 794.5\nmse = 0.472\nsamples = 6\nvalue = 794.833", fillcolor="#f0b58a"] ;
639 -> 643 ;
644 [label="mse = 0.0\nsamples = 2\nvalue = 794.0", fillcolor="#f0b58a"] ;
643 -> 644 ;
645 [label="X[4] <= 795.5\nmse = 0.188\nsamples = 4\nvalue = 795.25", fillcolor="#f0b58a"] ;
643 -> 645 ;
646 [label="mse = 0.0\nsamples = 3\nvalue = 795.0", fillcolor="#f0b58a"] ;
645 -> 646 ;
647 [label="mse = 0.0\nsamples = 1\nvalue = 796.0", fillcolor="#f0b48a"] ;
645 -> 647 ;
648 [label="X[4] <= 800.5\nmse = 1.521\nsamples = 11\nvalue = 800.545", fillcolor="#efb489"] ;
638 -> 648 ;
649 [label="X[3] <= 0.0\nmse = 0.25\nsamples = 6\nvalue = 799.5", fillcolor="#efb489"] ;
648 -> 649 ;
650 [label="mse = 0.0\nsamples = 3\nvalue = 800.0", fillcolor="#efb489"] ;
649 -> 650 ;
651 [label="mse = 0.0\nsamples = 3\nvalue = 799.0", fillcolor="#f0b489"] ;
649 -> 651 ;
652 [label="X[2] <= 0.005\nmse = 0.16\nsamples = 5\nvalue = 801.8", fillcolor="#efb388"] ;
648 -> 652 ;
653 [label="mse = 0.0\nsamples = 1\nvalue = 801.0", fillcolor="#efb489"] ;
652 -> 653 ;
654 [label="mse = 0.0\nsamples = 4\nvalue = 802.0", fillcolor="#efb388"] ;
652 -> 654 ;
655 [label="X[4] <= 819.0\nmse = 71.781\nsamples = 42\nvalue = 818.929", fillcolor="#efb184"] ;
611 -> 655 ;
656 [label="X[4] <= 811.5\nmse = 10.245\nsamples = 21\nvalue = 811.429", fillcolor="#efb286"] ;
655 -> 656 ;
657 [label="X[4] <= 809.0\nmse = 2.04\nsamples = 10\nvalue = 808.6", fillcolor="#efb286"] ;
656 -> 657 ;
658 [label="X[4] <= 807.5\nmse = 0.25\nsamples = 6\nvalue = 807.5", fillcolor="#efb287"] ;
657 -> 658 ;
659 [label="mse = 0.0\nsamples = 3\nvalue = 807.0", fillcolor="#efb387"] ;
658 -> 659 ;
660 [label="mse = 0.0\nsamples = 3\nvalue = 808.0", fillcolor="#efb287"] ;
658 -> 660 ;
661 [label="X[1] <= 0.011\nmse = 0.188\nsamples = 4\nvalue = 810.25", fillcolor="#efb286"] ;
657 -> 661 ;
662 [label="mse = 0.0\nsamples = 1\nvalue = 811.0", fillcolor="#efb286"] ;
661 -> 662 ;
663 [label="mse = 0.0\nsamples = 3\nvalue = 810.0", fillcolor="#efb286"] ;
661 -> 663 ;
664 [label="X[4] <= 814.5\nmse = 3.818\nsamples = 11\nvalue = 814.0", fillcolor="#efb185"] ;
656 -> 664 ;
665 [label="X[4] <= 812.5\nmse = 0.49\nsamples = 7\nvalue = 812.714", fillcolor="#efb285"] ;
664 -> 665 ;
666 [label="mse = 0.0\nsamples = 3\nvalue = 812.0", fillcolor="#efb286"] ;
665 -> 666 ;
667 [label="X[3] <= 0.0\nmse = 0.188\nsamples = 4\nvalue = 813.25", fillcolor="#efb185"] ;
665 -> 667 ;
668 [label="mse = 0.0\nsamples = 1\nvalue = 814.0", fillcolor="#efb185"] ;
667 -> 668 ;
669 [label="mse = 0.0\nsamples = 3\nvalue = 813.0", fillcolor="#efb285"] ;
667 -> 669 ;
670 [label="X[3] <= 0.0\nmse = 1.688\nsamples = 4\nvalue = 816.25", fillcolor="#efb184"] ;
664 -> 670 ;
671 [label="mse = 0.0\nsamples = 2\nvalue = 815.0", fillcolor="#efb185"] ;
670 -> 671 ;
672 [label="X[4] <= 817.5\nmse = 0.25\nsamples = 2\nvalue = 817.5", fillcolor="#efb184"] ;
670 -> 672 ;
673 [label="mse = 0.0\nsamples = 1\nvalue = 817.0", fillcolor="#efb184"] ;
672 -> 673 ;
674 [label="mse = 0.0\nsamples = 1\nvalue = 818.0", fillcolor="#efb184"] ;
672 -> 674 ;
675 [label="X[4] <= 826.5\nmse = 20.816\nsamples = 21\nvalue = 826.429", fillcolor="#efaf82"] ;
655 -> 675 ;
676 [label="X[4] <= 823.5\nmse = 4.562\nsamples = 11\nvalue = 822.727", fillcolor="#efb083"] ;
675 -> 676 ;
677 [label="X[1] <= 0.022\nmse = 1.061\nsamples = 7\nvalue = 821.286", fillcolor="#efb083"] ;
676 -> 677 ;
678 [label="X[4] <= 820.5\nmse = 0.25\nsamples = 4\nvalue = 820.5", fillcolor="#efb083"] ;
677 -> 678 ;
679 [label="mse = 0.0\nsamples = 2\nvalue = 820.0", fillcolor="#efb083"] ;
678 -> 679 ;
680 [label="mse = 0.0\nsamples = 2\nvalue = 821.0", fillcolor="#efb083"] ;
678 -> 680 ;
681 [label="X[0] <= 0.002\nmse = 0.222\nsamples = 3\nvalue = 822.333", fillcolor="#efb083"] ;
677 -> 681 ;
682 [label="mse = 0.0\nsamples = 2\nvalue = 822.0", fillcolor="#efb083"] ;
681 -> 682 ;
683 [label="mse = 0.0\nsamples = 1\nvalue = 823.0", fillcolor="#efb083"] ;
681 -> 683 ;
684 [label="X[4] <= 825.5\nmse = 0.688\nsamples = 4\nvalue = 825.25", fillcolor="#efaf82"] ;
676 -> 684 ;
685 [label="X[3] <= 0.0\nmse = 0.25\nsamples = 2\nvalue = 824.5", fillcolor="#efb082"] ;
684 -> 685 ;
686 [label="mse = 0.0\nsamples = 1\nvalue = 825.0", fillcolor="#efaf82"] ;
685 -> 686 ;
687 [label="mse = 0.0\nsamples = 1\nvalue = 824.0", fillcolor="#efb082"] ;
685 -> 687 ;
688 [label="mse = 0.0\nsamples = 2\nvalue = 826.0", fillcolor="#efaf82"] ;
684 -> 688 ;
689 [label="X[4] <= 832.0\nmse = 7.05\nsamples = 10\nvalue = 830.5", fillcolor="#eeae80"] ;
675 -> 689 ;
690 [label="X[4] <= 829.0\nmse = 2.286\nsamples = 7\nvalue = 829.0", fillcolor="#eeaf81"] ;
689 -> 690 ;
691 [label="X[4] <= 827.5\nmse = 0.222\nsamples = 3\nvalue = 827.333", fillcolor="#efaf81"] ;
690 -> 691 ;
692 [label="mse = 0.0\nsamples = 2\nvalue = 827.0", fillcolor="#efaf81"] ;
691 -> 692 ;
693 [label="mse = 0.0\nsamples = 1\nvalue = 828.0", fillcolor="#eeaf81"] ;
691 -> 693 ;
694 [label="X[4] <= 830.5\nmse = 0.188\nsamples = 4\nvalue = 830.25", fillcolor="#eeaf81"] ;
690 -> 694 ;
695 [label="mse = 0.0\nsamples = 3\nvalue = 830.0", fillcolor="#eeaf81"] ;
694 -> 695 ;
696 [label="mse = 0.0\nsamples = 1\nvalue = 831.0", fillcolor="#eeae80"] ;
694 -> 696 ;
697 [label="X[4] <= 833.5\nmse = 0.667\nsamples = 3\nvalue = 834.0", fillcolor="#eeae80"] ;
689 -> 697 ;
698 [label="mse = 0.0\nsamples = 1\nvalue = 833.0", fillcolor="#eeae80"] ;
697 -> 698 ;
699 [label="X[4] <= 834.5\nmse = 0.25\nsamples = 2\nvalue = 834.5", fillcolor="#eeae7f"] ;
697 -> 699 ;
700 [label="mse = 0.0\nsamples = 1\nvalue = 834.0", fillcolor="#eeae80"] ;
699 -> 700 ;
701 [label="mse = 0.0\nsamples = 1\nvalue = 835.0", fillcolor="#eeae7f"] ;
699 -> 701 ;
702 [label="X[4] <= 993.0\nmse = 5728.286\nsamples = 601\nvalue = 1061.9", fillcolor="#e68641"] ;
0 -> 702 [labeldistance=2.5, labelangle=-45, headlabel="False"] ;
703 [label="X[4] <= 897.0\nmse = 1215.985\nsamples = 86\nvalue = 880.058", fillcolor="#eda673"] ;
702 -> 703 ;
704 [label="X[4] <= 864.0\nmse = 272.249\nsamples = 65\nvalue = 863.462", fillcolor="#eda978"] ;
703 -> 704 ;
705 [label="X[4] <= 849.0\nmse = 73.793\nsamples = 34\nvalue = 850.029", fillcolor="#eeab7b"] ;
704 -> 705 ;
706 [label="X[4] <= 843.5\nmse = 15.209\nsamples = 14\nvalue = 840.929", fillcolor="#eead7e"] ;
705 -> 706 ;
707 [label="X[4] <= 839.0\nmse = 3.41\nsamples = 10\nvalue = 838.7", fillcolor="#eead7e"] ;
706 -> 707 ;
708 [label="X[3] <= 0.0\nmse = 0.4\nsamples = 5\nvalue = 837.0", fillcolor="#eead7f"] ;
707 -> 708 ;
709 [label="mse = 0.0\nsamples = 1\nvalue = 838.0", fillcolor="#eead7e"] ;
708 -> 709 ;
710 [label="X[2] <= 0.004\nmse = 0.188\nsamples = 4\nvalue = 836.75", fillcolor="#eead7f"] ;
708 -> 710 ;
711 [label="mse = 0.0\nsamples = 1\nvalue = 836.0", fillcolor="#eeae7f"] ;
710 -> 711 ;
712 [label="mse = 0.0\nsamples = 3\nvalue = 837.0", fillcolor="#eead7f"] ;
710 -> 712 ;
713 [label="X[2] <= 0.002\nmse = 0.64\nsamples = 5\nvalue = 840.4", fillcolor="#eead7e"] ;
707 -> 713 ;
714 [label="mse = 0.0\nsamples = 1\nvalue = 842.0", fillcolor="#eead7d"] ;
713 -> 714 ;
715 [label="mse = 0.0\nsamples = 4\nvalue = 840.0", fillcolor="#eead7e"] ;
713 -> 715 ;
716 [label="X[4] <= 846.5\nmse = 1.25\nsamples = 4\nvalue = 846.5", fillcolor="#eeac7c"] ;
706 -> 716 ;
717 [label="X[4] <= 845.5\nmse = 0.25\nsamples = 2\nvalue = 845.5", fillcolor="#eeac7c"] ;
716 -> 717 ;
718 [label="mse = 0.0\nsamples = 1\nvalue = 845.0", fillcolor="#eeac7d"] ;
717 -> 718 ;
719 [label="mse = 0.0\nsamples = 1\nvalue = 846.0", fillcolor="#eeac7c"] ;
717 -> 719 ;
720 [label="X[3] <= 0.0\nmse = 0.25\nsamples = 2\nvalue = 847.5", fillcolor="#eeac7c"] ;
716 -> 720 ;
721 [label="mse = 0.0\nsamples = 1\nvalue = 847.0", fillcolor="#eeac7c"] ;
720 -> 721 ;
722 [label="mse = 0.0\nsamples = 1\nvalue = 848.0", fillcolor="#eeab7c"] ;
720 -> 722 ;
723 [label="X[4] <= 856.5\nmse = 16.24\nsamples = 20\nvalue = 856.4", fillcolor="#edaa79"] ;
705 -> 723 ;
724 [label="X[4] <= 852.5\nmse = 3.835\nsamples = 11\nvalue = 853.273", fillcolor="#eeab7a"] ;
723 -> 724 ;
725 [label="X[3] <= 0.0\nmse = 0.5\nsamples = 4\nvalue = 851.0", fillcolor="#eeab7b"] ;
724 -> 725 ;
726 [label="mse = 0.0\nsamples = 1\nvalue = 850.0", fillcolor="#eeab7b"] ;
725 -> 726 ;
727 [label="X[1] <= 0.015\nmse = 0.222\nsamples = 3\nvalue = 851.333", fillcolor="#eeab7b"] ;
725 -> 727 ;
728 [label="mse = 0.0\nsamples = 2\nvalue = 851.0", fillcolor="#eeab7b"] ;
727 -> 728 ;
729 [label="mse = 0.0\nsamples = 1\nvalue = 852.0", fillcolor="#eeab7b"] ;
727 -> 729 ;
730 [label="X[4] <= 854.5\nmse = 1.102\nsamples = 7\nvalue = 854.571", fillcolor="#eeaa7a"] ;
724 -> 730 ;
731 [label="X[2] <= 0.008\nmse = 0.188\nsamples = 4\nvalue = 853.75", fillcolor="#eeaa7a"] ;
730 -> 731 ;
732 [label="mse = 0.0\nsamples = 3\nvalue = 854.0", fillcolor="#eeaa7a"] ;
731 -> 732 ;
733 [label="mse = 0.0\nsamples = 1\nvalue = 853.0", fillcolor="#eeab7a"] ;
731 -> 733 ;
734 [label="X[2] <= 0.004\nmse = 0.222\nsamples = 3\nvalue = 855.667", fillcolor="#edaa7a"] ;
730 -> 734 ;
735 [label="mse = 0.0\nsamples = 1\nvalue = 855.0", fillcolor="#eeaa7a"] ;
734 -> 735 ;
736 [label="mse = 0.0\nsamples = 2\nvalue = 856.0", fillcolor="#edaa7a"] ;
734 -> 736 ;
737 [label="X[4] <= 861.0\nmse = 4.84\nsamples = 9\nvalue = 860.222", fillcolor="#eda978"] ;
723 -> 737 ;
738 [label="X[4] <= 858.5\nmse = 1.04\nsamples = 5\nvalue = 858.4", fillcolor="#edaa79"] ;
737 -> 738 ;
739 [label="X[0] <= 0.002\nmse = 0.222\nsamples = 3\nvalue = 857.667", fillcolor="#edaa79"] ;
738 -> 739 ;
740 [label="mse = 0.0\nsamples = 2\nvalue = 858.0", fillcolor="#edaa79"] ;
739 -> 740 ;
741 [label="mse = 0.0\nsamples = 1\nvalue = 857.0", fillcolor="#edaa79"] ;
739 -> 741 ;
742 [label="X[0] <= 0.002\nmse = 0.25\nsamples = 2\nvalue = 859.5", fillcolor="#eda979"] ;
738 -> 742 ;
743 [label="mse = 0.0\nsamples = 1\nvalue = 859.0", fillcolor="#edaa79"] ;
742 -> 743 ;
744 [label="mse = 0.0\nsamples = 1\nvalue = 860.0", fillcolor="#eda978"] ;
742 -> 744 ;
745 [label="X[0] <= 0.001\nmse = 0.25\nsamples = 4\nvalue = 862.5", fillcolor="#eda978"] ;
737 -> 745 ;
746 [label="mse = 0.0\nsamples = 2\nvalue = 862.0", fillcolor="#eda978"] ;
745 -> 746 ;
747 [label="mse = 0.0\nsamples = 2\nvalue = 863.0", fillcolor="#eda978"] ;
745 -> 747 ;
748 [label="X[4] <= 881.0\nmse = 74.995\nsamples = 31\nvalue = 878.194", fillcolor="#eda674"] ;
704 -> 748 ;
749 [label="X[4] <= 873.0\nmse = 24.427\nsamples = 20\nvalue = 872.85", fillcolor="#eda775"] ;
748 -> 749 ;
750 [label="X[4] <= 868.0\nmse = 5.64\nsamples = 10\nvalue = 868.4", fillcolor="#eda876"] ;
749 -> 750 ;
751 [label="X[3] <= 0.0\nmse = 0.688\nsamples = 4\nvalue = 865.75", fillcolor="#eda877"] ;
750 -> 751 ;
752 [label="X[0] <= 0.001\nmse = 0.25\nsamples = 2\nvalue = 866.5", fillcolor="#eda877"] ;
751 -> 752 ;
753 [label="mse = 0.0\nsamples = 1\nvalue = 867.0", fillcolor="#eda877"] ;
752 -> 753 ;
754 [label="mse = 0.0\nsamples = 1\nvalue = 866.0", fillcolor="#eda877"] ;
752 -> 754 ;
755 [label="mse = 0.0\nsamples = 2\nvalue = 865.0", fillcolor="#eda977"] ;
751 -> 755 ;
756 [label="X[4] <= 870.5\nmse = 1.139\nsamples = 6\nvalue = 870.167", fillcolor="#eda876"] ;
750 -> 756 ;
757 [label="X[3] <= 0.0\nmse = 0.25\nsamples = 4\nvalue = 869.5", fillcolor="#eda876"] ;
756 -> 757 ;
758 [label="mse = 0.0\nsamples = 2\nvalue = 869.0", fillcolor="#eda876"] ;
757 -> 758 ;
759 [label="mse = 0.0\nsamples = 2\nvalue = 870.0", fillcolor="#eda876"] ;
757 -> 759 ;
760 [label="X[0] <= 0.002\nmse = 0.25\nsamples = 2\nvalue = 871.5", fillcolor="#eda775"] ;
756 -> 760 ;
761 [label="mse = 0.0\nsamples = 1\nvalue = 871.0", fillcolor="#eda775"] ;
760 -> 761 ;
762 [label="mse = 0.0\nsamples = 1\nvalue = 872.0", fillcolor="#eda775"] ;
760 -> 762 ;
763 [label="X[4] <= 876.0\nmse = 3.61\nsamples = 10\nvalue = 877.3", fillcolor="#eda674"] ;
749 -> 763 ;
764 [label="X[4] <= 874.5\nmse = 0.222\nsamples = 3\nvalue = 874.667", fillcolor="#eda774"] ;
763 -> 764 ;
765 [label="mse = 0.0\nsamples = 1\nvalue = 874.0", fillcolor="#eda775"] ;
764 -> 765 ;
766 [label="mse = 0.0\nsamples = 2\nvalue = 875.0", fillcolor="#eda774"] ;
764 -> 766 ;
767 [label="X[4] <= 878.5\nmse = 0.816\nsamples = 7\nvalue = 878.429", fillcolor="#eda673"] ;
763 -> 767 ;
768 [label="X[3] <= 0.0\nmse = 0.188\nsamples = 4\nvalue = 877.75", fillcolor="#eda674"] ;
767 -> 768 ;
769 [label="mse = 0.0\nsamples = 3\nvalue = 878.0", fillcolor="#eda674"] ;
768 -> 769 ;
770 [label="mse = 0.0\nsamples = 1\nvalue = 877.0", fillcolor="#eda674"] ;
768 -> 770 ;
771 [label="X[3] <= 0.0\nmse = 0.222\nsamples = 3\nvalue = 879.333", fillcolor="#eda673"] ;
767 -> 771 ;
772 [label="mse = 0.0\nsamples = 2\nvalue = 879.0", fillcolor="#eda673"] ;
771 -> 772 ;
773 [label="mse = 0.0\nsamples = 1\nvalue = 880.0", fillcolor="#eda673"] ;
771 -> 773 ;
774 [label="X[4] <= 890.0\nmse = 20.628\nsamples = 11\nvalue = 887.909", fillcolor="#eca571"] ;
748 -> 774 ;
775 [label="X[4] <= 885.5\nmse = 3.484\nsamples = 8\nvalue = 885.375", fillcolor="#eca572"] ;
774 -> 775 ;
776 [label="X[2] <= 0.002\nmse = 1.188\nsamples = 4\nvalue = 883.75", fillcolor="#eca572"] ;
775 -> 776 ;
777 [label="mse = 0.0\nsamples = 1\nvalue = 882.0", fillcolor="#eda672"] ;
776 -> 777 ;
778 [label="X[2] <= 0.007\nmse = 0.222\nsamples = 3\nvalue = 884.333", fillcolor="#eca572"] ;
776 -> 778 ;
779 [label="mse = 0.0\nsamples = 2\nvalue = 884.0", fillcolor="#eca572"] ;
778 -> 779 ;
780 [label="mse = 0.0\nsamples = 1\nvalue = 885.0", fillcolor="#eca572"] ;
778 -> 780 ;
781 [label="X[0] <= 0.001\nmse = 0.5\nsamples = 4\nvalue = 887.0", fillcolor="#eca571"] ;
775 -> 781 ;
782 [label="mse = 0.0\nsamples = 1\nvalue = 888.0", fillcolor="#eca571"] ;
781 -> 782 ;
783 [label="X[1] <= 0.008\nmse = 0.222\nsamples = 3\nvalue = 886.667", fillcolor="#eca571"] ;
781 -> 783 ;
784 [label="mse = 0.0\nsamples = 1\nvalue = 886.0", fillcolor="#eca571"] ;
783 -> 784 ;
785 [label="mse = 0.0\nsamples = 2\nvalue = 887.0", fillcolor="#eca571"] ;
783 -> 785 ;
786 [label="X[2] <= 0.006\nmse = 3.556\nsamples = 3\nvalue = 894.667", fillcolor="#eca36f"] ;
774 -> 786 ;
787 [label="mse = 0.0\nsamples = 1\nvalue = 892.0", fillcolor="#eca470"] ;
786 -> 787 ;
788 [label="mse = 0.0\nsamples = 2\nvalue = 896.0", fillcolor="#eca36f"] ;
786 -> 788 ;
789 [label="X[4] <= 947.5\nmse = 645.578\nsamples = 21\nvalue = 931.429", fillcolor="#eb9d65"] ;
703 -> 789 ;
790 [label="X[4] <= 918.0\nmse = 219.625\nsamples = 16\nvalue = 919.5", fillcolor="#eb9f68"] ;
789 -> 790 ;
791 [label="X[4] <= 904.0\nmse = 24.694\nsamples = 7\nvalue = 903.857", fillcolor="#eca26d"] ;
790 -> 791 ;
792 [label="X[1] <= 0.023\nmse = 2.0\nsamples = 4\nvalue = 900.0", fillcolor="#eca26e"] ;
791 -> 792 ;
793 [label="X[4] <= 899.0\nmse = 0.889\nsamples = 3\nvalue = 899.333", fillcolor="#eca36e"] ;
792 -> 793 ;
794 [label="mse = 0.0\nsamples = 1\nvalue = 898.0", fillcolor="#eca36e"] ;
793 -> 794 ;
795 [label="mse = 0.0\nsamples = 2\nvalue = 900.0", fillcolor="#eca26e"] ;
793 -> 795 ;
796 [label="mse = 0.0\nsamples = 1\nvalue = 902.0", fillcolor="#eca26d"] ;
792 -> 796 ;
797 [label="X[2] <= 0.006\nmse = 8.667\nsamples = 3\nvalue = 909.0", fillcolor="#eca16b"] ;
791 -> 797 ;
798 [label="X[3] <= 0.0\nmse = 1.0\nsamples = 2\nvalue = 907.0", fillcolor="#eca16c"] ;
797 -> 798 ;
799 [label="mse = 0.0\nsamples = 1\nvalue = 906.0", fillcolor="#eca16c"] ;
798 -> 799 ;
800 [label="mse = 0.0\nsamples = 1\nvalue = 908.0", fillcolor="#eca16b"] ;
798 -> 800 ;
801 [label="mse = 0.0\nsamples = 1\nvalue = 913.0", fillcolor="#eba06a"] ;
797 -> 801 ;
802 [label="X[4] <= 932.0\nmse = 32.889\nsamples = 9\nvalue = 931.667", fillcolor="#eb9d65"] ;
790 -> 802 ;
803 [label="X[2] <= 0.003\nmse = 6.8\nsamples = 5\nvalue = 927.0", fillcolor="#eb9e66"] ;
802 -> 803 ;
804 [label="X[1] <= 0.008\nmse = 0.667\nsamples = 3\nvalue = 929.0", fillcolor="#eb9d66"] ;
803 -> 804 ;
805 [label="mse = 0.0\nsamples = 1\nvalue = 930.0", fillcolor="#eb9d65"] ;
804 -> 805 ;
806 [label="X[1] <= 0.014\nmse = 0.25\nsamples = 2\nvalue = 928.5", fillcolor="#eb9e66"] ;
804 -> 806 ;
807 [label="mse = 0.0\nsamples = 1\nvalue = 928.0", fillcolor="#eb9e66"] ;
806 -> 807 ;
808 [label="mse = 0.0\nsamples = 1\nvalue = 929.0", fillcolor="#eb9d66"] ;
806 -> 808 ;
809 [label="X[1] <= 0.015\nmse = 1.0\nsamples = 2\nvalue = 924.0", fillcolor="#eb9e67"] ;
803 -> 809 ;
810 [label="mse = 0.0\nsamples = 1\nvalue = 923.0", fillcolor="#eb9e67"] ;
809 -> 810 ;
811 [label="mse = 0.0\nsamples = 1\nvalue = 925.0", fillcolor="#eb9e67"] ;
809 -> 811 ;
812 [label="X[2] <= 0.001\nmse = 4.25\nsamples = 4\nvalue = 937.5", fillcolor="#eb9c63"] ;
802 -> 812 ;
813 [label="mse = 0.0\nsamples = 1\nvalue = 934.0", fillcolor="#eb9d64"] ;
812 -> 813 ;
814 [label="X[3] <= 0.0\nmse = 0.222\nsamples = 3\nvalue = 938.667", fillcolor="#eb9c63"] ;
812 -> 814 ;
815 [label="mse = 0.0\nsamples = 1\nvalue = 938.0", fillcolor="#eb9c63"] ;
814 -> 815 ;
816 [label="mse = 0.0\nsamples = 2\nvalue = 939.0", fillcolor="#eb9c63"] ;
814 -> 816 ;
817 [label="X[2] <= 0.006\nmse = 96.24\nsamples = 5\nvalue = 969.6", fillcolor="#e9965b"] ;
789 -> 817 ;
818 [label="X[1] <= 0.015\nmse = 28.222\nsamples = 3\nvalue = 962.333", fillcolor="#ea985d"] ;
817 -> 818 ;
819 [label="mse = 0.0\nsamples = 1\nvalue = 969.0", fillcolor="#e9965b"] ;
818 -> 819 ;
820 [label="X[3] <= 0.0\nmse = 9.0\nsamples = 2\nvalue = 959.0", fillcolor="#ea985d"] ;
818 -> 820 ;
821 [label="mse = 0.0\nsamples = 1\nvalue = 962.0", fillcolor="#ea985d"] ;
820 -> 821 ;
822 [label="mse = 0.0\nsamples = 1\nvalue = 956.0", fillcolor="#ea995e"] ;
820 -> 822 ;
823 [label="X[2] <= 0.007\nmse = 0.25\nsamples = 2\nvalue = 980.5", fillcolor="#e99458"] ;
817 -> 823 ;
824 [label="mse = 0.0\nsamples = 1\nvalue = 980.0", fillcolor="#e99558"] ;
823 -> 824 ;
825 [label="mse = 0.0\nsamples = 1\nvalue = 981.0", fillcolor="#e99458"] ;
823 -> 825 ;
826 [label="X[4] <= 1066.5\nmse = 37.923\nsamples = 515\nvalue = 1092.266", fillcolor="#e58139"] ;
702 -> 826 ;
827 [label="X[4] <= 1034.5\nmse = 382.139\nsamples = 6\nvalue = 1040.833", fillcolor="#e78a47"] ;
826 -> 827 ;
828 [label="X[1] <= 0.011\nmse = 156.25\nsamples = 2\nvalue = 1017.5", fillcolor="#e88e4e"] ;
827 -> 828 ;
829 [label="mse = 0.0\nsamples = 1\nvalue = 1005.0", fillcolor="#e89051"] ;
828 -> 829 ;
830 [label="mse = 0.0\nsamples = 1\nvalue = 1030.0", fillcolor="#e78c4a"] ;
828 -> 830 ;
831 [label="X[4] <= 1045.0\nmse = 86.75\nsamples = 4\nvalue = 1052.5", fillcolor="#e68844"] ;
827 -> 831 ;
832 [label="mse = 0.0\nsamples = 1\nvalue = 1039.0", fillcolor="#e78a48"] ;
831 -> 832 ;
833 [label="X[4] <= 1060.0\nmse = 34.667\nsamples = 3\nvalue = 1057.0", fillcolor="#e68743"] ;
831 -> 833 ;
834 [label="X[2] <= 0.006\nmse = 4.0\nsamples = 2\nvalue = 1053.0", fillcolor="#e68844"] ;
833 -> 834 ;
835 [label="mse = 0.0\nsamples = 1\nvalue = 1051.0", fillcolor="#e78844"] ;
834 -> 835 ;
836 [label="mse = 0.0\nsamples = 1\nvalue = 1055.0", fillcolor="#e68843"] ;
834 -> 836 ;
837 [label="mse = 0.0\nsamples = 1\nvalue = 1065.0", fillcolor="#e68641"] ;
833 -> 837 ;
838 [label="X[4] <= 1087.5\nmse = 2.316\nsamples = 509\nvalue = 1092.872", fillcolor="#e58139"] ;
826 -> 838 ;
839 [label="X[3] <= 0.0\nmse = 40.5\nsamples = 4\nvalue = 1077.0", fillcolor="#e6843d"] ;
838 -> 839 ;
840 [label="X[1] <= 0.016\nmse = 9.0\nsamples = 2\nvalue = 1071.0", fillcolor="#e6853f"] ;
839 -> 840 ;
841 [label="mse = 0.0\nsamples = 1\nvalue = 1068.0", fillcolor="#e68540"] ;
840 -> 841 ;
842 [label="mse = 0.0\nsamples = 1\nvalue = 1074.0", fillcolor="#e6843e"] ;
840 -> 842 ;
843 [label="mse = 0.0\nsamples = 2\nvalue = 1083.0", fillcolor="#e5833c"] ;
839 -> 843 ;
844 [label="X[4] <= 1092.5\nmse = 0.002\nsamples = 505\nvalue = 1092.998", fillcolor="#e58139"] ;
838 -> 844 ;
845 [label="mse = 0.0\nsamples = 1\nvalue = 1092.0", fillcolor="#e58139"] ;
844 -> 845 ;
846 [label="mse = 0.0\nsamples = 504\nvalue = 1093.0", fillcolor="#e58139"] ;
844 -> 846 ;
}