digraph Tree {
node [shape=box, style="filled, rounded", color="black", fontname=helvetica] ;
edge [fontname=helvetica] ;
0 [label="X[4] <= 1.5\ngini = 0.335\nsamples = 1470\nvalue = [1187, 66, 86, 131]", fillcolor="#ea9c63"] ;
1 [label="gini = 0.0\nsamples = 1187\nvalue = [1187, 0, 0, 0]", fillcolor="#e58139"] ;
0 -> 1 [labeldistance=2.5, labelangle=45, headlabel="True"] ;
2 [label="X[4] <= 3.5\ngini = 0.639\nsamples = 283\nvalue = [0, 66, 86, 131]", fillcolor="#f6d2f9"] ;
0 -> 2 [labeldistance=2.5, labelangle=-45, headlabel="False"] ;
3 [label="gini = 0.491\nsamples = 152\nvalue = [0, 66, 86, 0]", fillcolor="#d1e8f9"] ;
2 -> 3 ;
4 [label="gini = 0.0\nsamples = 131\nvalue = [0, 0, 0, 131]", fillcolor="#d739e5"] ;
2 -> 4 ;
}